digraph Tree {
node [shape=box, style="filled, rounded", color="black", fontname=helvetica] ;
edge [fontname=helvetica] ;
0 [label=<TCP Src Port &le; 38301.0<br/>gini = 0.504<br/>samples = 232032<br/>value = [18232, 1844, 7852, 49843, 154261]<br/>class = Other>, fillcolor="#f08edb"] ;
1 [label=<UDP Src Port &le; 33819.0<br/>gini = 0.342<br/>samples = 163065<br/>value = [12053, 1826, 4561, 13656, 130969]<br/>class = Other>, fillcolor="#eb64ce"] ;
0 -> 1 [labeldistance=2.5, labelangle=45, headlabel="True"] ;
2 [label=<TCP Src Port &le; 3067.5<br/>gini = 0.228<br/>samples = 144814<br/>value = [12053, 1825, 2166, 2183, 126587]<br/>class = Other>, fillcolor="#e954c9"] ;
1 -> 2 ;
3 [label=<IP Protocol_1 &le; 0.5<br/>gini = 0.121<br/>samples = 124744<br/>value = [2937, 1582, 1549, 1783, 116893]<br/>class = Other>, fillcolor="#e746c4"] ;
2 -> 3 ;
4 [label=<Ethernet Type &le; 34741.5<br/>gini = 0.074<br/>samples = 117880<br/>value = [1006, 1582, 100, 1781, 113411]<br/>class = Other>, fillcolor="#e641c2"] ;
3 -> 4 ;
5 [label=<UDP Src Port &le; 1763.0<br/>gini = 0.06<br/>samples = 117020<br/>value = [1006, 724, 100, 1781, 113409]<br/>class = Other>, fillcolor="#e63fc2"] ;
4 -> 5 ;
6 [label=<IP Protocol_2 &le; 0.5<br/>gini = 0.025<br/>samples = 112565<br/>value = [0, 691, 36, 719, 111119]<br/>class = Other>, fillcolor="#e53cc1"] ;
5 -> 6 ;
7 [label=<Frame Length &le; 31.0<br/>gini = 0.017<br/>samples = 111787<br/>value = [0, 691, 9, 234, 110853]<br/>class = Other>, fillcolor="#e53bc1"] ;
6 -> 7 ;
8 [label=<gini = 0.0<br/>samples = 144<br/>value = [0, 144, 0, 0, 0]<br/>class = Sensor>, fillcolor="#7be539"] ;
7 -> 8 ;
9 [label=<IP Protocol_17 &le; 0.5<br/>gini = 0.014<br/>samples = 111643<br/>value = [0, 547, 9, 234, 110853]<br/>class = Other>, fillcolor="#e53ac0"] ;
7 -> 9 ;
10 [label=<gini = 0.0<br/>samples = 101776<br/>value = [0, 0, 0, 0, 101776]<br/>class = Other>, fillcolor="#e539c0"] ;
9 -> 10 ;
11 [label=<UDP Dst Port &le; 67.5<br/>gini = 0.15<br/>samples = 9867<br/>value = [0, 547, 9, 234, 9077]<br/>class = Other>, fillcolor="#e74ac5"] ;
9 -> 11 ;
12 [label=<IPv4 Flags_0 &le; 0.5<br/>gini = 0.496<br/>samples = 842<br/>value = [0, 547, 3, 234, 58]<br/>class = Sensor>, fillcolor="#bbf299"] ;
11 -> 12 ;
13 [label=<UDP Src Port &le; 33.5<br/>gini = 0.122<br/>samples = 248<br/>value = [0, 0, 3, 232, 13]<br/>class = Video>, fillcolor="#4946e7"] ;
12 -> 13 ;
14 [label=<gini = 0.0<br/>samples = 227<br/>value = [0, 0, 0, 227, 0]<br/>class = Video>, fillcolor="#3c39e5"] ;
13 -> 14 ;
15 [label=<Frame Length &le; 466.0<br/>gini = 0.54<br/>samples = 21<br/>value = [0, 0, 3, 5, 13]<br/>class = Other>, fillcolor="#f29ce0"] ;
13 -> 15 ;
16 [label=<gini = 0.643<br/>samples = 14<br/>value = [0, 0, 3, 5, 6]<br/>class = Other>, fillcolor="#fce9f8"] ;
15 -> 16 ;
17 [label=<gini = 0.0<br/>samples = 7<br/>value = [0, 0, 0, 0, 7]<br/>class = Other>, fillcolor="#e539c0"] ;
15 -> 17 ;
18 [label=<Frame Length &le; 346.0<br/>gini = 0.146<br/>samples = 594<br/>value = [0, 547, 0, 2, 45]<br/>class = Sensor>, fillcolor="#86e74a"] ;
12 -> 18 ;
19 [label=<Frame Length &le; 268.0<br/>gini = 0.044<br/>samples = 44<br/>value = [0, 0, 0, 1, 43]<br/>class = Other>, fillcolor="#e63ec1"] ;
18 -> 19 ;
20 [label=<gini = 0.0<br/>samples = 1<br/>value = [0, 0, 0, 1, 0]<br/>class = Video>, fillcolor="#3c39e5"] ;
19 -> 20 ;
21 [label=<gini = 0.0<br/>samples = 43<br/>value = [0, 0, 0, 0, 43]<br/>class = Other>, fillcolor="#e539c0"] ;
19 -> 21 ;
22 [label=<Frame Length &le; 352.5<br/>gini = 0.011<br/>samples = 550<br/>value = [0, 547, 0, 1, 2]<br/>class = Sensor>, fillcolor="#7ce53a"] ;
18 -> 22 ;
23 [label=<gini = 0.0<br/>samples = 547<br/>value = [0, 547, 0, 0, 0]<br/>class = Sensor>, fillcolor="#7be539"] ;
22 -> 23 ;
24 [label=<gini = 0.444<br/>samples = 3<br/>value = [0, 0, 0, 1, 2]<br/>class = Other>, fillcolor="#f29ce0"] ;
22 -> 24 ;
25 [label=<UDP Dst Port &le; 130.0<br/>gini = 0.001<br/>samples = 9025<br/>value = [0, 0, 6, 0, 9019]<br/>class = Other>, fillcolor="#e539c0"] ;
11 -> 25 ;
26 [label=<IPv4 Flags_0 &le; 0.5<br/>gini = 0.018<br/>samples = 659<br/>value = [0, 0, 6, 0, 653]<br/>class = Other>, fillcolor="#e53bc1"] ;
25 -> 26 ;
27 [label=<gini = 0.0<br/>samples = 6<br/>value = [0, 0, 6, 0, 0]<br/>class = Audio>, fillcolor="#39e5c5"] ;
26 -> 27 ;
28 [label=<gini = 0.0<br/>samples = 653<br/>value = [0, 0, 0, 0, 653]<br/>class = Other>, fillcolor="#e539c0"] ;
26 -> 28 ;
29 [label=<gini = 0.0<br/>samples = 8366<br/>value = [0, 0, 0, 0, 8366]<br/>class = Other>, fillcolor="#e539c0"] ;
25 -> 29 ;
30 [label=<IPv4 Flags_0 &le; 0.5<br/>gini = 0.493<br/>samples = 778<br/>value = [0, 0, 27, 485, 266]<br/>class = Video>, fillcolor="#acaaf4"] ;
6 -> 30 ;
31 [label=<Frame Length &le; 50.0<br/>gini = 0.1<br/>samples = 512<br/>value = [0, 0, 27, 485, 0]<br/>class = Video>, fillcolor="#4744e6"] ;
30 -> 31 ;
32 [label=<gini = 0.0<br/>samples = 485<br/>value = [0, 0, 0, 485, 0]<br/>class = Video>, fillcolor="#3c39e5"] ;
31 -> 32 ;
33 [label=<gini = 0.0<br/>samples = 27<br/>value = [0, 0, 27, 0, 0]<br/>class = Audio>, fillcolor="#39e5c5"] ;
31 -> 33 ;
34 [label=<gini = 0.0<br/>samples = 266<br/>value = [0, 0, 0, 0, 266]<br/>class = Other>, fillcolor="#e539c0"] ;
30 -> 34 ;
35 [label=<UDP Src Port &le; 4168.5<br/>gini = 0.628<br/>samples = 4455<br/>value = [1006, 33, 64, 1062, 2290]<br/>class = Other>, fillcolor="#f6b7e8"] ;
5 -> 35 ;
36 [label=<UDP Src Port &le; 2937.0<br/>gini = 0.614<br/>samples = 2073<br/>value = [1006, 0, 0, 733, 334]<br/>class = Smart Static>, fillcolor="#fae5d7"] ;
35 -> 36 ;
37 [label=<UDP Dst Port &le; 2561.0<br/>gini = 0.466<br/>samples = 791<br/>value = [0, 0, 0, 498, 293]<br/>class = Video>, fillcolor="#afadf4"] ;
36 -> 37 ;
38 [label=<gini = 0.0<br/>samples = 254<br/>value = [0, 0, 0, 0, 254]<br/>class = Other>, fillcolor="#e539c0"] ;
37 -> 38 ;
39 [label=<IPv4 Flags_0 &le; 0.5<br/>gini = 0.135<br/>samples = 537<br/>value = [0, 0, 0, 498, 39]<br/>class = Video>, fillcolor="#4b49e7"] ;
37 -> 39 ;
40 [label=<gini = 0.0<br/>samples = 498<br/>value = [0, 0, 0, 498, 0]<br/>class = Video>, fillcolor="#3c39e5"] ;
39 -> 40 ;
41 [label=<gini = 0.0<br/>samples = 39<br/>value = [0, 0, 0, 0, 39]<br/>class = Other>, fillcolor="#e539c0"] ;
39 -> 41 ;
42 [label=<UDP Src Port &le; 3404.5<br/>gini = 0.35<br/>samples = 1282<br/>value = [1006, 0, 0, 235, 41]<br/>class = Smart Static>, fillcolor="#eca26d"] ;
36 -> 42 ;
43 [label=<gini = 0.0<br/>samples = 1005<br/>value = [1005, 0, 0, 0, 0]<br/>class = Smart Static>, fillcolor="#e58139"] ;
42 -> 43 ;
44 [label=<Frame Length &le; 152.0<br/>gini = 0.258<br/>samples = 277<br/>value = [1, 0, 0, 235, 41]<br/>class = Video>, fillcolor="#5f5cea"] ;
42 -> 44 ;
45 [label=<IPv4 Flags_0 &le; 0.5<br/>gini = 0.046<br/>samples = 42<br/>value = [1, 0, 0, 0, 41]<br/>class = Other>, fillcolor="#e63ec2"] ;
44 -> 45 ;
46 [label=<gini = 0.0<br/>samples = 41<br/>value = [0, 0, 0, 0, 41]<br/>class = Other>, fillcolor="#e539c0"] ;
45 -> 46 ;
47 [label=<gini = 0.0<br/>samples = 1<br/>value = [1, 0, 0, 0, 0]<br/>class = Smart Static>, fillcolor="#e58139"] ;
45 -> 47 ;
48 [label=<gini = 0.0<br/>samples = 235<br/>value = [0, 0, 0, 235, 0]<br/>class = Video>, fillcolor="#3c39e5"] ;
44 -> 48 ;
49 [label=<IPv4 Flags_0 &le; 0.5<br/>gini = 0.306<br/>samples = 2382<br/>value = [0, 33, 64, 329, 1956]<br/>class = Other>, fillcolor="#ea62cd"] ;
35 -> 49 ;
50 [label=<Frame Length &le; 74.5<br/>gini = 0.542<br/>samples = 907<br/>value = [0, 0, 64, 329, 514]<br/>class = Other>, fillcolor="#f7c0eb"] ;
49 -> 50 ;
51 [label=<UDP Src Port &le; 16589.5<br/>gini = 0.06<br/>samples = 325<br/>value = [0, 0, 0, 315, 10]<br/>class = Video>, fillcolor="#423fe6"] ;
50 -> 51 ;
52 [label=<gini = 0.0<br/>samples = 9<br/>value = [0, 0, 0, 0, 9]<br/>class = Other>, fillcolor="#e539c0"] ;
51 -> 52 ;
53 [label=<UDP Src Port &le; 17448.0<br/>gini = 0.006<br/>samples = 316<br/>value = [0, 0, 0, 315, 1]<br/>class = Video>, fillcolor="#3d3ae5"] ;
51 -> 53 ;
54 [label=<gini = 0.0<br/>samples = 306<br/>value = [0, 0, 0, 306, 0]<br/>class = Video>, fillcolor="#3c39e5"] ;
53 -> 54 ;
55 [label=<UDP Src Port &le; 22643.5<br/>gini = 0.18<br/>samples = 10<br/>value = [0, 0, 0, 9, 1]<br/>class = Video>, fillcolor="#524fe8"] ;
53 -> 55 ;
56 [label=<gini = 0.0<br/>samples = 1<br/>value = [0, 0, 0, 0, 1]<br/>class = Other>, fillcolor="#e539c0"] ;
55 -> 56 ;
57 [label=<gini = 0.0<br/>samples = 9<br/>value = [0, 0, 0, 9, 0]<br/>class = Video>, fillcolor="#3c39e5"] ;
55 -> 57 ;
58 [label=<UDP Dst Port &le; 283.0<br/>gini = 0.237<br/>samples = 582<br/>value = [0, 0, 64, 14, 504]<br/>class = Other>, fillcolor="#e957c9"] ;
50 -> 58 ;
59 [label=<UDP Src Port &le; 32864.0<br/>gini = 0.569<br/>samples = 155<br/>value = [0, 0, 64, 13, 78]<br/>class = Other>, fillcolor="#fbe1f5"] ;
58 -> 59 ;
60 [label=<UDP Src Port &le; 32372.5<br/>gini = 0.131<br/>samples = 71<br/>value = [0, 0, 0, 5, 66]<br/>class = Other>, fillcolor="#e748c5"] ;
59 -> 60 ;
61 [label=<Frame Length &le; 78.5<br/>gini = 0.084<br/>samples = 68<br/>value = [0, 0, 0, 3, 65]<br/>class = Other>, fillcolor="#e642c3"] ;
60 -> 61 ;
62 [label=<gini = 0.42<br/>samples = 10<br/>value = [0, 0, 0, 3, 7]<br/>class = Other>, fillcolor="#f08edb"] ;
61 -> 62 ;
63 [label=<gini = 0.0<br/>samples = 58<br/>value = [0, 0, 0, 0, 58]<br/>class = Other>, fillcolor="#e539c0"] ;
61 -> 63 ;
64 [label=<UDP Src Port &le; 32827.0<br/>gini = 0.444<br/>samples = 3<br/>value = [0, 0, 0, 2, 1]<br/>class = Video>, fillcolor="#9e9cf2"] ;
60 -> 64 ;
65 [label=<gini = 0.0<br/>samples = 2<br/>value = [0, 0, 0, 2, 0]<br/>class = Video>, fillcolor="#3c39e5"] ;
64 -> 65 ;
66 [label=<gini = 0.0<br/>samples = 1<br/>value = [0, 0, 0, 0, 1]<br/>class = Other>, fillcolor="#e539c0"] ;
64 -> 66 ;
67 [label=<Frame Length &le; 75.5<br/>gini = 0.39<br/>samples = 84<br/>value = [0, 0, 64, 8, 12]<br/>class = Audio>, fillcolor="#70ecd5"] ;
59 -> 67 ;
68 [label=<UDP Src Port &le; 33005.0<br/>gini = 0.064<br/>samples = 30<br/>value = [0, 0, 29, 0, 1]<br/>class = Audio>, fillcolor="#40e6c7"] ;
67 -> 68 ;
69 [label=<gini = 0.245<br/>samples = 7<br/>value = [0, 0, 6, 0, 1]<br/>class = Audio>, fillcolor="#5ae9cf"] ;
68 -> 69 ;
70 [label=<gini = 0.0<br/>samples = 23<br/>value = [0, 0, 23, 0, 0]<br/>class = Audio>, fillcolor="#39e5c5"] ;
68 -> 70 ;
71 [label=<UDP Dst Port &le; 88.0<br/>gini = 0.516<br/>samples = 54<br/>value = [0, 0, 35, 8, 11]<br/>class = Audio>, fillcolor="#90f0df"] ;
67 -> 71 ;
72 [label=<gini = 0.537<br/>samples = 18<br/>value = [0, 0, 2, 5, 11]<br/>class = Other>, fillcolor="#f3a4e2"] ;
71 -> 72 ;
73 [label=<gini = 0.153<br/>samples = 36<br/>value = [0, 0, 33, 3, 0]<br/>class = Audio>, fillcolor="#4be7ca"] ;
71 -> 73 ;
74 [label=<UDP Src Port &le; 6176.5<br/>gini = 0.005<br/>samples = 427<br/>value = [0, 0, 0, 1, 426]<br/>class = Other>, fillcolor="#e539c0"] ;
58 -> 74 ;
75 [label=<Frame Length &le; 196.0<br/>gini = 0.133<br/>samples = 14<br/>value = [0, 0, 0, 1, 13]<br/>class = Other>, fillcolor="#e748c5"] ;
74 -> 75 ;
76 [label=<gini = 0.0<br/>samples = 11<br/>value = [0, 0, 0, 0, 11]<br/>class = Other>, fillcolor="#e539c0"] ;
75 -> 76 ;
77 [label=<Frame Length &le; 305.5<br/>gini = 0.444<br/>samples = 3<br/>value = [0, 0, 0, 1, 2]<br/>class = Other>, fillcolor="#f29ce0"] ;
75 -> 77 ;
78 [label=<gini = 0.0<br/>samples = 1<br/>value = [0, 0, 0, 1, 0]<br/>class = Video>, fillcolor="#3c39e5"] ;
77 -> 78 ;
79 [label=<gini = 0.0<br/>samples = 2<br/>value = [0, 0, 0, 0, 2]<br/>class = Other>, fillcolor="#e539c0"] ;
77 -> 79 ;
80 [label=<gini = 0.0<br/>samples = 413<br/>value = [0, 0, 0, 0, 413]<br/>class = Other>, fillcolor="#e539c0"] ;
74 -> 80 ;
81 [label=<UDP Dst Port &le; 88.0<br/>gini = 0.044<br/>samples = 1475<br/>value = [0, 33, 0, 0, 1442]<br/>class = Other>, fillcolor="#e63ec1"] ;
49 -> 81 ;
82 [label=<UDP Src Port &le; 16130.0<br/>gini = 0.499<br/>samples = 69<br/>value = [0, 33, 0, 0, 36]<br/>class = Other>, fillcolor="#fdeffa"] ;
81 -> 82 ;
83 [label=<gini = 0.0<br/>samples = 36<br/>value = [0, 0, 0, 0, 36]<br/>class = Other>, fillcolor="#e539c0"] ;
82 -> 83 ;
84 [label=<gini = 0.0<br/>samples = 33<br/>value = [0, 33, 0, 0, 0]<br/>class = Sensor>, fillcolor="#7be539"] ;
82 -> 84 ;
85 [label=<gini = 0.0<br/>samples = 1406<br/>value = [0, 0, 0, 0, 1406]<br/>class = Other>, fillcolor="#e539c0"] ;
81 -> 85 ;
86 [label=<Ethernet Type &le; 35021.5<br/>gini = 0.005<br/>samples = 860<br/>value = [0, 858, 0, 0, 2]<br/>class = Sensor>, fillcolor="#7be539"] ;
4 -> 86 ;
87 [label=<Frame Length &le; 124.0<br/>gini = 0.002<br/>samples = 859<br/>value = [0, 858, 0, 0, 1]<br/>class = Sensor>, fillcolor="#7be539"] ;
86 -> 87 ;
88 [label=<gini = 0.0<br/>samples = 749<br/>value = [0, 749, 0, 0, 0]<br/>class = Sensor>, fillcolor="#7be539"] ;
87 -> 88 ;
89 [label=<Frame Length &le; 137.0<br/>gini = 0.018<br/>samples = 110<br/>value = [0, 109, 0, 0, 1]<br/>class = Sensor>, fillcolor="#7ce53b"] ;
87 -> 89 ;
90 [label=<gini = 0.0<br/>samples = 1<br/>value = [0, 0, 0, 0, 1]<br/>class = Other>, fillcolor="#e539c0"] ;
89 -> 90 ;
91 [label=<gini = 0.0<br/>samples = 109<br/>value = [0, 109, 0, 0, 0]<br/>class = Sensor>, fillcolor="#7be539"] ;
89 -> 91 ;
92 [label=<gini = 0.0<br/>samples = 1<br/>value = [0, 0, 0, 0, 1]<br/>class = Other>, fillcolor="#e539c0"] ;
86 -> 92 ;
93 [label=<IPv4 Flags_0 &le; 0.5<br/>gini = 0.619<br/>samples = 6864<br/>value = [1931, 0, 1449, 2, 3482]<br/>class = Other>, fillcolor="#f7c1eb"] ;
3 -> 93 ;
94 [label=<Frame Length &le; 108.0<br/>gini = 0.512<br/>samples = 3458<br/>value = [1931, 0, 1449, 0, 78]<br/>class = Smart Static>, fillcolor="#f9e1cf"] ;
93 -> 94 ;
95 [label=<Frame Length &le; 80.0<br/>gini = 0.097<br/>samples = 1527<br/>value = [0, 0, 1449, 0, 78]<br/>class = Audio>, fillcolor="#44e6c8"] ;
94 -> 95 ;
96 [label=<gini = 0.0<br/>samples = 78<br/>value = [0, 0, 0, 0, 78]<br/>class = Other>, fillcolor="#e539c0"] ;
95 -> 96 ;
97 [label=<gini = 0.0<br/>samples = 1449<br/>value = [0, 0, 1449, 0, 0]<br/>class = Audio>, fillcolor="#39e5c5"] ;
95 -> 97 ;
98 [label=<gini = 0.0<br/>samples = 1931<br/>value = [1931, 0, 0, 0, 0]<br/>class = Smart Static>, fillcolor="#e58139"] ;
94 -> 98 ;
99 [label=<UDP Dst Port &le; 40162.5<br/>gini = 0.001<br/>samples = 3406<br/>value = [0, 0, 0, 2, 3404]<br/>class = Other>, fillcolor="#e539c0"] ;
93 -> 99 ;
100 [label=<gini = 0.0<br/>samples = 3397<br/>value = [0, 0, 0, 0, 3397]<br/>class = Other>, fillcolor="#e539c0"] ;
99 -> 100 ;
101 [label=<UDP Dst Port &le; 49956.0<br/>gini = 0.346<br/>samples = 9<br/>value = [0, 0, 0, 2, 7]<br/>class = Other>, fillcolor="#ec72d2"] ;
99 -> 101 ;
102 [label=<gini = 0.0<br/>samples = 2<br/>value = [0, 0, 0, 2, 0]<br/>class = Video>, fillcolor="#3c39e5"] ;
101 -> 102 ;
103 [label=<gini = 0.0<br/>samples = 7<br/>value = [0, 0, 0, 0, 7]<br/>class = Other>, fillcolor="#e539c0"] ;
101 -> 103 ;
104 [label=<TCP Src Port &le; 5110.0<br/>gini = 0.559<br/>samples = 20070<br/>value = [9116, 243, 617, 400, 9694]<br/>class = Other>, fillcolor="#fef5fc"] ;
2 -> 104 ;
105 [label=<TCP Dst Port &le; 51794.0<br/>gini = 0.101<br/>samples = 9631<br/>value = [9116, 0, 0, 0, 515]<br/>class = Smart Static>, fillcolor="#e68844"] ;
104 -> 105 ;
106 [label=<TCP Dst Port &le; 6365.0<br/>gini = 0.036<br/>samples = 9286<br/>value = [9116, 0, 0, 0, 170]<br/>class = Smart Static>, fillcolor="#e5833d"] ;
105 -> 106 ;
107 [label=<TCP Dst Port &le; 3778.5<br/>gini = 0.3<br/>samples = 927<br/>value = [757, 0, 0, 0, 170]<br/>class = Smart Static>, fillcolor="#eb9d65"] ;
106 -> 107 ;
108 [label=<TCP Src Port &le; 3489.5<br/>gini = 0.159<br/>samples = 829<br/>value = [757, 0, 0, 0, 72]<br/>class = Smart Static>, fillcolor="#e78d4c"] ;
107 -> 108 ;
109 [label=<TCP Src Port &le; 3441.0<br/>gini = 0.386<br/>samples = 276<br/>value = [204, 0, 0, 0, 72]<br/>class = Smart Static>, fillcolor="#eead7f"] ;
108 -> 109 ;
110 [label=<gini = 0.0<br/>samples = 204<br/>value = [204, 0, 0, 0, 0]<br/>class = Smart Static>, fillcolor="#e58139"] ;
109 -> 110 ;
111 [label=<gini = 0.0<br/>samples = 72<br/>value = [0, 0, 0, 0, 72]<br/>class = Other>, fillcolor="#e539c0"] ;
109 -> 111 ;
112 [label=<gini = 0.0<br/>samples = 553<br/>value = [553, 0, 0, 0, 0]<br/>class = Smart Static>, fillcolor="#e58139"] ;
108 -> 112 ;
113 [label=<gini = 0.0<br/>samples = 98<br/>value = [0, 0, 0, 0, 98]<br/>class = Other>, fillcolor="#e539c0"] ;
107 -> 113 ;
114 [label=<gini = 0.0<br/>samples = 8359<br/>value = [8359, 0, 0, 0, 0]<br/>class = Smart Static>, fillcolor="#e58139"] ;
106 -> 114 ;
115 [label=<gini = 0.0<br/>samples = 345<br/>value = [0, 0, 0, 0, 345]<br/>class = Other>, fillcolor="#e539c0"] ;
105 -> 115 ;
116 [label=<TCP Dst Port &le; 729.0<br/>gini = 0.221<br/>samples = 10439<br/>value = [0, 243, 617, 400, 9179]<br/>class = Other>, fillcolor="#e852c8"] ;
104 -> 116 ;
117 [label=<Frame Length &le; 60.0<br/>gini = 0.54<br/>samples = 1464<br/>value = [0, 0, 617, 72, 775]<br/>class = Other>, fillcolor="#fadaf3"] ;
116 -> 117 ;
118 [label=<TCP Src Port &le; 33896.5<br/>gini = 0.442<br/>samples = 293<br/>value = [0, 0, 208, 20, 65]<br/>class = Audio>, fillcolor="#83efdb"] ;
117 -> 118 ;
119 [label=<TCP Src Port &le; 33553.0<br/>gini = 0.372<br/>samples = 49<br/>value = [0, 0, 7, 4, 38]<br/>class = Other>, fillcolor="#ec6dd0"] ;
118 -> 119 ;
120 [label=<TCP Dst Port &le; 261.5<br/>gini = 0.628<br/>samples = 11<br/>value = [0, 0, 5, 4, 2]<br/>class = Audio>, fillcolor="#e3fbf7"] ;
119 -> 120 ;
121 [label=<gini = 0.0<br/>samples = 4<br/>value = [0, 0, 0, 4, 0]<br/>class = Video>, fillcolor="#3c39e5"] ;
120 -> 121 ;
122 [label=<TCP Flags_4 &le; 0.5<br/>gini = 0.408<br/>samples = 7<br/>value = [0, 0, 5, 0, 2]<br/>class = Audio>, fillcolor="#88efdc"] ;
120 -> 122 ;
123 [label=<gini = 0.0<br/>samples = 5<br/>value = [0, 0, 5, 0, 0]<br/>class = Audio>, fillcolor="#39e5c5"] ;
122 -> 123 ;
124 [label=<gini = 0.0<br/>samples = 2<br/>value = [0, 0, 0, 0, 2]<br/>class = Other>, fillcolor="#e539c0"] ;
122 -> 124 ;
125 [label=<TCP Src Port &le; 33674.0<br/>gini = 0.1<br/>samples = 38<br/>value = [0, 0, 2, 0, 36]<br/>class = Other>, fillcolor="#e644c4"] ;
119 -> 125 ;
126 [label=<TCP Src Port &le; 33631.0<br/>gini = 0.198<br/>samples = 18<br/>value = [0, 0, 2, 0, 16]<br/>class = Other>, fillcolor="#e852c8"] ;
125 -> 126 ;
127 [label=<gini = 0.0<br/>samples = 16<br/>value = [0, 0, 0, 0, 16]<br/>class = Other>, fillcolor="#e539c0"] ;
126 -> 127 ;
128 [label=<gini = 0.0<br/>samples = 2<br/>value = [0, 0, 2, 0, 0]<br/>class = Audio>, fillcolor="#39e5c5"] ;
126 -> 128 ;
129 [label=<gini = 0.0<br/>samples = 20<br/>value = [0, 0, 0, 0, 20]<br/>class = Other>, fillcolor="#e539c0"] ;
125 -> 129 ;
130 [label=<TCP Dst Port &le; 261.5<br/>gini = 0.305<br/>samples = 244<br/>value = [0, 0, 201, 16, 27]<br/>class = Audio>, fillcolor="#60ead0"] ;
118 -> 130 ;
131 [label=<gini = 0.0<br/>samples = 16<br/>value = [0, 0, 0, 16, 0]<br/>class = Video>, fillcolor="#3c39e5"] ;
130 -> 131 ;
132 [label=<TCP Flags_4 &le; 0.5<br/>gini = 0.209<br/>samples = 228<br/>value = [0, 0, 201, 0, 27]<br/>class = Audio>, fillcolor="#54e8cd"] ;
130 -> 132 ;
133 [label=<TCP Src Port &le; 34716.0<br/>gini = 0.158<br/>samples = 219<br/>value = [0, 0, 200, 0, 19]<br/>class = Audio>, fillcolor="#4ce7cb"] ;
132 -> 133 ;
134 [label=<gini = 0.0<br/>samples = 99<br/>value = [0, 0, 99, 0, 0]<br/>class = Audio>, fillcolor="#39e5c5"] ;
133 -> 134 ;
135 [label=<TCP Src Port &le; 36275.0<br/>gini = 0.267<br/>samples = 120<br/>value = [0, 0, 101, 0, 19]<br/>class = Audio>, fillcolor="#5eead0"] ;
133 -> 135 ;
136 [label=<TCP Src Port &le; 35529.5<br/>gini = 0.453<br/>samples = 26<br/>value = [0, 0, 9, 0, 17]<br/>class = Other>, fillcolor="#f3a2e1"] ;
135 -> 136 ;
137 [label=<TCP Src Port &le; 34923.5<br/>gini = 0.408<br/>samples = 7<br/>value = [0, 0, 5, 0, 2]<br/>class = Audio>, fillcolor="#88efdc"] ;
136 -> 137 ;
138 [label=<gini = 0.0<br/>samples = 2<br/>value = [0, 0, 0, 0, 2]<br/>class = Other>, fillcolor="#e539c0"] ;
137 -> 138 ;
139 [label=<gini = 0.0<br/>samples = 5<br/>value = [0, 0, 5, 0, 0]<br/>class = Audio>, fillcolor="#39e5c5"] ;
137 -> 139 ;
140 [label=<TCP Src Port &le; 35747.0<br/>gini = 0.332<br/>samples = 19<br/>value = [0, 0, 4, 0, 15]<br/>class = Other>, fillcolor="#ec6ed1"] ;
136 -> 140 ;
141 [label=<gini = 0.0<br/>samples = 9<br/>value = [0, 0, 0, 0, 9]<br/>class = Other>, fillcolor="#e539c0"] ;
140 -> 141 ;
142 [label=<gini = 0.48<br/>samples = 10<br/>value = [0, 0, 4, 0, 6]<br/>class = Other>, fillcolor="#f6bdea"] ;
140 -> 142 ;
143 [label=<TCP Flags_17 &le; 0.5<br/>gini = 0.042<br/>samples = 94<br/>value = [0, 0, 92, 0, 2]<br/>class = Audio>, fillcolor="#3de6c6"] ;
135 -> 143 ;
144 [label=<TCP Src Port &le; 36669.0<br/>gini = 0.021<br/>samples = 93<br/>value = [0, 0, 92, 0, 1]<br/>class = Audio>, fillcolor="#3be5c6"] ;
143 -> 144 ;
145 [label=<gini = 0.0<br/>samples = 49<br/>value = [0, 0, 49, 0, 0]<br/>class = Audio>, fillcolor="#39e5c5"] ;
144 -> 145 ;
146 [label=<gini = 0.044<br/>samples = 44<br/>value = [0, 0, 43, 0, 1]<br/>class = Audio>, fillcolor="#3ee6c6"] ;
144 -> 146 ;
147 [label=<gini = 0.0<br/>samples = 1<br/>value = [0, 0, 0, 0, 1]<br/>class = Other>, fillcolor="#e539c0"] ;
143 -> 147 ;
148 [label=<TCP Src Port &le; 34287.0<br/>gini = 0.198<br/>samples = 9<br/>value = [0, 0, 1, 0, 8]<br/>class = Other>, fillcolor="#e852c8"] ;
132 -> 148 ;
149 [label=<gini = 0.0<br/>samples = 1<br/>value = [0, 0, 1, 0, 0]<br/>class = Audio>, fillcolor="#39e5c5"] ;
148 -> 149 ;
150 [label=<gini = 0.0<br/>samples = 8<br/>value = [0, 0, 0, 0, 8]<br/>class = Other>, fillcolor="#e539c0"] ;
148 -> 150 ;
151 [label=<TCP Dst Port &le; 454.0<br/>gini = 0.508<br/>samples = 1171<br/>value = [0, 0, 409, 52, 710]<br/>class = Other>, fillcolor="#f5b1e6"] ;
117 -> 151 ;
152 [label=<TCP Flags_16 &le; 0.5<br/>gini = 0.471<br/>samples = 1127<br/>value = [0, 0, 409, 8, 710]<br/>class = Other>, fillcolor="#f4ace5"] ;
151 -> 152 ;
153 [label=<Frame Length &le; 95.5<br/>gini = 0.509<br/>samples = 696<br/>value = [0, 0, 323, 8, 365]<br/>class = Other>, fillcolor="#fce9f8"] ;
152 -> 153 ;
154 [label=<Frame Length &le; 90.0<br/>gini = 0.428<br/>samples = 392<br/>value = [0, 0, 274, 5, 113]<br/>class = Audio>, fillcolor="#8df0de"] ;
153 -> 154 ;
155 [label=<TCP Dst Port &le; 261.5<br/>gini = 0.52<br/>samples = 217<br/>value = [0, 0, 99, 5, 113]<br/>class = Other>, fillcolor="#fce8f8"] ;
154 -> 155 ;
156 [label=<TCP Src Port &le; 33356.5<br/>gini = 0.458<br/>samples = 116<br/>value = [0, 0, 79, 5, 32]<br/>class = Audio>, fillcolor="#90f0df"] ;
155 -> 156 ;
157 [label=<TCP Src Port &le; 33067.5<br/>gini = 0.444<br/>samples = 12<br/>value = [0, 0, 4, 0, 8]<br/>class = Other>, fillcolor="#f29ce0"] ;
156 -> 157 ;
158 [label=<gini = 0.49<br/>samples = 7<br/>value = [0, 0, 4, 0, 3]<br/>class = Audio>, fillcolor="#cef8f0"] ;
157 -> 158 ;
159 [label=<gini = 0.0<br/>samples = 5<br/>value = [0, 0, 0, 0, 5]<br/>class = Other>, fillcolor="#e539c0"] ;
157 -> 159 ;
160 [label=<TCP Src Port &le; 35476.0<br/>gini = 0.424<br/>samples = 104<br/>value = [0, 0, 75, 5, 24]<br/>class = Audio>, fillcolor="#81eeda"] ;
156 -> 160 ;
161 [label=<gini = 0.295<br/>samples = 59<br/>value = [0, 0, 49, 4, 6]<br/>class = Audio>, fillcolor="#5eead0"] ;
160 -> 161 ;
162 [label=<gini = 0.506<br/>samples = 45<br/>value = [0, 0, 26, 1, 18]<br/>class = Audio>, fillcolor="#c4f7ee"] ;
160 -> 162 ;
163 [label=<TCP Src Port &le; 33878.0<br/>gini = 0.318<br/>samples = 101<br/>value = [0, 0, 20, 0, 81]<br/>class = Other>, fillcolor="#eb6ad0"] ;
155 -> 163 ;
164 [label=<TCP Src Port &le; 33633.0<br/>gini = 0.071<br/>samples = 27<br/>value = [0, 0, 1, 0, 26]<br/>class = Other>, fillcolor="#e641c2"] ;
163 -> 164 ;
165 [label=<gini = 0.0<br/>samples = 15<br/>value = [0, 0, 0, 0, 15]<br/>class = Other>, fillcolor="#e539c0"] ;
164 -> 165 ;
166 [label=<gini = 0.153<br/>samples = 12<br/>value = [0, 0, 1, 0, 11]<br/>class = Other>, fillcolor="#e74bc6"] ;
164 -> 166 ;
167 [label=<TCP Src Port &le; 37181.5<br/>gini = 0.382<br/>samples = 74<br/>value = [0, 0, 19, 0, 55]<br/>class = Other>, fillcolor="#ee7dd6"] ;
163 -> 167 ;
168 [label=<gini = 0.452<br/>samples = 55<br/>value = [0, 0, 19, 0, 36]<br/>class = Other>, fillcolor="#f3a2e1"] ;
167 -> 168 ;
169 [label=<gini = 0.0<br/>samples = 19<br/>value = [0, 0, 0, 0, 19]<br/>class = Other>, fillcolor="#e539c0"] ;
167 -> 169 ;
170 [label=<gini = 0.0<br/>samples = 175<br/>value = [0, 0, 175, 0, 0]<br/>class = Audio>, fillcolor="#39e5c5"] ;
154 -> 170 ;
171 [label=<TCP Src Port &le; 36340.0<br/>gini = 0.287<br/>samples = 304<br/>value = [0, 0, 49, 3, 252]<br/>class = Other>, fillcolor="#ea61cd"] ;
153 -> 171 ;
172 [label=<TCP Src Port &le; 34637.5<br/>gini = 0.211<br/>samples = 211<br/>value = [0, 0, 23, 2, 186]<br/>class = Other>, fillcolor="#e853c8"] ;
171 -> 172 ;
173 [label=<TCP Src Port &le; 34512.5<br/>gini = 0.303<br/>samples = 121<br/>value = [0, 0, 20, 2, 99]<br/>class = Other>, fillcolor="#eb64ce"] ;
172 -> 173 ;
174 [label=<TCP Src Port &le; 34224.5<br/>gini = 0.195<br/>samples = 111<br/>value = [0, 0, 11, 1, 99]<br/>class = Other>, fillcolor="#e851c8"] ;
173 -> 174 ;
175 [label=<gini = 0.138<br/>samples = 95<br/>value = [0, 0, 6, 1, 88]<br/>class = Other>, fillcolor="#e749c5"] ;
174 -> 175 ;
176 [label=<gini = 0.43<br/>samples = 16<br/>value = [0, 0, 5, 0, 11]<br/>class = Other>, fillcolor="#f193dd"] ;
174 -> 176 ;
177 [label=<TCP Dst Port &le; 261.5<br/>gini = 0.18<br/>samples = 10<br/>value = [0, 0, 9, 1, 0]<br/>class = Audio>, fillcolor="#4fe8cb"] ;
173 -> 177 ;
178 [label=<gini = 0.0<br/>samples = 1<br/>value = [0, 0, 0, 1, 0]<br/>class = Video>, fillcolor="#3c39e5"] ;
177 -> 178 ;
179 [label=<gini = 0.0<br/>samples = 9<br/>value = [0, 0, 9, 0, 0]<br/>class = Audio>, fillcolor="#39e5c5"] ;
177 -> 179 ;
180 [label=<Frame Length &le; 564.0<br/>gini = 0.064<br/>samples = 90<br/>value = [0, 0, 3, 0, 87]<br/>class = Other>, fillcolor="#e640c2"] ;
172 -> 180 ;
181 [label=<Frame Length &le; 158.5<br/>gini = 0.028<br/>samples = 70<br/>value = [0, 0, 1, 0, 69]<br/>class = Other>, fillcolor="#e53cc1"] ;
180 -> 181 ;
182 [label=<gini = 0.064<br/>samples = 30<br/>value = [0, 0, 1, 0, 29]<br/>class = Other>, fillcolor="#e640c2"] ;
181 -> 182 ;
183 [label=<gini = 0.0<br/>samples = 40<br/>value = [0, 0, 0, 0, 40]<br/>class = Other>, fillcolor="#e539c0"] ;
181 -> 183 ;
184 [label=<Frame Length &le; 592.5<br/>gini = 0.18<br/>samples = 20<br/>value = [0, 0, 2, 0, 18]<br/>class = Other>, fillcolor="#e84fc7"] ;
180 -> 184 ;
185 [label=<gini = 0.0<br/>samples = 2<br/>value = [0, 0, 2, 0, 0]<br/>class = Audio>, fillcolor="#39e5c5"] ;
184 -> 185 ;
186 [label=<gini = 0.0<br/>samples = 18<br/>value = [0, 0, 0, 0, 18]<br/>class = Other>, fillcolor="#e539c0"] ;
184 -> 186 ;
187 [label=<TCP Src Port &le; 36620.5<br/>gini = 0.418<br/>samples = 93<br/>value = [0, 0, 26, 1, 66]<br/>class = Other>, fillcolor="#ef89d9"] ;
171 -> 187 ;
188 [label=<Frame Length &le; 387.0<br/>gini = 0.375<br/>samples = 20<br/>value = [0, 0, 15, 0, 5]<br/>class = Audio>, fillcolor="#7beed8"] ;
187 -> 188 ;
189 [label=<TCP Src Port &le; 36428.0<br/>gini = 0.142<br/>samples = 13<br/>value = [0, 0, 12, 0, 1]<br/>class = Audio>, fillcolor="#49e7ca"] ;
188 -> 189 ;
190 [label=<gini = 0.444<br/>samples = 3<br/>value = [0, 0, 2, 0, 1]<br/>class = Audio>, fillcolor="#9cf2e2"] ;
189 -> 190 ;
191 [label=<gini = 0.0<br/>samples = 10<br/>value = [0, 0, 10, 0, 0]<br/>class = Audio>, fillcolor="#39e5c5"] ;
189 -> 191 ;
192 [label=<Frame Length &le; 420.0<br/>gini = 0.49<br/>samples = 7<br/>value = [0, 0, 3, 0, 4]<br/>class = Other>, fillcolor="#f8ceef"] ;
188 -> 192 ;
193 [label=<gini = 0.0<br/>samples = 2<br/>value = [0, 0, 0, 0, 2]<br/>class = Other>, fillcolor="#e539c0"] ;
192 -> 193 ;
194 [label=<gini = 0.48<br/>samples = 5<br/>value = [0, 0, 3, 0, 2]<br/>class = Audio>, fillcolor="#bdf6ec"] ;
192 -> 194 ;
195 [label=<TCP Src Port &le; 36945.0<br/>gini = 0.279<br/>samples = 73<br/>value = [0, 0, 11, 1, 61]<br/>class = Other>, fillcolor="#ea5fcc"] ;
187 -> 195 ;
196 [label=<TCP Src Port &le; 36907.5<br/>gini = 0.48<br/>samples = 10<br/>value = [0, 0, 4, 0, 6]<br/>class = Other>, fillcolor="#f6bdea"] ;
195 -> 196 ;
197 [label=<gini = 0.0<br/>samples = 6<br/>value = [0, 0, 0, 0, 6]<br/>class = Other>, fillcolor="#e539c0"] ;
196 -> 197 ;
198 [label=<gini = 0.0<br/>samples = 4<br/>value = [0, 0, 4, 0, 0]<br/>class = Audio>, fillcolor="#39e5c5"] ;
196 -> 198 ;
199 [label=<TCP Src Port &le; 38248.5<br/>gini = 0.225<br/>samples = 63<br/>value = [0, 0, 7, 1, 55]<br/>class = Other>, fillcolor="#e955c9"] ;
195 -> 199 ;
200 [label=<gini = 0.188<br/>samples = 58<br/>value = [0, 0, 5, 1, 52]<br/>class = Other>, fillcolor="#e84fc7"] ;
199 -> 200 ;
201 [label=<gini = 0.48<br/>samples = 5<br/>value = [0, 0, 2, 0, 3]<br/>class = Other>, fillcolor="#f6bdea"] ;
199 -> 201 ;
202 [label=<TCP Dst Port &le; 261.5<br/>gini = 0.319<br/>samples = 431<br/>value = [0, 0, 86, 0, 345]<br/>class = Other>, fillcolor="#eb6ad0"] ;
152 -> 202 ;
203 [label=<Frame Length &le; 790.0<br/>gini = 0.497<br/>samples = 143<br/>value = [0, 0, 66, 0, 77]<br/>class = Other>, fillcolor="#fbe3f6"] ;
202 -> 203 ;
204 [label=<TCP Src Port &le; 35734.5<br/>gini = 0.5<br/>samples = 134<br/>value = [0, 0, 66, 0, 68]<br/>class = Other>, fillcolor="#fef9fd"] ;
203 -> 204 ;
205 [label=<TCP Src Port &le; 35475.0<br/>gini = 0.481<br/>samples = 77<br/>value = [0, 0, 31, 0, 46]<br/>class = Other>, fillcolor="#f7beea"] ;
204 -> 205 ;
206 [label=<TCP Src Port &le; 34784.0<br/>gini = 0.499<br/>samples = 65<br/>value = [0, 0, 31, 0, 34]<br/>class = Other>, fillcolor="#fdeef9"] ;
205 -> 206 ;
207 [label=<gini = 0.464<br/>samples = 52<br/>value = [0, 0, 19, 0, 33]<br/>class = Other>, fillcolor="#f4abe4"] ;
206 -> 207 ;
208 [label=<gini = 0.142<br/>samples = 13<br/>value = [0, 0, 12, 0, 1]<br/>class = Audio>, fillcolor="#49e7ca"] ;
206 -> 208 ;
209 [label=<gini = 0.0<br/>samples = 12<br/>value = [0, 0, 0, 0, 12]<br/>class = Other>, fillcolor="#e539c0"] ;
205 -> 209 ;
210 [label=<TCP Src Port &le; 35938.0<br/>gini = 0.474<br/>samples = 57<br/>value = [0, 0, 35, 0, 22]<br/>class = Audio>, fillcolor="#b5f5e9"] ;
204 -> 210 ;
211 [label=<gini = 0.0<br/>samples = 7<br/>value = [0, 0, 7, 0, 0]<br/>class = Audio>, fillcolor="#39e5c5"] ;
210 -> 211 ;
212 [label=<TCP Src Port &le; 36017.5<br/>gini = 0.493<br/>samples = 50<br/>value = [0, 0, 28, 0, 22]<br/>class = Audio>, fillcolor="#d5f9f3"] ;
210 -> 212 ;
213 [label=<gini = 0.0<br/>samples = 3<br/>value = [0, 0, 0, 0, 3]<br/>class = Other>, fillcolor="#e539c0"] ;
212 -> 213 ;
214 [label=<gini = 0.482<br/>samples = 47<br/>value = [0, 0, 28, 0, 19]<br/>class = Audio>, fillcolor="#bff7ec"] ;
212 -> 214 ;
215 [label=<gini = 0.0<br/>samples = 9<br/>value = [0, 0, 0, 0, 9]<br/>class = Other>, fillcolor="#e539c0"] ;
203 -> 215 ;
216 [label=<Frame Length &le; 1499.0<br/>gini = 0.129<br/>samples = 288<br/>value = [0, 0, 20, 0, 268]<br/>class = Other>, fillcolor="#e748c5"] ;
202 -> 216 ;
217 [label=<TCP Src Port &le; 38255.5<br/>gini = 0.107<br/>samples = 283<br/>value = [0, 0, 16, 0, 267]<br/>class = Other>, fillcolor="#e745c4"] ;
216 -> 217 ;
218 [label=<TCP Src Port &le; 35559.5<br/>gini = 0.09<br/>samples = 276<br/>value = [0, 0, 13, 0, 263]<br/>class = Other>, fillcolor="#e643c3"] ;
217 -> 218 ;
219 [label=<TCP Src Port &le; 35453.5<br/>gini = 0.142<br/>samples = 143<br/>value = [0, 0, 11, 0, 132]<br/>class = Other>, fillcolor="#e749c5"] ;
218 -> 219 ;
220 [label=<gini = 0.12<br/>samples = 141<br/>value = [0, 0, 9, 0, 132]<br/>class = Other>, fillcolor="#e746c4"] ;
219 -> 220 ;
221 [label=<gini = 0.0<br/>samples = 2<br/>value = [0, 0, 2, 0, 0]<br/>class = Audio>, fillcolor="#39e5c5"] ;
219 -> 221 ;
222 [label=<TCP Src Port &le; 36590.0<br/>gini = 0.03<br/>samples = 133<br/>value = [0, 0, 2, 0, 131]<br/>class = Other>, fillcolor="#e53cc1"] ;
218 -> 222 ;
223 [label=<gini = 0.0<br/>samples = 76<br/>value = [0, 0, 0, 0, 76]<br/>class = Other>, fillcolor="#e539c0"] ;
222 -> 223 ;
224 [label=<gini = 0.068<br/>samples = 57<br/>value = [0, 0, 2, 0, 55]<br/>class = Other>, fillcolor="#e640c2"] ;
222 -> 224 ;
225 [label=<TCP Src Port &le; 38258.5<br/>gini = 0.49<br/>samples = 7<br/>value = [0, 0, 3, 0, 4]<br/>class = Other>, fillcolor="#f8ceef"] ;
217 -> 225 ;
226 [label=<gini = 0.0<br/>samples = 3<br/>value = [0, 0, 3, 0, 0]<br/>class = Audio>, fillcolor="#39e5c5"] ;
225 -> 226 ;
227 [label=<gini = 0.0<br/>samples = 4<br/>value = [0, 0, 0, 0, 4]<br/>class = Other>, fillcolor="#e539c0"] ;
225 -> 227 ;
228 [label=<TCP Src Port &le; 27205.5<br/>gini = 0.32<br/>samples = 5<br/>value = [0, 0, 4, 0, 1]<br/>class = Audio>, fillcolor="#6aecd4"] ;
216 -> 228 ;
229 [label=<gini = 0.0<br/>samples = 1<br/>value = [0, 0, 0, 0, 1]<br/>class = Other>, fillcolor="#e539c0"] ;
228 -> 229 ;
230 [label=<gini = 0.0<br/>samples = 4<br/>value = [0, 0, 4, 0, 0]<br/>class = Audio>, fillcolor="#39e5c5"] ;
228 -> 230 ;
231 [label=<gini = 0.0<br/>samples = 44<br/>value = [0, 0, 0, 44, 0]<br/>class = Video>, fillcolor="#3c39e5"] ;
151 -> 231 ;
232 [label=<Frame Length &le; 64.0<br/>gini = 0.121<br/>samples = 8975<br/>value = [0, 243, 0, 328, 8404]<br/>class = Other>, fillcolor="#e746c4"] ;
116 -> 232 ;
233 [label=<IPv4 Flags_0 &le; 0.5<br/>gini = 0.653<br/>samples = 597<br/>value = [0, 173, 0, 168, 256]<br/>class = Other>, fillcolor="#fad8f3"] ;
232 -> 233 ;
234 [label=<TCP Dst Port &le; 48481.0<br/>gini = 0.48<br/>samples = 419<br/>value = [0, 0, 0, 168, 251]<br/>class = Other>, fillcolor="#f6beea"] ;
233 -> 234 ;
235 [label=<gini = 0.0<br/>samples = 239<br/>value = [0, 0, 0, 0, 239]<br/>class = Other>, fillcolor="#e539c0"] ;
234 -> 235 ;
236 [label=<TCP Src Port &le; 22835.0<br/>gini = 0.124<br/>samples = 180<br/>value = [0, 0, 0, 168, 12]<br/>class = Video>, fillcolor="#4a47e7"] ;
234 -> 236 ;
237 [label=<gini = 0.0<br/>samples = 12<br/>value = [0, 0, 0, 0, 12]<br/>class = Other>, fillcolor="#e539c0"] ;
236 -> 237 ;
238 [label=<gini = 0.0<br/>samples = 168<br/>value = [0, 0, 0, 168, 0]<br/>class = Video>, fillcolor="#3c39e5"] ;
236 -> 238 ;
239 [label=<TCP Src Port &le; 15448.0<br/>gini = 0.055<br/>samples = 178<br/>value = [0, 173, 0, 0, 5]<br/>class = Sensor>, fillcolor="#7fe63f"] ;
233 -> 239 ;
240 [label=<gini = 0.0<br/>samples = 5<br/>value = [0, 0, 0, 0, 5]<br/>class = Other>, fillcolor="#e539c0"] ;
239 -> 240 ;
241 [label=<gini = 0.0<br/>samples = 173<br/>value = [0, 173, 0, 0, 0]<br/>class = Sensor>, fillcolor="#7be539"] ;
239 -> 241 ;
242 [label=<Frame Length &le; 149.0<br/>gini = 0.054<br/>samples = 8378<br/>value = [0, 70, 0, 160, 8148]<br/>class = Other>, fillcolor="#e63fc2"] ;
232 -> 242 ;
243 [label=<IPv4 Flags_0 &le; 0.5<br/>gini = 0.005<br/>samples = 6927<br/>value = [0, 16, 0, 0, 6911]<br/>class = Other>, fillcolor="#e539c0"] ;
242 -> 243 ;
244 [label=<gini = 0.0<br/>samples = 6772<br/>value = [0, 0, 0, 0, 6772]<br/>class = Other>, fillcolor="#e539c0"] ;
243 -> 244 ;
245 [label=<TCP Dst Port &le; 33062.0<br/>gini = 0.185<br/>samples = 155<br/>value = [0, 16, 0, 0, 139]<br/>class = Other>, fillcolor="#e850c7"] ;
243 -> 245 ;
246 [label=<gini = 0.0<br/>samples = 16<br/>value = [0, 16, 0, 0, 0]<br/>class = Sensor>, fillcolor="#7be539"] ;
245 -> 246 ;
247 [label=<gini = 0.0<br/>samples = 139<br/>value = [0, 0, 0, 0, 139]<br/>class = Other>, fillcolor="#e539c0"] ;
245 -> 247 ;
248 [label=<Frame Length &le; 162.5<br/>gini = 0.26<br/>samples = 1451<br/>value = [0, 54, 0, 160, 1237]<br/>class = Other>, fillcolor="#e95aca"] ;
242 -> 248 ;
249 [label=<TCP Dst Port &le; 37746.5<br/>gini = 0.205<br/>samples = 181<br/>value = [0, 21, 0, 160, 0]<br/>class = Video>, fillcolor="#5653e8"] ;
248 -> 249 ;
250 [label=<gini = 0.0<br/>samples = 21<br/>value = [0, 21, 0, 0, 0]<br/>class = Sensor>, fillcolor="#7be539"] ;
249 -> 250 ;
251 [label=<gini = 0.0<br/>samples = 160<br/>value = [0, 0, 0, 160, 0]<br/>class = Video>, fillcolor="#3c39e5"] ;
249 -> 251 ;
252 [label=<TCP Src Port &le; 24633.5<br/>gini = 0.051<br/>samples = 1270<br/>value = [0, 33, 0, 0, 1237]<br/>class = Other>, fillcolor="#e63ec2"] ;
248 -> 252 ;
253 [label=<gini = 0.0<br/>samples = 1165<br/>value = [0, 0, 0, 0, 1165]<br/>class = Other>, fillcolor="#e539c0"] ;
252 -> 253 ;
254 [label=<TCP Src Port &le; 27971.5<br/>gini = 0.431<br/>samples = 105<br/>value = [0, 33, 0, 0, 72]<br/>class = Other>, fillcolor="#f194dd"] ;
252 -> 254 ;
255 [label=<gini = 0.0<br/>samples = 33<br/>value = [0, 33, 0, 0, 0]<br/>class = Sensor>, fillcolor="#7be539"] ;
254 -> 255 ;
256 [label=<gini = 0.0<br/>samples = 72<br/>value = [0, 0, 0, 0, 72]<br/>class = Other>, fillcolor="#e539c0"] ;
254 -> 256 ;
257 [label=<IPv4 Flags_0 &le; 0.5<br/>gini = 0.53<br/>samples = 18251<br/>value = [0, 1, 2395, 11473, 4382]<br/>class = Video>, fillcolor="#9b9af2"] ;
1 -> 257 ;
258 [label=<Frame Length &le; 350.0<br/>gini = 0.349<br/>samples = 14554<br/>value = [0, 0, 2395, 11473, 686]<br/>class = Video>, fillcolor="#6d6bec"] ;
257 -> 258 ;
259 [label=<Frame Length &le; 74.5<br/>gini = 0.588<br/>samples = 4503<br/>value = [0, 0, 2395, 1496, 612]<br/>class = Audio>, fillcolor="#c4f7ee"] ;
258 -> 259 ;
260 [label=<UDP Src Port &le; 62139.5<br/>gini = 0.019<br/>samples = 1132<br/>value = [0, 0, 0, 1121, 11]<br/>class = Video>, fillcolor="#3e3be5"] ;
259 -> 260 ;
261 [label=<UDP Src Port &le; 49312.0<br/>gini = 0.014<br/>samples = 1128<br/>value = [0, 0, 0, 1120, 8]<br/>class = Video>, fillcolor="#3d3ae5"] ;
260 -> 261 ;
262 [label=<UDP Src Port &le; 35590.5<br/>gini = 0.002<br/>samples = 1032<br/>value = [0, 0, 0, 1031, 1]<br/>class = Video>, fillcolor="#3c39e5"] ;
261 -> 262 ;
263 [label=<UDP Src Port &le; 35382.5<br/>gini = 0.124<br/>samples = 15<br/>value = [0, 0, 0, 14, 1]<br/>class = Video>, fillcolor="#4a47e7"] ;
262 -> 263 ;
264 [label=<gini = 0.0<br/>samples = 14<br/>value = [0, 0, 0, 14, 0]<br/>class = Video>, fillcolor="#3c39e5"] ;
263 -> 264 ;
265 [label=<gini = 0.0<br/>samples = 1<br/>value = [0, 0, 0, 0, 1]<br/>class = Other>, fillcolor="#e539c0"] ;
263 -> 265 ;
266 [label=<gini = 0.0<br/>samples = 1017<br/>value = [0, 0, 0, 1017, 0]<br/>class = Video>, fillcolor="#3c39e5"] ;
262 -> 266 ;
267 [label=<Frame Length &le; 71.5<br/>gini = 0.135<br/>samples = 96<br/>value = [0, 0, 0, 89, 7]<br/>class = Video>, fillcolor="#4b49e7"] ;
261 -> 267 ;
268 [label=<gini = 0.0<br/>samples = 7<br/>value = [0, 0, 0, 0, 7]<br/>class = Other>, fillcolor="#e539c0"] ;
267 -> 268 ;
269 [label=<gini = 0.0<br/>samples = 89<br/>value = [0, 0, 0, 89, 0]<br/>class = Video>, fillcolor="#3c39e5"] ;
267 -> 269 ;
270 [label=<UDP Src Port &le; 64029.5<br/>gini = 0.375<br/>samples = 4<br/>value = [0, 0, 0, 1, 3]<br/>class = Other>, fillcolor="#ee7bd5"] ;
260 -> 270 ;
271 [label=<gini = 0.0<br/>samples = 3<br/>value = [0, 0, 0, 0, 3]<br/>class = Other>, fillcolor="#e539c0"] ;
270 -> 271 ;
272 [label=<gini = 0.0<br/>samples = 1<br/>value = [0, 0, 0, 1, 0]<br/>class = Video>, fillcolor="#3c39e5"] ;
270 -> 272 ;
273 [label=<Frame Length &le; 187.0<br/>gini = 0.451<br/>samples = 3371<br/>value = [0, 0, 2395, 375, 601]<br/>class = Audio>, fillcolor="#7feed9"] ;
259 -> 273 ;
274 [label=<Frame Length &le; 168.5<br/>gini = 0.631<br/>samples = 1836<br/>value = [0, 0, 862, 374, 600]<br/>class = Audio>, fillcolor="#d5f9f3"] ;
273 -> 274 ;
275 [label=<Frame Length &le; 75.5<br/>gini = 0.579<br/>samples = 1641<br/>value = [0, 0, 862, 182, 597]<br/>class = Audio>, fillcolor="#cdf8f0"] ;
274 -> 275 ;
276 [label=<UDP Src Port &le; 55836.0<br/>gini = 0.133<br/>samples = 462<br/>value = [0, 0, 429, 0, 33]<br/>class = Audio>, fillcolor="#48e7c9"] ;
275 -> 276 ;
277 [label=<UDP Src Port &le; 37489.0<br/>gini = 0.042<br/>samples = 371<br/>value = [0, 0, 363, 0, 8]<br/>class = Audio>, fillcolor="#3de6c6"] ;
276 -> 277 ;
278 [label=<UDP Src Port &le; 37466.0<br/>gini = 0.194<br/>samples = 55<br/>value = [0, 0, 49, 0, 6]<br/>class = Audio>, fillcolor="#51e8cc"] ;
277 -> 278 ;
279 [label=<UDP Src Port &le; 35281.0<br/>gini = 0.075<br/>samples = 51<br/>value = [0, 0, 49, 0, 2]<br/>class = Audio>, fillcolor="#41e6c7"] ;
278 -> 279 ;
280 [label=<gini = 0.0<br/>samples = 21<br/>value = [0, 0, 21, 0, 0]<br/>class = Audio>, fillcolor="#39e5c5"] ;
279 -> 280 ;
281 [label=<UDP Src Port &le; 35520.5<br/>gini = 0.124<br/>samples = 30<br/>value = [0, 0, 28, 0, 2]<br/>class = Audio>, fillcolor="#47e7c9"] ;
279 -> 281 ;
282 [label=<gini = 0.0<br/>samples = 1<br/>value = [0, 0, 0, 0, 1]<br/>class = Other>, fillcolor="#e539c0"] ;
281 -> 282 ;
283 [label=<gini = 0.067<br/>samples = 29<br/>value = [0, 0, 28, 0, 1]<br/>class = Audio>, fillcolor="#40e6c7"] ;
281 -> 283 ;
284 [label=<gini = 0.0<br/>samples = 4<br/>value = [0, 0, 0, 0, 4]<br/>class = Other>, fillcolor="#e539c0"] ;
278 -> 284 ;
285 [label=<UDP Src Port &le; 42061.0<br/>gini = 0.013<br/>samples = 316<br/>value = [0, 0, 314, 0, 2]<br/>class = Audio>, fillcolor="#3ae5c5"] ;
277 -> 285 ;
286 [label=<gini = 0.0<br/>samples = 103<br/>value = [0, 0, 103, 0, 0]<br/>class = Audio>, fillcolor="#39e5c5"] ;
285 -> 286 ;
287 [label=<UDP Src Port &le; 42074.5<br/>gini = 0.019<br/>samples = 213<br/>value = [0, 0, 211, 0, 2]<br/>class = Audio>, fillcolor="#3be5c6"] ;
285 -> 287 ;
288 [label=<gini = 0.0<br/>samples = 1<br/>value = [0, 0, 0, 0, 1]<br/>class = Other>, fillcolor="#e539c0"] ;
287 -> 288 ;
289 [label=<UDP Src Port &le; 50796.0<br/>gini = 0.009<br/>samples = 212<br/>value = [0, 0, 211, 0, 1]<br/>class = Audio>, fillcolor="#3ae5c5"] ;
287 -> 289 ;
290 [label=<gini = 0.0<br/>samples = 143<br/>value = [0, 0, 143, 0, 0]<br/>class = Audio>, fillcolor="#39e5c5"] ;
289 -> 290 ;
291 [label=<gini = 0.029<br/>samples = 69<br/>value = [0, 0, 68, 0, 1]<br/>class = Audio>, fillcolor="#3ce5c6"] ;
289 -> 291 ;
292 [label=<UDP Src Port &le; 55878.0<br/>gini = 0.399<br/>samples = 91<br/>value = [0, 0, 66, 0, 25]<br/>class = Audio>, fillcolor="#84efdb"] ;
276 -> 292 ;
293 [label=<gini = 0.0<br/>samples = 5<br/>value = [0, 0, 0, 0, 5]<br/>class = Other>, fillcolor="#e539c0"] ;
292 -> 293 ;
294 [label=<UDP Src Port &le; 59656.5<br/>gini = 0.357<br/>samples = 86<br/>value = [0, 0, 66, 0, 20]<br/>class = Audio>, fillcolor="#75edd7"] ;
292 -> 294 ;
295 [label=<UDP Src Port &le; 57274.0<br/>gini = 0.262<br/>samples = 58<br/>value = [0, 0, 49, 0, 9]<br/>class = Audio>, fillcolor="#5dead0"] ;
294 -> 295 ;
296 [label=<UDP Src Port &le; 57254.5<br/>gini = 0.444<br/>samples = 24<br/>value = [0, 0, 16, 0, 8]<br/>class = Audio>, fillcolor="#9cf2e2"] ;
295 -> 296 ;
297 [label=<gini = 0.0<br/>samples = 16<br/>value = [0, 0, 16, 0, 0]<br/>class = Audio>, fillcolor="#39e5c5"] ;
296 -> 297 ;
298 [label=<gini = 0.0<br/>samples = 8<br/>value = [0, 0, 0, 0, 8]<br/>class = Other>, fillcolor="#e539c0"] ;
296 -> 298 ;
299 [label=<UDP Src Port &le; 58418.5<br/>gini = 0.057<br/>samples = 34<br/>value = [0, 0, 33, 0, 1]<br/>class = Audio>, fillcolor="#3fe6c7"] ;
295 -> 299 ;
300 [label=<gini = 0.133<br/>samples = 14<br/>value = [0, 0, 13, 0, 1]<br/>class = Audio>, fillcolor="#48e7c9"] ;
299 -> 300 ;
301 [label=<gini = 0.0<br/>samples = 20<br/>value = [0, 0, 20, 0, 0]<br/>class = Audio>, fillcolor="#39e5c5"] ;
299 -> 301 ;
302 [label=<UDP Src Port &le; 59697.5<br/>gini = 0.477<br/>samples = 28<br/>value = [0, 0, 17, 0, 11]<br/>class = Audio>, fillcolor="#b9f6eb"] ;
294 -> 302 ;
303 [label=<gini = 0.0<br/>samples = 10<br/>value = [0, 0, 0, 0, 10]<br/>class = Other>, fillcolor="#e539c0"] ;
302 -> 303 ;
304 [label=<UDP Src Port &le; 60474.5<br/>gini = 0.105<br/>samples = 18<br/>value = [0, 0, 17, 0, 1]<br/>class = Audio>, fillcolor="#45e7c8"] ;
302 -> 304 ;
305 [label=<gini = 0.0<br/>samples = 11<br/>value = [0, 0, 11, 0, 0]<br/>class = Audio>, fillcolor="#39e5c5"] ;
304 -> 305 ;
306 [label=<gini = 0.245<br/>samples = 7<br/>value = [0, 0, 6, 0, 1]<br/>class = Audio>, fillcolor="#5ae9cf"] ;
304 -> 306 ;
307 [label=<UDP Dst Port &le; 88.0<br/>gini = 0.612<br/>samples = 1179<br/>value = [0, 0, 433, 182, 564]<br/>class = Other>, fillcolor="#fadcf4"] ;
275 -> 307 ;
308 [label=<Frame Length &le; 82.5<br/>gini = 0.443<br/>samples = 615<br/>value = [0, 0, 31, 152, 432]<br/>class = Other>, fillcolor="#ef87d9"] ;
307 -> 308 ;
309 [label=<Frame Length &le; 78.5<br/>gini = 0.036<br/>samples = 275<br/>value = [0, 0, 1, 4, 270]<br/>class = Other>, fillcolor="#e53dc1"] ;
308 -> 309 ;
310 [label=<Frame Length &le; 77.0<br/>gini = 0.073<br/>samples = 106<br/>value = [0, 0, 0, 4, 102]<br/>class = Other>, fillcolor="#e641c2"] ;
309 -> 310 ;
311 [label=<gini = 0.0<br/>samples = 65<br/>value = [0, 0, 0, 0, 65]<br/>class = Other>, fillcolor="#e539c0"] ;
310 -> 311 ;
312 [label=<UDP Src Port &le; 43413.0<br/>gini = 0.176<br/>samples = 41<br/>value = [0, 0, 0, 4, 37]<br/>class = Other>, fillcolor="#e84ec7"] ;
310 -> 312 ;
313 [label=<gini = 0.0<br/>samples = 17<br/>value = [0, 0, 0, 0, 17]<br/>class = Other>, fillcolor="#e539c0"] ;
312 -> 313 ;
314 [label=<gini = 0.278<br/>samples = 24<br/>value = [0, 0, 0, 4, 20]<br/>class = Other>, fillcolor="#ea61cd"] ;
312 -> 314 ;
315 [label=<Frame Length &le; 79.5<br/>gini = 0.012<br/>samples = 169<br/>value = [0, 0, 1, 0, 168]<br/>class = Other>, fillcolor="#e53ac0"] ;
309 -> 315 ;
316 [label=<gini = 0.0<br/>samples = 91<br/>value = [0, 0, 0, 0, 91]<br/>class = Other>, fillcolor="#e539c0"] ;
315 -> 316 ;
317 [label=<Frame Length &le; 81.0<br/>gini = 0.025<br/>samples = 78<br/>value = [0, 0, 1, 0, 77]<br/>class = Other>, fillcolor="#e53cc1"] ;
315 -> 317 ;
318 [label=<gini = 0.05<br/>samples = 39<br/>value = [0, 0, 1, 0, 38]<br/>class = Other>, fillcolor="#e63ec2"] ;
317 -> 318 ;
319 [label=<gini = 0.0<br/>samples = 39<br/>value = [0, 0, 0, 0, 39]<br/>class = Other>, fillcolor="#e539c0"] ;
317 -> 319 ;
320 [label=<Frame Length &le; 87.5<br/>gini = 0.576<br/>samples = 340<br/>value = [0, 0, 30, 148, 162]<br/>class = Other>, fillcolor="#fdf1fa"] ;
308 -> 320 ;
321 [label=<UDP Src Port &le; 61116.5<br/>gini = 0.086<br/>samples = 155<br/>value = [0, 0, 0, 148, 7]<br/>class = Video>, fillcolor="#4542e6"] ;
320 -> 321 ;
322 [label=<Frame Length &le; 83.5<br/>gini = 0.063<br/>samples = 153<br/>value = [0, 0, 0, 148, 5]<br/>class = Video>, fillcolor="#4340e6"] ;
321 -> 322 ;
323 [label=<gini = 0.015<br/>samples = 130<br/>value = [0, 0, 0, 129, 1]<br/>class = Video>, fillcolor="#3e3be5"] ;
322 -> 323 ;
324 [label=<gini = 0.287<br/>samples = 23<br/>value = [0, 0, 0, 19, 4]<br/>class = Video>, fillcolor="#6563ea"] ;
322 -> 324 ;
325 [label=<gini = 0.0<br/>samples = 2<br/>value = [0, 0, 0, 0, 2]<br/>class = Other>, fillcolor="#e539c0"] ;
321 -> 325 ;
326 [label=<Frame Length &le; 88.5<br/>gini = 0.272<br/>samples = 185<br/>value = [0, 0, 30, 0, 155]<br/>class = Other>, fillcolor="#ea5fcc"] ;
320 -> 326 ;
327 [label=<IPv6 Next Header_17 &le; 0.5<br/>gini = 0.117<br/>samples = 32<br/>value = [0, 0, 30, 0, 2]<br/>class = Audio>, fillcolor="#46e7c9"] ;
326 -> 327 ;
328 [label=<gini = 0.0<br/>samples = 30<br/>value = [0, 0, 30, 0, 0]<br/>class = Audio>, fillcolor="#39e5c5"] ;
327 -> 328 ;
329 [label=<gini = 0.0<br/>samples = 2<br/>value = [0, 0, 0, 0, 2]<br/>class = Other>, fillcolor="#e539c0"] ;
327 -> 329 ;
330 [label=<gini = 0.0<br/>samples = 153<br/>value = [0, 0, 0, 0, 153]<br/>class = Other>, fillcolor="#e539c0"] ;
326 -> 330 ;
331 [label=<UDP Dst Port &le; 283.0<br/>gini = 0.434<br/>samples = 564<br/>value = [0, 0, 402, 30, 132]<br/>class = Audio>, fillcolor="#83efdb"] ;
307 -> 331 ;
332 [label=<UDP Src Port &le; 59749.5<br/>gini = 0.164<br/>samples = 417<br/>value = [0, 0, 380, 30, 7]<br/>class = Audio>, fillcolor="#4ce7cb"] ;
331 -> 332 ;
333 [label=<UDP Src Port &le; 46200.5<br/>gini = 0.145<br/>samples = 401<br/>value = [0, 0, 370, 25, 6]<br/>class = Audio>, fillcolor="#49e7ca"] ;
332 -> 333 ;
334 [label=<UDP Src Port &le; 46051.0<br/>gini = 0.225<br/>samples = 159<br/>value = [0, 0, 139, 16, 4]<br/>class = Audio>, fillcolor="#55e9cd"] ;
333 -> 334 ;
335 [label=<gini = 0.187<br/>samples = 155<br/>value = [0, 0, 139, 14, 2]<br/>class = Audio>, fillcolor="#4fe8cc"] ;
334 -> 335 ;
336 [label=<gini = 0.5<br/>samples = 4<br/>value = [0, 0, 0, 2, 2]<br/>class = Video>, fillcolor="#ffffff"] ;
334 -> 336 ;
337 [label=<UDP Src Port &le; 58531.0<br/>gini = 0.087<br/>samples = 242<br/>value = [0, 0, 231, 9, 2]<br/>class = Audio>, fillcolor="#42e6c8"] ;
333 -> 337 ;
338 [label=<gini = 0.076<br/>samples = 229<br/>value = [0, 0, 220, 7, 2]<br/>class = Audio>, fillcolor="#41e6c7"] ;
337 -> 338 ;
339 [label=<gini = 0.26<br/>samples = 13<br/>value = [0, 0, 11, 2, 0]<br/>class = Audio>, fillcolor="#5dead0"] ;
337 -> 339 ;
340 [label=<UDP Src Port &le; 60628.0<br/>gini = 0.508<br/>samples = 16<br/>value = [0, 0, 10, 5, 1]<br/>class = Audio>, fillcolor="#a5f3e5"] ;
332 -> 340 ;
341 [label=<UDP Src Port &le; 60050.5<br/>gini = 0.571<br/>samples = 7<br/>value = [0, 0, 2, 4, 1]<br/>class = Video>, fillcolor="#b1b0f5"] ;
340 -> 341 ;
342 [label=<gini = 0.0<br/>samples = 1<br/>value = [0, 0, 0, 0, 1]<br/>class = Other>, fillcolor="#e539c0"] ;
341 -> 342 ;
343 [label=<gini = 0.444<br/>samples = 6<br/>value = [0, 0, 2, 4, 0]<br/>class = Video>, fillcolor="#9e9cf2"] ;
341 -> 343 ;
344 [label=<UDP Src Port &le; 60835.0<br/>gini = 0.198<br/>samples = 9<br/>value = [0, 0, 8, 1, 0]<br/>class = Audio>, fillcolor="#52e8cc"] ;
340 -> 344 ;
345 [label=<gini = 0.0<br/>samples = 8<br/>value = [0, 0, 8, 0, 0]<br/>class = Audio>, fillcolor="#39e5c5"] ;
344 -> 345 ;
346 [label=<gini = 0.0<br/>samples = 1<br/>value = [0, 0, 0, 1, 0]<br/>class = Video>, fillcolor="#3c39e5"] ;
344 -> 346 ;
347 [label=<Frame Length &le; 147.0<br/>gini = 0.255<br/>samples = 147<br/>value = [0, 0, 22, 0, 125]<br/>class = Other>, fillcolor="#ea5ccb"] ;
331 -> 347 ;
348 [label=<gini = 0.0<br/>samples = 123<br/>value = [0, 0, 0, 0, 123]<br/>class = Other>, fillcolor="#e539c0"] ;
347 -> 348 ;
349 [label=<UDP Src Port &le; 47855.5<br/>gini = 0.153<br/>samples = 24<br/>value = [0, 0, 22, 0, 2]<br/>class = Audio>, fillcolor="#4be7ca"] ;
347 -> 349 ;
350 [label=<gini = 0.0<br/>samples = 1<br/>value = [0, 0, 0, 0, 1]<br/>class = Other>, fillcolor="#e539c0"] ;
349 -> 350 ;
351 [label=<IP Protocol_17 &le; 0.5<br/>gini = 0.083<br/>samples = 23<br/>value = [0, 0, 22, 0, 1]<br/>class = Audio>, fillcolor="#42e6c8"] ;
349 -> 351 ;
352 [label=<gini = 0.0<br/>samples = 1<br/>value = [0, 0, 0, 0, 1]<br/>class = Other>, fillcolor="#e539c0"] ;
351 -> 352 ;
353 [label=<gini = 0.0<br/>samples = 22<br/>value = [0, 0, 22, 0, 0]<br/>class = Audio>, fillcolor="#39e5c5"] ;
351 -> 353 ;
354 [label=<Frame Length &le; 176.5<br/>gini = 0.03<br/>samples = 195<br/>value = [0, 0, 0, 192, 3]<br/>class = Video>, fillcolor="#3f3ce5"] ;
274 -> 354 ;
355 [label=<gini = 0.0<br/>samples = 192<br/>value = [0, 0, 0, 192, 0]<br/>class = Video>, fillcolor="#3c39e5"] ;
354 -> 355 ;
356 [label=<gini = 0.0<br/>samples = 3<br/>value = [0, 0, 0, 0, 3]<br/>class = Other>, fillcolor="#e539c0"] ;
354 -> 356 ;
357 [label=<Frame Length &le; 225.5<br/>gini = 0.003<br/>samples = 1535<br/>value = [0, 0, 1533, 1, 1]<br/>class = Audio>, fillcolor="#39e5c5"] ;
273 -> 357 ;
358 [label=<gini = 0.0<br/>samples = 1533<br/>value = [0, 0, 1533, 0, 0]<br/>class = Audio>, fillcolor="#39e5c5"] ;
357 -> 358 ;
359 [label=<UDP Src Port &le; 45838.5<br/>gini = 0.5<br/>samples = 2<br/>value = [0, 0, 0, 1, 1]<br/>class = Video>, fillcolor="#ffffff"] ;
357 -> 359 ;
360 [label=<gini = 0.0<br/>samples = 1<br/>value = [0, 0, 0, 0, 1]<br/>class = Other>, fillcolor="#e539c0"] ;
359 -> 360 ;
361 [label=<gini = 0.0<br/>samples = 1<br/>value = [0, 0, 0, 1, 0]<br/>class = Video>, fillcolor="#3c39e5"] ;
359 -> 361 ;
362 [label=<Frame Length &le; 543.0<br/>gini = 0.015<br/>samples = 10051<br/>value = [0, 0, 0, 9977, 74]<br/>class = Video>, fillcolor="#3d3ae5"] ;
258 -> 362 ;
363 [label=<gini = 0.0<br/>samples = 9977<br/>value = [0, 0, 0, 9977, 0]<br/>class = Video>, fillcolor="#3c39e5"] ;
362 -> 363 ;
364 [label=<gini = 0.0<br/>samples = 74<br/>value = [0, 0, 0, 0, 74]<br/>class = Other>, fillcolor="#e539c0"] ;
362 -> 364 ;
365 [label=<UDP Dst Port &le; 248.0<br/>gini = 0.001<br/>samples = 3697<br/>value = [0, 1, 0, 0, 3696]<br/>class = Other>, fillcolor="#e539c0"] ;
257 -> 365 ;
366 [label=<UDP Src Port &le; 58815.0<br/>gini = 0.011<br/>samples = 173<br/>value = [0, 1, 0, 0, 172]<br/>class = Other>, fillcolor="#e53ac0"] ;
365 -> 366 ;
367 [label=<gini = 0.0<br/>samples = 135<br/>value = [0, 0, 0, 0, 135]<br/>class = Other>, fillcolor="#e539c0"] ;
366 -> 367 ;
368 [label=<UDP Src Port &le; 58959.0<br/>gini = 0.051<br/>samples = 38<br/>value = [0, 1, 0, 0, 37]<br/>class = Other>, fillcolor="#e63ec2"] ;
366 -> 368 ;
369 [label=<gini = 0.0<br/>samples = 1<br/>value = [0, 1, 0, 0, 0]<br/>class = Sensor>, fillcolor="#7be539"] ;
368 -> 369 ;
370 [label=<gini = 0.0<br/>samples = 37<br/>value = [0, 0, 0, 0, 37]<br/>class = Other>, fillcolor="#e539c0"] ;
368 -> 370 ;
371 [label=<gini = 0.0<br/>samples = 3524<br/>value = [0, 0, 0, 0, 3524]<br/>class = Other>, fillcolor="#e539c0"] ;
365 -> 371 ;
372 [label=<TCP Src Port &le; 50627.5<br/>gini = 0.6<br/>samples = 68967<br/>value = [6179, 18, 3291, 36187, 23292]<br/>class = Video>, fillcolor="#c8c7f8"] ;
0 -> 372 [labeldistance=2.5, labelangle=-45, headlabel="False"] ;
373 [label=<TCP Src Port &le; 49152.5<br/>gini = 0.384<br/>samples = 44880<br/>value = [6179, 0, 1370, 34535, 2796]<br/>class = Video>, fillcolor="#706eec"] ;
372 -> 373 ;
374 [label=<TCP Src Port &le; 46197.0<br/>gini = 0.163<br/>samples = 35766<br/>value = [0, 0, 1197, 32638, 1931]<br/>class = Video>, fillcolor="#4e4be7"] ;
373 -> 374 ;
375 [label=<TCP Src Port &le; 39885.5<br/>gini = 0.659<br/>samples = 3543<br/>value = [0, 0, 932, 1294, 1317]<br/>class = Other>, fillcolor="#fffdfe"] ;
374 -> 375 ;
376 [label=<TCP Dst Port &le; 718.0<br/>gini = 0.517<br/>samples = 1350<br/>value = [0, 0, 152, 863, 335]<br/>class = Video>, fillcolor="#9a98f1"] ;
375 -> 376 ;
377 [label=<TCP Dst Port &le; 261.5<br/>gini = 0.428<br/>samples = 1179<br/>value = [0, 0, 152, 863, 164]<br/>class = Video>, fillcolor="#7977ed"] ;
376 -> 377 ;
378 [label=<TCP Src Port &le; 38923.5<br/>gini = 0.219<br/>samples = 740<br/>value = [0, 0, 45, 651, 44]<br/>class = Video>, fillcolor="#5552e8"] ;
377 -> 378 ;
379 [label=<TCP Src Port &le; 38483.0<br/>gini = 0.521<br/>samples = 39<br/>value = [0, 0, 14, 2, 23]<br/>class = Other>, fillcolor="#f6b8e8"] ;
378 -> 379 ;
380 [label=<gini = 0.0<br/>samples = 11<br/>value = [0, 0, 11, 0, 0]<br/>class = Audio>, fillcolor="#39e5c5"] ;
379 -> 380 ;
381 [label=<TCP Src Port &le; 38515.0<br/>gini = 0.309<br/>samples = 28<br/>value = [0, 0, 3, 2, 23]<br/>class = Other>, fillcolor="#ea61cd"] ;
379 -> 381 ;
382 [label=<gini = 0.0<br/>samples = 2<br/>value = [0, 0, 0, 2, 0]<br/>class = Video>, fillcolor="#3c39e5"] ;
381 -> 382 ;
383 [label=<TCP Src Port &le; 38731.5<br/>gini = 0.204<br/>samples = 26<br/>value = [0, 0, 3, 0, 23]<br/>class = Other>, fillcolor="#e853c8"] ;
381 -> 383 ;
384 [label=<gini = 0.0<br/>samples = 14<br/>value = [0, 0, 0, 0, 14]<br/>class = Other>, fillcolor="#e539c0"] ;
383 -> 384 ;
385 [label=<TCP Src Port &le; 38761.5<br/>gini = 0.375<br/>samples = 12<br/>value = [0, 0, 3, 0, 9]<br/>class = Other>, fillcolor="#ee7bd5"] ;
383 -> 385 ;
386 [label=<gini = 0.0<br/>samples = 2<br/>value = [0, 0, 2, 0, 0]<br/>class = Audio>, fillcolor="#39e5c5"] ;
385 -> 386 ;
387 [label=<TCP Flags_17 &le; 0.5<br/>gini = 0.18<br/>samples = 10<br/>value = [0, 0, 1, 0, 9]<br/>class = Other>, fillcolor="#e84fc7"] ;
385 -> 387 ;
388 [label=<gini = 0.0<br/>samples = 9<br/>value = [0, 0, 0, 0, 9]<br/>class = Other>, fillcolor="#e539c0"] ;
387 -> 388 ;
389 [label=<gini = 0.0<br/>samples = 1<br/>value = [0, 0, 1, 0, 0]<br/>class = Audio>, fillcolor="#39e5c5"] ;
387 -> 389 ;
390 [label=<Frame Length &le; 342.5<br/>gini = 0.14<br/>samples = 701<br/>value = [0, 0, 31, 649, 21]<br/>class = Video>, fillcolor="#4b48e7"] ;
378 -> 390 ;
391 [label=<Frame Length &le; 284.0<br/>gini = 0.138<br/>samples = 700<br/>value = [0, 0, 31, 649, 20]<br/>class = Video>, fillcolor="#4b48e7"] ;
390 -> 391 ;
392 [label=<Frame Length &le; 213.5<br/>gini = 0.166<br/>samples = 572<br/>value = [0, 0, 31, 521, 20]<br/>class = Video>, fillcolor="#4e4ce7"] ;
391 -> 392 ;
393 [label=<TCP Src Port &le; 39704.5<br/>gini = 0.161<br/>samples = 570<br/>value = [0, 0, 31, 521, 18]<br/>class = Video>, fillcolor="#4e4be7"] ;
392 -> 393 ;
394 [label=<TCP Src Port &le; 39700.5<br/>gini = 0.192<br/>samples = 459<br/>value = [0, 0, 31, 411, 17]<br/>class = Video>, fillcolor="#524fe8"] ;
393 -> 394 ;
395 [label=<gini = 0.172<br/>samples = 453<br/>value = [0, 0, 25, 411, 17]<br/>class = Video>, fillcolor="#4f4ce8"] ;
394 -> 395 ;
396 [label=<gini = 0.0<br/>samples = 6<br/>value = [0, 0, 6, 0, 0]<br/>class = Audio>, fillcolor="#39e5c5"] ;
394 -> 396 ;
397 [label=<TCP Src Port &le; 39776.0<br/>gini = 0.018<br/>samples = 111<br/>value = [0, 0, 0, 110, 1]<br/>class = Video>, fillcolor="#3e3be5"] ;
393 -> 397 ;
398 [label=<gini = 0.039<br/>samples = 50<br/>value = [0, 0, 0, 49, 1]<br/>class = Video>, fillcolor="#403de6"] ;
397 -> 398 ;
399 [label=<gini = 0.0<br/>samples = 61<br/>value = [0, 0, 0, 61, 0]<br/>class = Video>, fillcolor="#3c39e5"] ;
397 -> 399 ;
400 [label=<gini = 0.0<br/>samples = 2<br/>value = [0, 0, 0, 0, 2]<br/>class = Other>, fillcolor="#e539c0"] ;
392 -> 400 ;
401 [label=<gini = 0.0<br/>samples = 128<br/>value = [0, 0, 0, 128, 0]<br/>class = Video>, fillcolor="#3c39e5"] ;
391 -> 401 ;
402 [label=<gini = 0.0<br/>samples = 1<br/>value = [0, 0, 0, 0, 1]<br/>class = Other>, fillcolor="#e539c0"] ;
390 -> 402 ;
403 [label=<TCP Src Port &le; 38522.0<br/>gini = 0.633<br/>samples = 439<br/>value = [0, 0, 107, 212, 120]<br/>class = Video>, fillcolor="#c7c6f8"] ;
377 -> 403 ;
404 [label=<Frame Length &le; 295.5<br/>gini = 0.115<br/>samples = 212<br/>value = [0, 0, 0, 199, 13]<br/>class = Video>, fillcolor="#4946e7"] ;
403 -> 404 ;
405 [label=<TCP Src Port &le; 38360.0<br/>gini = 0.32<br/>samples = 60<br/>value = [0, 0, 0, 48, 12]<br/>class = Video>, fillcolor="#6d6aec"] ;
404 -> 405 ;
406 [label=<gini = 0.0<br/>samples = 19<br/>value = [0, 0, 0, 19, 0]<br/>class = Video>, fillcolor="#3c39e5"] ;
405 -> 406 ;
407 [label=<TCP Src Port &le; 38387.0<br/>gini = 0.414<br/>samples = 41<br/>value = [0, 0, 0, 29, 12]<br/>class = Video>, fillcolor="#8d8bf0"] ;
405 -> 407 ;
408 [label=<gini = 0.0<br/>samples = 5<br/>value = [0, 0, 0, 0, 5]<br/>class = Other>, fillcolor="#e539c0"] ;
407 -> 408 ;
409 [label=<Frame Length &le; 76.0<br/>gini = 0.313<br/>samples = 36<br/>value = [0, 0, 0, 29, 7]<br/>class = Video>, fillcolor="#6b69eb"] ;
407 -> 409 ;
410 [label=<TCP Flags_16 &le; 0.5<br/>gini = 0.191<br/>samples = 28<br/>value = [0, 0, 0, 25, 3]<br/>class = Video>, fillcolor="#5351e8"] ;
409 -> 410 ;
411 [label=<gini = 0.0<br/>samples = 17<br/>value = [0, 0, 0, 17, 0]<br/>class = Video>, fillcolor="#3c39e5"] ;
410 -> 411 ;
412 [label=<gini = 0.397<br/>samples = 11<br/>value = [0, 0, 0, 8, 3]<br/>class = Video>, fillcolor="#8583ef"] ;
410 -> 412 ;
413 [label=<Frame Length &le; 93.0<br/>gini = 0.5<br/>samples = 8<br/>value = [0, 0, 0, 4, 4]<br/>class = Video>, fillcolor="#ffffff"] ;
409 -> 413 ;
414 [label=<gini = 0.0<br/>samples = 4<br/>value = [0, 0, 0, 0, 4]<br/>class = Other>, fillcolor="#e539c0"] ;
413 -> 414 ;
415 [label=<gini = 0.0<br/>samples = 4<br/>value = [0, 0, 0, 4, 0]<br/>class = Video>, fillcolor="#3c39e5"] ;
413 -> 415 ;
416 [label=<Frame Length &le; 478.5<br/>gini = 0.013<br/>samples = 152<br/>value = [0, 0, 0, 151, 1]<br/>class = Video>, fillcolor="#3d3ae5"] ;
404 -> 416 ;
417 [label=<Frame Length &le; 359.5<br/>gini = 0.142<br/>samples = 13<br/>value = [0, 0, 0, 12, 1]<br/>class = Video>, fillcolor="#4c49e7"] ;
416 -> 417 ;
418 [label=<gini = 0.0<br/>samples = 12<br/>value = [0, 0, 0, 12, 0]<br/>class = Video>, fillcolor="#3c39e5"] ;
417 -> 418 ;
419 [label=<gini = 0.0<br/>samples = 1<br/>value = [0, 0, 0, 0, 1]<br/>class = Other>, fillcolor="#e539c0"] ;
417 -> 419 ;
420 [label=<gini = 0.0<br/>samples = 139<br/>value = [0, 0, 0, 139, 0]<br/>class = Video>, fillcolor="#3c39e5"] ;
416 -> 420 ;
421 [label=<TCP Src Port &le; 38738.0<br/>gini = 0.552<br/>samples = 227<br/>value = [0, 0, 107, 13, 107]<br/>class = Audio>, fillcolor="#ffffff"] ;
403 -> 421 ;
422 [label=<TCP Src Port &le; 38713.0<br/>gini = 0.415<br/>samples = 124<br/>value = [0, 0, 92, 13, 19]<br/>class = Audio>, fillcolor="#75edd7"] ;
421 -> 422 ;
423 [label=<TCP Src Port &le; 38610.0<br/>gini = 0.629<br/>samples = 40<br/>value = [0, 0, 8, 13, 19]<br/>class = Other>, fillcolor="#f9d3f1"] ;
422 -> 423 ;
424 [label=<TCP Src Port &le; 38590.0<br/>gini = 0.5<br/>samples = 16<br/>value = [0, 0, 8, 0, 8]<br/>class = Audio>, fillcolor="#ffffff"] ;
423 -> 424 ;
425 [label=<gini = 0.0<br/>samples = 8<br/>value = [0, 0, 0, 0, 8]<br/>class = Other>, fillcolor="#e539c0"] ;
424 -> 425 ;
426 [label=<gini = 0.0<br/>samples = 8<br/>value = [0, 0, 8, 0, 0]<br/>class = Audio>, fillcolor="#39e5c5"] ;
424 -> 426 ;
427 [label=<TCP Src Port &le; 38630.5<br/>gini = 0.497<br/>samples = 24<br/>value = [0, 0, 0, 13, 11]<br/>class = Video>, fillcolor="#e1e1fb"] ;
423 -> 427 ;
428 [label=<gini = 0.0<br/>samples = 8<br/>value = [0, 0, 0, 8, 0]<br/>class = Video>, fillcolor="#3c39e5"] ;
427 -> 428 ;
429 [label=<TCP Src Port &le; 38664.5<br/>gini = 0.43<br/>samples = 16<br/>value = [0, 0, 0, 5, 11]<br/>class = Other>, fillcolor="#f193dd"] ;
427 -> 429 ;
430 [label=<gini = 0.5<br/>samples = 10<br/>value = [0, 0, 0, 5, 5]<br/>class = Video>, fillcolor="#ffffff"] ;
429 -> 430 ;
431 [label=<gini = 0.0<br/>samples = 6<br/>value = [0, 0, 0, 0, 6]<br/>class = Other>, fillcolor="#e539c0"] ;
429 -> 431 ;
432 [label=<gini = 0.0<br/>samples = 84<br/>value = [0, 0, 84, 0, 0]<br/>class = Audio>, fillcolor="#39e5c5"] ;
422 -> 432 ;
433 [label=<Frame Length &le; 60.0<br/>gini = 0.249<br/>samples = 103<br/>value = [0, 0, 15, 0, 88]<br/>class = Other>, fillcolor="#e95bcb"] ;
421 -> 433 ;
434 [label=<TCP Flags_4 &le; 0.5<br/>gini = 0.397<br/>samples = 11<br/>value = [0, 0, 8, 0, 3]<br/>class = Audio>, fillcolor="#83efdb"] ;
433 -> 434 ;
435 [label=<gini = 0.0<br/>samples = 8<br/>value = [0, 0, 8, 0, 0]<br/>class = Audio>, fillcolor="#39e5c5"] ;
434 -> 435 ;
436 [label=<gini = 0.0<br/>samples = 3<br/>value = [0, 0, 0, 0, 3]<br/>class = Other>, fillcolor="#e539c0"] ;
434 -> 436 ;
437 [label=<Frame Length &le; 1206.5<br/>gini = 0.141<br/>samples = 92<br/>value = [0, 0, 7, 0, 85]<br/>class = Other>, fillcolor="#e749c5"] ;
433 -> 437 ;
438 [label=<TCP Flags_2 &le; 0.5<br/>gini = 0.123<br/>samples = 91<br/>value = [0, 0, 6, 0, 85]<br/>class = Other>, fillcolor="#e747c4"] ;
437 -> 438 ;
439 [label=<TCP Flags_25 &le; 0.5<br/>gini = 0.071<br/>samples = 81<br/>value = [0, 0, 3, 0, 78]<br/>class = Other>, fillcolor="#e641c2"] ;
438 -> 439 ;
440 [label=<gini = 0.049<br/>samples = 79<br/>value = [0, 0, 2, 0, 77]<br/>class = Other>, fillcolor="#e63ec2"] ;
439 -> 440 ;
441 [label=<gini = 0.5<br/>samples = 2<br/>value = [0, 0, 1, 0, 1]<br/>class = Audio>, fillcolor="#ffffff"] ;
439 -> 441 ;
442 [label=<TCP Src Port &le; 39661.5<br/>gini = 0.42<br/>samples = 10<br/>value = [0, 0, 3, 0, 7]<br/>class = Other>, fillcolor="#f08edb"] ;
438 -> 442 ;
443 [label=<gini = 0.49<br/>samples = 7<br/>value = [0, 0, 3, 0, 4]<br/>class = Other>, fillcolor="#f8ceef"] ;
442 -> 443 ;
444 [label=<gini = 0.0<br/>samples = 3<br/>value = [0, 0, 0, 0, 3]<br/>class = Other>, fillcolor="#e539c0"] ;
442 -> 444 ;
445 [label=<gini = 0.0<br/>samples = 1<br/>value = [0, 0, 1, 0, 0]<br/>class = Audio>, fillcolor="#39e5c5"] ;
437 -> 445 ;
446 [label=<gini = 0.0<br/>samples = 171<br/>value = [0, 0, 0, 0, 171]<br/>class = Other>, fillcolor="#e539c0"] ;
376 -> 446 ;
447 [label=<TCP Src Port &le; 41662.5<br/>gini = 0.634<br/>samples = 2193<br/>value = [0, 0, 780, 431, 982]<br/>class = Other>, fillcolor="#fbe3f6"] ;
375 -> 447 ;
448 [label=<TCP Src Port &le; 41584.0<br/>gini = 0.506<br/>samples = 861<br/>value = [0, 0, 526, 38, 297]<br/>class = Audio>, fillcolor="#aff4e7"] ;
447 -> 448 ;
449 [label=<TCP Src Port &le; 40242.5<br/>gini = 0.547<br/>samples = 677<br/>value = [0, 0, 351, 38, 288]<br/>class = Audio>, fillcolor="#dffbf6"] ;
448 -> 449 ;
450 [label=<TCP Src Port &le; 40128.0<br/>gini = 0.256<br/>samples = 308<br/>value = [0, 0, 262, 2, 44]<br/>class = Audio>, fillcolor="#5ceacf"] ;
449 -> 450 ;
451 [label=<TCP Dst Port &le; 261.5<br/>gini = 0.467<br/>samples = 70<br/>value = [0, 0, 26, 0, 44]<br/>class = Other>, fillcolor="#f4aee5"] ;
450 -> 451 ;
452 [label=<TCP Src Port &le; 40057.5<br/>gini = 0.255<br/>samples = 20<br/>value = [0, 0, 17, 0, 3]<br/>class = Audio>, fillcolor="#5ceacf"] ;
451 -> 452 ;
453 [label=<gini = 0.0<br/>samples = 17<br/>value = [0, 0, 17, 0, 0]<br/>class = Audio>, fillcolor="#39e5c5"] ;
452 -> 453 ;
454 [label=<gini = 0.0<br/>samples = 3<br/>value = [0, 0, 0, 0, 3]<br/>class = Other>, fillcolor="#e539c0"] ;
452 -> 454 ;
455 [label=<Frame Length &le; 60.0<br/>gini = 0.295<br/>samples = 50<br/>value = [0, 0, 9, 0, 41]<br/>class = Other>, fillcolor="#eb64ce"] ;
451 -> 455 ;
456 [label=<gini = 0.0<br/>samples = 6<br/>value = [0, 0, 6, 0, 0]<br/>class = Audio>, fillcolor="#39e5c5"] ;
455 -> 456 ;
457 [label=<Frame Length &le; 500.0<br/>gini = 0.127<br/>samples = 44<br/>value = [0, 0, 3, 0, 41]<br/>class = Other>, fillcolor="#e747c5"] ;
455 -> 457 ;
458 [label=<gini = 0.0<br/>samples = 40<br/>value = [0, 0, 0, 0, 40]<br/>class = Other>, fillcolor="#e539c0"] ;
457 -> 458 ;
459 [label=<TCP Src Port &le; 39934.5<br/>gini = 0.375<br/>samples = 4<br/>value = [0, 0, 3, 0, 1]<br/>class = Audio>, fillcolor="#7beed8"] ;
457 -> 459 ;
460 [label=<gini = 0.0<br/>samples = 1<br/>value = [0, 0, 0, 0, 1]<br/>class = Other>, fillcolor="#e539c0"] ;
459 -> 460 ;
461 [label=<gini = 0.0<br/>samples = 3<br/>value = [0, 0, 3, 0, 0]<br/>class = Audio>, fillcolor="#39e5c5"] ;
459 -> 461 ;
462 [label=<TCP Dst Port &le; 261.5<br/>gini = 0.017<br/>samples = 238<br/>value = [0, 0, 236, 2, 0]<br/>class = Audio>, fillcolor="#3be5c5"] ;
450 -> 462 ;
463 [label=<Frame Length &le; 60.0<br/>gini = 0.5<br/>samples = 4<br/>value = [0, 0, 2, 2, 0]<br/>class = Audio>, fillcolor="#ffffff"] ;
462 -> 463 ;
464 [label=<gini = 0.0<br/>samples = 2<br/>value = [0, 0, 0, 2, 0]<br/>class = Video>, fillcolor="#3c39e5"] ;
463 -> 464 ;
465 [label=<gini = 0.0<br/>samples = 2<br/>value = [0, 0, 2, 0, 0]<br/>class = Audio>, fillcolor="#39e5c5"] ;
463 -> 465 ;
466 [label=<gini = 0.0<br/>samples = 234<br/>value = [0, 0, 234, 0, 0]<br/>class = Audio>, fillcolor="#39e5c5"] ;
462 -> 466 ;
467 [label=<TCP Dst Port &le; 261.5<br/>gini = 0.495<br/>samples = 369<br/>value = [0, 0, 89, 36, 244]<br/>class = Other>, fillcolor="#f191dc"] ;
449 -> 467 ;
468 [label=<Frame Length &le; 169.0<br/>gini = 0.493<br/>samples = 111<br/>value = [0, 0, 65, 1, 45]<br/>class = Audio>, fillcolor="#c3f7ed"] ;
467 -> 468 ;
469 [label=<TCP Src Port &le; 40751.0<br/>gini = 0.433<br/>samples = 94<br/>value = [0, 0, 65, 1, 28]<br/>class = Audio>, fillcolor="#90f0de"] ;
468 -> 469 ;
470 [label=<TCP Src Port &le; 40567.0<br/>gini = 0.5<br/>samples = 32<br/>value = [0, 0, 16, 0, 16]<br/>class = Audio>, fillcolor="#ffffff"] ;
469 -> 470 ;
471 [label=<TCP Src Port &le; 40518.5<br/>gini = 0.408<br/>samples = 21<br/>value = [0, 0, 15, 0, 6]<br/>class = Audio>, fillcolor="#88efdc"] ;
470 -> 471 ;
472 [label=<gini = 0.49<br/>samples = 14<br/>value = [0, 0, 8, 0, 6]<br/>class = Audio>, fillcolor="#cef8f0"] ;
471 -> 472 ;
473 [label=<gini = 0.0<br/>samples = 7<br/>value = [0, 0, 7, 0, 0]<br/>class = Audio>, fillcolor="#39e5c5"] ;
471 -> 473 ;
474 [label=<TCP Src Port &le; 40677.5<br/>gini = 0.165<br/>samples = 11<br/>value = [0, 0, 1, 0, 10]<br/>class = Other>, fillcolor="#e84dc6"] ;
470 -> 474 ;
475 [label=<gini = 0.375<br/>samples = 4<br/>value = [0, 0, 1, 0, 3]<br/>class = Other>, fillcolor="#ee7bd5"] ;
474 -> 475 ;
476 [label=<gini = 0.0<br/>samples = 7<br/>value = [0, 0, 0, 0, 7]<br/>class = Other>, fillcolor="#e539c0"] ;
474 -> 476 ;
477 [label=<Frame Length &le; 60.0<br/>gini = 0.338<br/>samples = 62<br/>value = [0, 0, 49, 1, 12]<br/>class = Audio>, fillcolor="#6cecd4"] ;
469 -> 477 ;
478 [label=<gini = 0.0<br/>samples = 1<br/>value = [0, 0, 0, 1, 0]<br/>class = Video>, fillcolor="#3c39e5"] ;
477 -> 478 ;
479 [label=<TCP Src Port &le; 41310.5<br/>gini = 0.316<br/>samples = 61<br/>value = [0, 0, 49, 0, 12]<br/>class = Audio>, fillcolor="#69ebd3"] ;
477 -> 479 ;
480 [label=<gini = 0.399<br/>samples = 40<br/>value = [0, 0, 29, 0, 11]<br/>class = Audio>, fillcolor="#84efdb"] ;
479 -> 480 ;
481 [label=<gini = 0.091<br/>samples = 21<br/>value = [0, 0, 20, 0, 1]<br/>class = Audio>, fillcolor="#43e6c8"] ;
479 -> 481 ;
482 [label=<gini = 0.0<br/>samples = 17<br/>value = [0, 0, 0, 0, 17]<br/>class = Other>, fillcolor="#e539c0"] ;
468 -> 482 ;
483 [label=<TCP Dst Port &le; 454.0<br/>gini = 0.378<br/>samples = 258<br/>value = [0, 0, 24, 35, 199]<br/>class = Other>, fillcolor="#ec6dd1"] ;
467 -> 483 ;
484 [label=<Frame Length &le; 60.0<br/>gini = 0.237<br/>samples = 175<br/>value = [0, 0, 24, 0, 151]<br/>class = Other>, fillcolor="#e958ca"] ;
483 -> 484 ;
485 [label=<TCP Src Port &le; 41389.0<br/>gini = 0.133<br/>samples = 14<br/>value = [0, 0, 13, 0, 1]<br/>class = Audio>, fillcolor="#48e7c9"] ;
484 -> 485 ;
486 [label=<gini = 0.0<br/>samples = 13<br/>value = [0, 0, 13, 0, 0]<br/>class = Audio>, fillcolor="#39e5c5"] ;
485 -> 486 ;
487 [label=<gini = 0.0<br/>samples = 1<br/>value = [0, 0, 0, 0, 1]<br/>class = Other>, fillcolor="#e539c0"] ;
485 -> 487 ;
488 [label=<Frame Length &le; 1499.0<br/>gini = 0.127<br/>samples = 161<br/>value = [0, 0, 11, 0, 150]<br/>class = Other>, fillcolor="#e748c5"] ;
484 -> 488 ;
489 [label=<TCP Flags_2 &le; 0.5<br/>gini = 0.107<br/>samples = 159<br/>value = [0, 0, 9, 0, 150]<br/>class = Other>, fillcolor="#e745c4"] ;
488 -> 489 ;
490 [label=<gini = 0.066<br/>samples = 147<br/>value = [0, 0, 5, 0, 142]<br/>class = Other>, fillcolor="#e640c2"] ;
489 -> 490 ;
491 [label=<gini = 0.444<br/>samples = 12<br/>value = [0, 0, 4, 0, 8]<br/>class = Other>, fillcolor="#f29ce0"] ;
489 -> 491 ;
492 [label=<gini = 0.0<br/>samples = 2<br/>value = [0, 0, 2, 0, 0]<br/>class = Audio>, fillcolor="#39e5c5"] ;
488 -> 492 ;
493 [label=<TCP Dst Port &le; 2843.5<br/>gini = 0.488<br/>samples = 83<br/>value = [0, 0, 0, 35, 48]<br/>class = Other>, fillcolor="#f8c9ee"] ;
483 -> 493 ;
494 [label=<gini = 0.0<br/>samples = 35<br/>value = [0, 0, 0, 35, 0]<br/>class = Video>, fillcolor="#3c39e5"] ;
493 -> 494 ;
495 [label=<gini = 0.0<br/>samples = 48<br/>value = [0, 0, 0, 0, 48]<br/>class = Other>, fillcolor="#e539c0"] ;
493 -> 495 ;
496 [label=<TCP Flags_2 &le; 0.5<br/>gini = 0.093<br/>samples = 184<br/>value = [0, 0, 175, 0, 9]<br/>class = Audio>, fillcolor="#43e6c8"] ;
448 -> 496 ;
497 [label=<TCP Flags_20 &le; 0.5<br/>gini = 0.074<br/>samples = 181<br/>value = [0, 0, 174, 0, 7]<br/>class = Audio>, fillcolor="#41e6c7"] ;
496 -> 497 ;
498 [label=<Frame Length &le; 106.0<br/>gini = 0.064<br/>samples = 180<br/>value = [0, 0, 174, 0, 6]<br/>class = Audio>, fillcolor="#40e6c7"] ;
497 -> 498 ;
499 [label=<TCP Src Port &le; 41607.5<br/>gini = 0.024<br/>samples = 164<br/>value = [0, 0, 162, 0, 2]<br/>class = Audio>, fillcolor="#3be5c6"] ;
498 -> 499 ;
500 [label=<gini = 0.0<br/>samples = 93<br/>value = [0, 0, 93, 0, 0]<br/>class = Audio>, fillcolor="#39e5c5"] ;
499 -> 500 ;
501 [label=<TCP Src Port &le; 41653.5<br/>gini = 0.055<br/>samples = 71<br/>value = [0, 0, 69, 0, 2]<br/>class = Audio>, fillcolor="#3fe6c7"] ;
499 -> 501 ;
502 [label=<gini = 0.0<br/>samples = 2<br/>value = [0, 0, 0, 0, 2]<br/>class = Other>, fillcolor="#e539c0"] ;
501 -> 502 ;
503 [label=<gini = 0.0<br/>samples = 69<br/>value = [0, 0, 69, 0, 0]<br/>class = Audio>, fillcolor="#39e5c5"] ;
501 -> 503 ;
504 [label=<TCP Src Port &le; 41600.5<br/>gini = 0.375<br/>samples = 16<br/>value = [0, 0, 12, 0, 4]<br/>class = Audio>, fillcolor="#7beed8"] ;
498 -> 504 ;
505 [label=<gini = 0.0<br/>samples = 9<br/>value = [0, 0, 9, 0, 0]<br/>class = Audio>, fillcolor="#39e5c5"] ;
504 -> 505 ;
506 [label=<TCP Src Port &le; 41653.5<br/>gini = 0.49<br/>samples = 7<br/>value = [0, 0, 3, 0, 4]<br/>class = Other>, fillcolor="#f8ceef"] ;
504 -> 506 ;
507 [label=<gini = 0.0<br/>samples = 4<br/>value = [0, 0, 0, 0, 4]<br/>class = Other>, fillcolor="#e539c0"] ;
506 -> 507 ;
508 [label=<gini = 0.0<br/>samples = 3<br/>value = [0, 0, 3, 0, 0]<br/>class = Audio>, fillcolor="#39e5c5"] ;
506 -> 508 ;
509 [label=<gini = 0.0<br/>samples = 1<br/>value = [0, 0, 0, 0, 1]<br/>class = Other>, fillcolor="#e539c0"] ;
497 -> 509 ;
510 [label=<TCP Dst Port &le; 261.5<br/>gini = 0.444<br/>samples = 3<br/>value = [0, 0, 1, 0, 2]<br/>class = Other>, fillcolor="#f29ce0"] ;
496 -> 510 ;
511 [label=<gini = 0.0<br/>samples = 1<br/>value = [0, 0, 1, 0, 0]<br/>class = Audio>, fillcolor="#39e5c5"] ;
510 -> 511 ;
512 [label=<gini = 0.0<br/>samples = 2<br/>value = [0, 0, 0, 0, 2]<br/>class = Other>, fillcolor="#e539c0"] ;
510 -> 512 ;
513 [label=<Frame Length &le; 1497.0<br/>gini = 0.612<br/>samples = 1332<br/>value = [0, 0, 254, 393, 685]<br/>class = Other>, fillcolor="#f7c1eb"] ;
447 -> 513 ;
514 [label=<TCP Dst Port &le; 454.0<br/>gini = 0.599<br/>samples = 1238<br/>value = [0, 0, 252, 312, 674]<br/>class = Other>, fillcolor="#f5b2e6"] ;
513 -> 514 ;
515 [label=<TCP Dst Port &le; 261.5<br/>gini = 0.583<br/>samples = 1054<br/>value = [0, 0, 252, 203, 599]<br/>class = Other>, fillcolor="#f4a9e4"] ;
514 -> 515 ;
516 [label=<Frame Length &le; 60.0<br/>gini = 0.66<br/>samples = 353<br/>value = [0, 0, 96, 137, 120]<br/>class = Video>, fillcolor="#f1f1fd"] ;
515 -> 516 ;
517 [label=<gini = 0.0<br/>samples = 19<br/>value = [0, 0, 0, 19, 0]<br/>class = Video>, fillcolor="#3c39e5"] ;
516 -> 517 ;
518 [label=<TCP Src Port &le; 43672.0<br/>gini = 0.663<br/>samples = 334<br/>value = [0, 0, 96, 118, 120]<br/>class = Other>, fillcolor="#fffdfe"] ;
516 -> 518 ;
519 [label=<TCP Src Port &le; 42926.5<br/>gini = 0.603<br/>samples = 149<br/>value = [0, 0, 27, 79, 43]<br/>class = Video>, fillcolor="#bdbcf6"] ;
518 -> 519 ;
520 [label=<TCP Src Port &le; 42746.0<br/>gini = 0.54<br/>samples = 58<br/>value = [0, 0, 24, 3, 31]<br/>class = Other>, fillcolor="#fad6f2"] ;
519 -> 520 ;
521 [label=<gini = 0.538<br/>samples = 48<br/>value = [0, 0, 24, 2, 22]<br/>class = Audio>, fillcolor="#f0fdfb"] ;
520 -> 521 ;
522 [label=<gini = 0.18<br/>samples = 10<br/>value = [0, 0, 0, 1, 9]<br/>class = Other>, fillcolor="#e84fc7"] ;
520 -> 522 ;
523 [label=<TCP Src Port &le; 43124.0<br/>gini = 0.284<br/>samples = 91<br/>value = [0, 0, 3, 76, 12]<br/>class = Video>, fillcolor="#615fea"] ;
519 -> 523 ;
524 [label=<gini = 0.085<br/>samples = 68<br/>value = [0, 0, 1, 65, 2]<br/>class = Video>, fillcolor="#4542e6"] ;
523 -> 524 ;
525 [label=<gini = 0.575<br/>samples = 23<br/>value = [0, 0, 2, 11, 10]<br/>class = Video>, fillcolor="#f0f0fd"] ;
523 -> 525 ;
526 [label=<TCP Src Port &le; 45109.0<br/>gini = 0.643<br/>samples = 185<br/>value = [0, 0, 69, 39, 77]<br/>class = Other>, fillcolor="#fdf1fb"] ;
518 -> 526 ;
527 [label=<TCP Src Port &le; 43990.0<br/>gini = 0.484<br/>samples = 97<br/>value = [0, 0, 37, 1, 59]<br/>class = Other>, fillcolor="#f5b6e8"] ;
526 -> 527 ;
528 [label=<gini = 0.285<br/>samples = 29<br/>value = [0, 0, 24, 0, 5]<br/>class = Audio>, fillcolor="#62ead1"] ;
527 -> 528 ;
529 [label=<gini = 0.333<br/>samples = 68<br/>value = [0, 0, 13, 1, 54]<br/>class = Other>, fillcolor="#ec6bd0"] ;
527 -> 529 ;
530 [label=<TCP Src Port &le; 45181.5<br/>gini = 0.639<br/>samples = 88<br/>value = [0, 0, 32, 38, 18]<br/>class = Video>, fillcolor="#eaeafc"] ;
526 -> 530 ;
531 [label=<gini = 0.142<br/>samples = 39<br/>value = [0, 0, 3, 36, 0]<br/>class = Video>, fillcolor="#4c49e7"] ;
530 -> 531 ;
532 [label=<gini = 0.513<br/>samples = 49<br/>value = [0, 0, 29, 2, 18]<br/>class = Audio>, fillcolor="#b9f6ea"] ;
530 -> 532 ;
533 [label=<Frame Length &le; 60.0<br/>gini = 0.475<br/>samples = 701<br/>value = [0, 0, 156, 66, 479]<br/>class = Other>, fillcolor="#f08ada"] ;
515 -> 533 ;
534 [label=<TCP Flags_4 &le; 0.5<br/>gini = 0.421<br/>samples = 87<br/>value = [0, 0, 64, 8, 15]<br/>class = Audio>, fillcolor="#78edd8"] ;
533 -> 534 ;
535 [label=<TCP Src Port &le; 45606.0<br/>gini = 0.111<br/>samples = 68<br/>value = [0, 0, 64, 0, 4]<br/>class = Audio>, fillcolor="#45e7c9"] ;
534 -> 535 ;
536 [label=<TCP Src Port &le; 45014.5<br/>gini = 0.06<br/>samples = 65<br/>value = [0, 0, 63, 0, 2]<br/>class = Audio>, fillcolor="#3fe6c7"] ;
535 -> 536 ;
537 [label=<gini = 0.137<br/>samples = 27<br/>value = [0, 0, 25, 0, 2]<br/>class = Audio>, fillcolor="#49e7ca"] ;
536 -> 537 ;
538 [label=<gini = 0.0<br/>samples = 38<br/>value = [0, 0, 38, 0, 0]<br/>class = Audio>, fillcolor="#39e5c5"] ;
536 -> 538 ;
539 [label=<TCP Src Port &le; 45895.5<br/>gini = 0.444<br/>samples = 3<br/>value = [0, 0, 1, 0, 2]<br/>class = Other>, fillcolor="#f29ce0"] ;
535 -> 539 ;
540 [label=<gini = 0.0<br/>samples = 2<br/>value = [0, 0, 0, 0, 2]<br/>class = Other>, fillcolor="#e539c0"] ;
539 -> 540 ;
541 [label=<gini = 0.0<br/>samples = 1<br/>value = [0, 0, 1, 0, 0]<br/>class = Audio>, fillcolor="#39e5c5"] ;
539 -> 541 ;
542 [label=<TCP Src Port &le; 43364.5<br/>gini = 0.488<br/>samples = 19<br/>value = [0, 0, 0, 8, 11]<br/>class = Other>, fillcolor="#f8c9ee"] ;
534 -> 542 ;
543 [label=<gini = 0.0<br/>samples = 8<br/>value = [0, 0, 0, 0, 8]<br/>class = Other>, fillcolor="#e539c0"] ;
542 -> 543 ;
544 [label=<TCP Src Port &le; 43938.5<br/>gini = 0.397<br/>samples = 11<br/>value = [0, 0, 0, 8, 3]<br/>class = Video>, fillcolor="#8583ef"] ;
542 -> 544 ;
545 [label=<gini = 0.0<br/>samples = 7<br/>value = [0, 0, 0, 7, 0]<br/>class = Video>, fillcolor="#3c39e5"] ;
544 -> 545 ;
546 [label=<gini = 0.375<br/>samples = 4<br/>value = [0, 0, 0, 1, 3]<br/>class = Other>, fillcolor="#ee7bd5"] ;
544 -> 546 ;
547 [label=<TCP Src Port &le; 45014.5<br/>gini = 0.398<br/>samples = 614<br/>value = [0, 0, 92, 58, 464]<br/>class = Other>, fillcolor="#ec72d2"] ;
533 -> 547 ;
548 [label=<TCP Src Port &le; 43547.0<br/>gini = 0.28<br/>samples = 444<br/>value = [0, 0, 24, 47, 373]<br/>class = Other>, fillcolor="#ea5ccb"] ;
547 -> 548 ;
549 [label=<Frame Length &le; 365.0<br/>gini = 0.11<br/>samples = 225<br/>value = [0, 0, 11, 2, 212]<br/>class = Other>, fillcolor="#e745c4"] ;
548 -> 549 ;
550 [label=<gini = 0.06<br/>samples = 195<br/>value = [0, 0, 5, 1, 189]<br/>class = Other>, fillcolor="#e63fc2"] ;
549 -> 550 ;
551 [label=<gini = 0.371<br/>samples = 30<br/>value = [0, 0, 6, 1, 23]<br/>class = Other>, fillcolor="#ed73d2"] ;
549 -> 551 ;
552 [label=<TCP Src Port &le; 43762.0<br/>gini = 0.414<br/>samples = 219<br/>value = [0, 0, 13, 45, 161]<br/>class = Other>, fillcolor="#ee7bd5"] ;
548 -> 552 ;
553 [label=<gini = 0.306<br/>samples = 50<br/>value = [0, 0, 2, 41, 7]<br/>class = Video>, fillcolor="#6562ea"] ;
552 -> 553 ;
554 [label=<gini = 0.165<br/>samples = 169<br/>value = [0, 0, 11, 4, 154]<br/>class = Other>, fillcolor="#e74cc6"] ;
552 -> 554 ;
555 [label=<TCP Src Port &le; 45080.0<br/>gini = 0.549<br/>samples = 170<br/>value = [0, 0, 68, 11, 91]<br/>class = Other>, fillcolor="#f9d2f1"] ;
547 -> 555 ;
556 [label=<gini = 0.0<br/>samples = 66<br/>value = [0, 0, 66, 0, 0]<br/>class = Audio>, fillcolor="#39e5c5"] ;
555 -> 556 ;
557 [label=<TCP Src Port &le; 46159.5<br/>gini = 0.223<br/>samples = 104<br/>value = [0, 0, 2, 11, 91]<br/>class = Other>, fillcolor="#e955c9"] ;
555 -> 557 ;
558 [label=<gini = 0.053<br/>samples = 74<br/>value = [0, 0, 2, 0, 72]<br/>class = Other>, fillcolor="#e63ec2"] ;
557 -> 558 ;
559 [label=<gini = 0.464<br/>samples = 30<br/>value = [0, 0, 0, 11, 19]<br/>class = Other>, fillcolor="#f4ace4"] ;
557 -> 559 ;
560 [label=<TCP Dst Port &le; 729.0<br/>gini = 0.483<br/>samples = 184<br/>value = [0, 0, 0, 109, 75]<br/>class = Video>, fillcolor="#c2c1f7"] ;
514 -> 560 ;
561 [label=<gini = 0.0<br/>samples = 109<br/>value = [0, 0, 0, 109, 0]<br/>class = Video>, fillcolor="#3c39e5"] ;
560 -> 561 ;
562 [label=<gini = 0.0<br/>samples = 75<br/>value = [0, 0, 0, 0, 75]<br/>class = Other>, fillcolor="#e539c0"] ;
560 -> 562 ;
563 [label=<Frame Length &le; 1512.0<br/>gini = 0.243<br/>samples = 94<br/>value = [0, 0, 2, 81, 11]<br/>class = Video>, fillcolor="#5b58e9"] ;
513 -> 563 ;
564 [label=<gini = 0.0<br/>samples = 81<br/>value = [0, 0, 0, 81, 0]<br/>class = Video>, fillcolor="#3c39e5"] ;
563 -> 564 ;
565 [label=<TCP Dst Port &le; 261.5<br/>gini = 0.26<br/>samples = 13<br/>value = [0, 0, 2, 0, 11]<br/>class = Other>, fillcolor="#ea5dcb"] ;
563 -> 565 ;
566 [label=<gini = 0.0<br/>samples = 11<br/>value = [0, 0, 0, 0, 11]<br/>class = Other>, fillcolor="#e539c0"] ;
565 -> 566 ;
567 [label=<gini = 0.0<br/>samples = 2<br/>value = [0, 0, 2, 0, 0]<br/>class = Audio>, fillcolor="#39e5c5"] ;
565 -> 567 ;
568 [label=<TCP Src Port &le; 46476.5<br/>gini = 0.053<br/>samples = 32223<br/>value = [0, 0, 265, 31344, 614]<br/>class = Video>, fillcolor="#413fe6"] ;
374 -> 568 ;
569 [label=<TCP Dst Port &le; 2843.5<br/>gini = 0.004<br/>samples = 29779<br/>value = [0, 0, 20, 29715, 44]<br/>class = Video>, fillcolor="#3c39e5"] ;
568 -> 569 ;
570 [label=<TCP Dst Port &le; 261.5<br/>gini = 0.004<br/>samples = 29770<br/>value = [0, 0, 20, 29715, 35]<br/>class = Video>, fillcolor="#3c39e5"] ;
569 -> 570 ;
571 [label=<TCP Src Port &le; 46410.0<br/>gini = 0.49<br/>samples = 7<br/>value = [0, 0, 3, 0, 4]<br/>class = Other>, fillcolor="#f8ceef"] ;
570 -> 571 ;
572 [label=<gini = 0.0<br/>samples = 3<br/>value = [0, 0, 3, 0, 0]<br/>class = Audio>, fillcolor="#39e5c5"] ;
571 -> 572 ;
573 [label=<gini = 0.0<br/>samples = 4<br/>value = [0, 0, 0, 0, 4]<br/>class = Other>, fillcolor="#e539c0"] ;
571 -> 573 ;
574 [label=<TCP Flags_25 &le; 0.5<br/>gini = 0.003<br/>samples = 29763<br/>value = [0, 0, 17, 29715, 31]<br/>class = Video>, fillcolor="#3c39e5"] ;
570 -> 574 ;
575 [label=<Frame Length &le; 60.0<br/>gini = 0.003<br/>samples = 29758<br/>value = [0, 0, 17, 29715, 26]<br/>class = Video>, fillcolor="#3c39e5"] ;
574 -> 575 ;
576 [label=<TCP Flags_16 &le; 0.5<br/>gini = 0.42<br/>samples = 10<br/>value = [0, 0, 7, 3, 0]<br/>class = Audio>, fillcolor="#8ef0de"] ;
575 -> 576 ;
577 [label=<gini = 0.0<br/>samples = 3<br/>value = [0, 0, 0, 3, 0]<br/>class = Video>, fillcolor="#3c39e5"] ;
576 -> 577 ;
578 [label=<gini = 0.0<br/>samples = 7<br/>value = [0, 0, 7, 0, 0]<br/>class = Audio>, fillcolor="#39e5c5"] ;
576 -> 578 ;
579 [label=<TCP Src Port &le; 46322.5<br/>gini = 0.002<br/>samples = 29748<br/>value = [0, 0, 10, 29712, 26]<br/>class = Video>, fillcolor="#3c39e5"] ;
575 -> 579 ;
580 [label=<TCP Src Port &le; 46258.5<br/>gini = 0.125<br/>samples = 344<br/>value = [0, 0, 0, 321, 23]<br/>class = Video>, fillcolor="#4a47e7"] ;
579 -> 580 ;
581 [label=<Frame Length &le; 403.5<br/>gini = 0.081<br/>samples = 331<br/>value = [0, 0, 0, 317, 14]<br/>class = Video>, fillcolor="#4542e6"] ;
580 -> 581 ;
582 [label=<TCP Src Port &le; 46222.0<br/>gini = 0.247<br/>samples = 97<br/>value = [0, 0, 0, 83, 14]<br/>class = Video>, fillcolor="#5d5ae9"] ;
581 -> 582 ;
583 [label=<gini = 0.389<br/>samples = 34<br/>value = [0, 0, 0, 25, 9]<br/>class = Video>, fillcolor="#8280ee"] ;
582 -> 583 ;
584 [label=<gini = 0.146<br/>samples = 63<br/>value = [0, 0, 0, 58, 5]<br/>class = Video>, fillcolor="#4d4ae7"] ;
582 -> 584 ;
585 [label=<gini = 0.0<br/>samples = 234<br/>value = [0, 0, 0, 234, 0]<br/>class = Video>, fillcolor="#3c39e5"] ;
581 -> 585 ;
586 [label=<TCP Src Port &le; 46275.0<br/>gini = 0.426<br/>samples = 13<br/>value = [0, 0, 0, 4, 9]<br/>class = Other>, fillcolor="#f191dc"] ;
580 -> 586 ;
587 [label=<gini = 0.0<br/>samples = 7<br/>value = [0, 0, 0, 0, 7]<br/>class = Other>, fillcolor="#e539c0"] ;
586 -> 587 ;
588 [label=<TCP Src Port &le; 46296.0<br/>gini = 0.444<br/>samples = 6<br/>value = [0, 0, 0, 4, 2]<br/>class = Video>, fillcolor="#9e9cf2"] ;
586 -> 588 ;
589 [label=<gini = 0.0<br/>samples = 4<br/>value = [0, 0, 0, 4, 0]<br/>class = Video>, fillcolor="#3c39e5"] ;
588 -> 589 ;
590 [label=<gini = 0.0<br/>samples = 2<br/>value = [0, 0, 0, 0, 2]<br/>class = Other>, fillcolor="#e539c0"] ;
588 -> 590 ;
591 [label=<TCP Src Port &le; 46333.0<br/>gini = 0.001<br/>samples = 29404<br/>value = [0, 0, 10, 29391, 3]<br/>class = Video>, fillcolor="#3c39e5"] ;
579 -> 591 ;
592 [label=<gini = 0.0<br/>samples = 29144<br/>value = [0, 0, 0, 29144, 0]<br/>class = Video>, fillcolor="#3c39e5"] ;
591 -> 592 ;
593 [label=<TCP Src Port &le; 46380.5<br/>gini = 0.096<br/>samples = 260<br/>value = [0, 0, 10, 247, 3]<br/>class = Video>, fillcolor="#4643e6"] ;
591 -> 593 ;
594 [label=<TCP Flags_24 &le; 0.5<br/>gini = 0.165<br/>samples = 11<br/>value = [0, 0, 10, 0, 1]<br/>class = Audio>, fillcolor="#4de8cb"] ;
593 -> 594 ;
595 [label=<gini = 0.0<br/>samples = 1<br/>value = [0, 0, 0, 0, 1]<br/>class = Other>, fillcolor="#e539c0"] ;
594 -> 595 ;
596 [label=<gini = 0.0<br/>samples = 10<br/>value = [0, 0, 10, 0, 0]<br/>class = Audio>, fillcolor="#39e5c5"] ;
594 -> 596 ;
597 [label=<TCP Flags_24 &le; 0.5<br/>gini = 0.016<br/>samples = 249<br/>value = [0, 0, 0, 247, 2]<br/>class = Video>, fillcolor="#3e3be5"] ;
593 -> 597 ;
598 [label=<gini = 0.0<br/>samples = 219<br/>value = [0, 0, 0, 219, 0]<br/>class = Video>, fillcolor="#3c39e5"] ;
597 -> 598 ;
599 [label=<gini = 0.124<br/>samples = 30<br/>value = [0, 0, 0, 28, 2]<br/>class = Video>, fillcolor="#4a47e7"] ;
597 -> 599 ;
600 [label=<gini = 0.0<br/>samples = 5<br/>value = [0, 0, 0, 0, 5]<br/>class = Other>, fillcolor="#e539c0"] ;
574 -> 600 ;
601 [label=<gini = 0.0<br/>samples = 9<br/>value = [0, 0, 0, 0, 9]<br/>class = Other>, fillcolor="#e539c0"] ;
569 -> 601 ;
602 [label=<TCP Src Port &le; 49148.5<br/>gini = 0.491<br/>samples = 2444<br/>value = [0, 0, 245, 1629, 570]<br/>class = Video>, fillcolor="#918ff0"] ;
568 -> 602 ;
603 [label=<TCP Src Port &le; 49116.5<br/>gini = 0.481<br/>samples = 864<br/>value = [0, 0, 245, 49, 570]<br/>class = Other>, fillcolor="#f197de"] ;
602 -> 603 ;
604 [label=<TCP Dst Port &le; 261.5<br/>gini = 0.432<br/>samples = 741<br/>value = [0, 0, 159, 49, 533]<br/>class = Other>, fillcolor="#ee80d7"] ;
603 -> 604 ;
605 [label=<Frame Length &le; 60.0<br/>gini = 0.533<br/>samples = 195<br/>value = [0, 0, 111, 11, 73]<br/>class = Audio>, fillcolor="#c1f7ed"] ;
604 -> 605 ;
606 [label=<TCP Src Port &le; 47678.0<br/>gini = 0.219<br/>samples = 8<br/>value = [0, 0, 0, 7, 1]<br/>class = Video>, fillcolor="#5855e9"] ;
605 -> 606 ;
607 [label=<TCP Src Port &le; 47116.0<br/>gini = 0.444<br/>samples = 3<br/>value = [0, 0, 0, 2, 1]<br/>class = Video>, fillcolor="#9e9cf2"] ;
606 -> 607 ;
608 [label=<gini = 0.0<br/>samples = 2<br/>value = [0, 0, 0, 2, 0]<br/>class = Video>, fillcolor="#3c39e5"] ;
607 -> 608 ;
609 [label=<gini = 0.0<br/>samples = 1<br/>value = [0, 0, 0, 0, 1]<br/>class = Other>, fillcolor="#e539c0"] ;
607 -> 609 ;
610 [label=<gini = 0.0<br/>samples = 5<br/>value = [0, 0, 0, 5, 0]<br/>class = Video>, fillcolor="#3c39e5"] ;
606 -> 610 ;
611 [label=<Frame Length &le; 205.0<br/>gini = 0.499<br/>samples = 187<br/>value = [0, 0, 111, 4, 72]<br/>class = Audio>, fillcolor="#bcf6eb"] ;
605 -> 611 ;
612 [label=<Frame Length &le; 70.0<br/>gini = 0.484<br/>samples = 177<br/>value = [0, 0, 111, 4, 62]<br/>class = Audio>, fillcolor="#abf4e6"] ;
611 -> 612 ;
613 [label=<TCP Flags_2 &le; 0.5<br/>gini = 0.506<br/>samples = 139<br/>value = [0, 0, 80, 3, 56]<br/>class = Audio>, fillcolor="#c6f7ee"] ;
612 -> 613 ;
614 [label=<TCP Src Port &le; 48311.5<br/>gini = 0.484<br/>samples = 136<br/>value = [0, 0, 80, 0, 56]<br/>class = Audio>, fillcolor="#c4f7ee"] ;
613 -> 614 ;
615 [label=<gini = 0.5<br/>samples = 85<br/>value = [0, 0, 42, 0, 43]<br/>class = Other>, fillcolor="#fefafe"] ;
614 -> 615 ;
616 [label=<gini = 0.38<br/>samples = 51<br/>value = [0, 0, 38, 0, 13]<br/>class = Audio>, fillcolor="#7deed9"] ;
614 -> 616 ;
617 [label=<gini = 0.0<br/>samples = 3<br/>value = [0, 0, 0, 3, 0]<br/>class = Video>, fillcolor="#3c39e5"] ;
613 -> 617 ;
618 [label=<TCP Flags_24 &le; 0.5<br/>gini = 0.309<br/>samples = 38<br/>value = [0, 0, 31, 1, 6]<br/>class = Audio>, fillcolor="#64ebd2"] ;
612 -> 618 ;
619 [label=<TCP Src Port &le; 47325.0<br/>gini = 0.272<br/>samples = 37<br/>value = [0, 0, 31, 0, 6]<br/>class = Audio>, fillcolor="#5fead0"] ;
618 -> 619 ;
620 [label=<gini = 0.469<br/>samples = 8<br/>value = [0, 0, 5, 0, 3]<br/>class = Audio>, fillcolor="#b0f5e8"] ;
619 -> 620 ;
621 [label=<gini = 0.185<br/>samples = 29<br/>value = [0, 0, 26, 0, 3]<br/>class = Audio>, fillcolor="#50e8cc"] ;
619 -> 621 ;
622 [label=<gini = 0.0<br/>samples = 1<br/>value = [0, 0, 0, 1, 0]<br/>class = Video>, fillcolor="#3c39e5"] ;
618 -> 622 ;
623 [label=<gini = 0.0<br/>samples = 10<br/>value = [0, 0, 0, 0, 10]<br/>class = Other>, fillcolor="#e539c0"] ;
611 -> 623 ;
624 [label=<TCP Src Port &le; 48815.0<br/>gini = 0.278<br/>samples = 546<br/>value = [0, 0, 48, 38, 460]<br/>class = Other>, fillcolor="#e95bcb"] ;
604 -> 624 ;
625 [label=<TCP Src Port &le; 46508.5<br/>gini = 0.201<br/>samples = 478<br/>value = [0, 0, 42, 11, 425]<br/>class = Other>, fillcolor="#e851c8"] ;
624 -> 625 ;
626 [label=<TCP Src Port &le; 46477.5<br/>gini = 0.391<br/>samples = 15<br/>value = [0, 0, 0, 11, 4]<br/>class = Video>, fillcolor="#8381ee"] ;
625 -> 626 ;
627 [label=<gini = 0.0<br/>samples = 4<br/>value = [0, 0, 0, 0, 4]<br/>class = Other>, fillcolor="#e539c0"] ;
626 -> 627 ;
628 [label=<gini = 0.0<br/>samples = 11<br/>value = [0, 0, 0, 11, 0]<br/>class = Video>, fillcolor="#3c39e5"] ;
626 -> 628 ;
629 [label=<TCP Src Port &le; 47171.0<br/>gini = 0.165<br/>samples = 463<br/>value = [0, 0, 42, 0, 421]<br/>class = Other>, fillcolor="#e84dc6"] ;
625 -> 629 ;
630 [label=<Frame Length &le; 60.0<br/>gini = 0.342<br/>samples = 105<br/>value = [0, 0, 23, 0, 82]<br/>class = Other>, fillcolor="#ec71d2"] ;
629 -> 630 ;
631 [label=<TCP Src Port &le; 46575.5<br/>gini = 0.375<br/>samples = 16<br/>value = [0, 0, 12, 0, 4]<br/>class = Audio>, fillcolor="#7beed8"] ;
630 -> 631 ;
632 [label=<gini = 0.0<br/>samples = 3<br/>value = [0, 0, 0, 0, 3]<br/>class = Other>, fillcolor="#e539c0"] ;
631 -> 632 ;
633 [label=<gini = 0.142<br/>samples = 13<br/>value = [0, 0, 12, 0, 1]<br/>class = Audio>, fillcolor="#49e7ca"] ;
631 -> 633 ;
634 [label=<TCP Src Port &le; 47163.5<br/>gini = 0.217<br/>samples = 89<br/>value = [0, 0, 11, 0, 78]<br/>class = Other>, fillcolor="#e955c9"] ;
630 -> 634 ;
635 [label=<gini = 0.169<br/>samples = 86<br/>value = [0, 0, 8, 0, 78]<br/>class = Other>, fillcolor="#e84dc6"] ;
634 -> 635 ;
636 [label=<gini = 0.0<br/>samples = 3<br/>value = [0, 0, 3, 0, 0]<br/>class = Audio>, fillcolor="#39e5c5"] ;
634 -> 636 ;
637 [label=<TCP Src Port &le; 48242.5<br/>gini = 0.101<br/>samples = 358<br/>value = [0, 0, 19, 0, 339]<br/>class = Other>, fillcolor="#e644c4"] ;
629 -> 637 ;
638 [label=<gini = 0.0<br/>samples = 189<br/>value = [0, 0, 0, 0, 189]<br/>class = Other>, fillcolor="#e539c0"] ;
637 -> 638 ;
639 [label=<TCP Src Port &le; 48271.5<br/>gini = 0.2<br/>samples = 169<br/>value = [0, 0, 19, 0, 150]<br/>class = Other>, fillcolor="#e852c8"] ;
637 -> 639 ;
640 [label=<gini = 0.0<br/>samples = 4<br/>value = [0, 0, 4, 0, 0]<br/>class = Audio>, fillcolor="#39e5c5"] ;
639 -> 640 ;
641 [label=<gini = 0.165<br/>samples = 165<br/>value = [0, 0, 15, 0, 150]<br/>class = Other>, fillcolor="#e84dc6"] ;
639 -> 641 ;
642 [label=<TCP Dst Port &le; 454.0<br/>gini = 0.57<br/>samples = 68<br/>value = [0, 0, 6, 27, 35]<br/>class = Other>, fillcolor="#fad8f3"] ;
624 -> 642 ;
643 [label=<Frame Length &le; 60.0<br/>gini = 0.25<br/>samples = 41<br/>value = [0, 0, 6, 0, 35]<br/>class = Other>, fillcolor="#e95bcb"] ;
642 -> 643 ;
644 [label=<gini = 0.0<br/>samples = 3<br/>value = [0, 0, 3, 0, 0]<br/>class = Audio>, fillcolor="#39e5c5"] ;
643 -> 644 ;
645 [label=<Frame Length &le; 371.0<br/>gini = 0.145<br/>samples = 38<br/>value = [0, 0, 3, 0, 35]<br/>class = Other>, fillcolor="#e74ac5"] ;
643 -> 645 ;
646 [label=<gini = 0.0<br/>samples = 31<br/>value = [0, 0, 0, 0, 31]<br/>class = Other>, fillcolor="#e539c0"] ;
645 -> 646 ;
647 [label=<Frame Length &le; 387.0<br/>gini = 0.49<br/>samples = 7<br/>value = [0, 0, 3, 0, 4]<br/>class = Other>, fillcolor="#f8ceef"] ;
645 -> 647 ;
648 [label=<gini = 0.0<br/>samples = 1<br/>value = [0, 0, 1, 0, 0]<br/>class = Audio>, fillcolor="#39e5c5"] ;
647 -> 648 ;
649 [label=<gini = 0.444<br/>samples = 6<br/>value = [0, 0, 2, 0, 4]<br/>class = Other>, fillcolor="#f29ce0"] ;
647 -> 649 ;
650 [label=<gini = 0.0<br/>samples = 27<br/>value = [0, 0, 0, 27, 0]<br/>class = Video>, fillcolor="#3c39e5"] ;
642 -> 650 ;
651 [label=<TCP Src Port &le; 49122.5<br/>gini = 0.421<br/>samples = 123<br/>value = [0, 0, 86, 0, 37]<br/>class = Audio>, fillcolor="#8ef0de"] ;
603 -> 651 ;
652 [label=<gini = 0.0<br/>samples = 86<br/>value = [0, 0, 86, 0, 0]<br/>class = Audio>, fillcolor="#39e5c5"] ;
651 -> 652 ;
653 [label=<gini = 0.0<br/>samples = 37<br/>value = [0, 0, 0, 0, 37]<br/>class = Other>, fillcolor="#e539c0"] ;
651 -> 653 ;
654 [label=<gini = 0.0<br/>samples = 1580<br/>value = [0, 0, 0, 1580, 0]<br/>class = Video>, fillcolor="#3c39e5"] ;
602 -> 654 ;
655 [label=<TCP Src Port &le; 49174.0<br/>gini = 0.488<br/>samples = 9114<br/>value = [6179, 0, 173, 1897, 865]<br/>class = Smart Static>, fillcolor="#f0b48a"] ;
373 -> 655 ;
656 [label=<IPv4 Flags_0 &le; 0.5<br/>gini = 0.011<br/>samples = 6213<br/>value = [6179, 0, 0, 0, 34]<br/>class = Smart Static>, fillcolor="#e5823a"] ;
655 -> 656 ;
657 [label=<gini = 0.0<br/>samples = 6179<br/>value = [6179, 0, 0, 0, 0]<br/>class = Smart Static>, fillcolor="#e58139"] ;
656 -> 657 ;
658 [label=<gini = 0.0<br/>samples = 34<br/>value = [0, 0, 0, 0, 34]<br/>class = Other>, fillcolor="#e539c0"] ;
656 -> 658 ;
659 [label=<TCP Src Port &le; 50621.0<br/>gini = 0.487<br/>samples = 2901<br/>value = [0, 0, 173, 1897, 831]<br/>class = Video>, fillcolor="#9b99f2"] ;
655 -> 659 ;
660 [label=<TCP Dst Port &le; 49889.0<br/>gini = 0.505<br/>samples = 1306<br/>value = [0, 0, 94, 381, 831]<br/>class = Other>, fillcolor="#f29fe0"] ;
659 -> 660 ;
661 [label=<TCP Dst Port &le; 261.5<br/>gini = 0.283<br/>samples = 940<br/>value = [0, 0, 94, 58, 788]<br/>class = Other>, fillcolor="#ea5dcb"] ;
660 -> 661 ;
662 [label=<Frame Length &le; 213.5<br/>gini = 0.477<br/>samples = 110<br/>value = [0, 0, 73, 6, 31]<br/>class = Audio>, fillcolor="#96f1e0"] ;
661 -> 662 ;
663 [label=<Frame Length &le; 60.0<br/>gini = 0.433<br/>samples = 102<br/>value = [0, 0, 73, 6, 23]<br/>class = Audio>, fillcolor="#82efda"] ;
662 -> 663 ;
664 [label=<gini = 0.0<br/>samples = 3<br/>value = [0, 0, 0, 3, 0]<br/>class = Video>, fillcolor="#3c39e5"] ;
663 -> 664 ;
665 [label=<TCP Src Port &le; 49436.0<br/>gini = 0.401<br/>samples = 99<br/>value = [0, 0, 73, 3, 23]<br/>class = Audio>, fillcolor="#7deed9"] ;
663 -> 665 ;
666 [label=<TCP Src Port &le; 49404.0<br/>gini = 0.499<br/>samples = 21<br/>value = [0, 0, 10, 0, 11]<br/>class = Other>, fillcolor="#fdedf9"] ;
665 -> 666 ;
667 [label=<TCP Src Port &le; 49359.5<br/>gini = 0.484<br/>samples = 17<br/>value = [0, 0, 10, 0, 7]<br/>class = Audio>, fillcolor="#c4f7ee"] ;
666 -> 667 ;
668 [label=<TCP Src Port &le; 49306.0<br/>gini = 0.486<br/>samples = 12<br/>value = [0, 0, 5, 0, 7]<br/>class = Other>, fillcolor="#f8c6ed"] ;
667 -> 668 ;
669 [label=<gini = 0.408<br/>samples = 7<br/>value = [0, 0, 5, 0, 2]<br/>class = Audio>, fillcolor="#88efdc"] ;
668 -> 669 ;
670 [label=<gini = 0.0<br/>samples = 5<br/>value = [0, 0, 0, 0, 5]<br/>class = Other>, fillcolor="#e539c0"] ;
668 -> 670 ;
671 [label=<gini = 0.0<br/>samples = 5<br/>value = [0, 0, 5, 0, 0]<br/>class = Audio>, fillcolor="#39e5c5"] ;
667 -> 671 ;
672 [label=<gini = 0.0<br/>samples = 4<br/>value = [0, 0, 0, 0, 4]<br/>class = Other>, fillcolor="#e539c0"] ;
666 -> 672 ;
673 [label=<Frame Length &le; 118.0<br/>gini = 0.322<br/>samples = 78<br/>value = [0, 0, 63, 3, 12]<br/>class = Audio>, fillcolor="#66ebd2"] ;
665 -> 673 ;
674 [label=<TCP Src Port &le; 49519.5<br/>gini = 0.306<br/>samples = 77<br/>value = [0, 0, 63, 2, 12]<br/>class = Audio>, fillcolor="#64ebd1"] ;
673 -> 674 ;
675 [label=<gini = 0.0<br/>samples = 15<br/>value = [0, 0, 15, 0, 0]<br/>class = Audio>, fillcolor="#39e5c5"] ;
674 -> 675 ;
676 [label=<TCP Src Port &le; 49525.5<br/>gini = 0.362<br/>samples = 62<br/>value = [0, 0, 48, 2, 12]<br/>class = Audio>, fillcolor="#70ecd5"] ;
674 -> 676 ;
677 [label=<gini = 0.0<br/>samples = 2<br/>value = [0, 0, 0, 0, 2]<br/>class = Other>, fillcolor="#e539c0"] ;
676 -> 677 ;
678 [label=<gini = 0.331<br/>samples = 60<br/>value = [0, 0, 48, 2, 10]<br/>class = Audio>, fillcolor="#69ebd3"] ;
676 -> 678 ;
679 [label=<gini = 0.0<br/>samples = 1<br/>value = [0, 0, 0, 1, 0]<br/>class = Video>, fillcolor="#3c39e5"] ;
673 -> 679 ;
680 [label=<gini = 0.0<br/>samples = 8<br/>value = [0, 0, 0, 0, 8]<br/>class = Other>, fillcolor="#e539c0"] ;
662 -> 680 ;
681 [label=<TCP Flags_17 &le; 0.5<br/>gini = 0.164<br/>samples = 830<br/>value = [0, 0, 21, 52, 757]<br/>class = Other>, fillcolor="#e74cc6"] ;
661 -> 681 ;
682 [label=<TCP Flags_24 &le; 0.5<br/>gini = 0.121<br/>samples = 786<br/>value = [0, 0, 20, 30, 736]<br/>class = Other>, fillcolor="#e746c4"] ;
681 -> 682 ;
683 [label=<TCP Dst Port &le; 454.0<br/>gini = 0.321<br/>samples = 239<br/>value = [0, 0, 15, 30, 194]<br/>class = Other>, fillcolor="#eb64ce"] ;
682 -> 683 ;
684 [label=<TCP Src Port &le; 50400.5<br/>gini = 0.17<br/>samples = 160<br/>value = [0, 0, 15, 0, 145]<br/>class = Other>, fillcolor="#e84dc7"] ;
683 -> 684 ;
685 [label=<Frame Length &le; 87.5<br/>gini = 0.091<br/>samples = 147<br/>value = [0, 0, 7, 0, 140]<br/>class = Other>, fillcolor="#e643c3"] ;
684 -> 685 ;
686 [label=<Frame Length &le; 60.0<br/>gini = 0.055<br/>samples = 141<br/>value = [0, 0, 4, 0, 137]<br/>class = Other>, fillcolor="#e63fc2"] ;
685 -> 686 ;
687 [label=<gini = 0.231<br/>samples = 30<br/>value = [0, 0, 4, 0, 26]<br/>class = Other>, fillcolor="#e957ca"] ;
686 -> 687 ;
688 [label=<gini = 0.0<br/>samples = 111<br/>value = [0, 0, 0, 0, 111]<br/>class = Other>, fillcolor="#e539c0"] ;
686 -> 688 ;
689 [label=<TCP Src Port &le; 49949.5<br/>gini = 0.5<br/>samples = 6<br/>value = [0, 0, 3, 0, 3]<br/>class = Audio>, fillcolor="#ffffff"] ;
685 -> 689 ;
690 [label=<gini = 0.375<br/>samples = 4<br/>value = [0, 0, 3, 0, 1]<br/>class = Audio>, fillcolor="#7beed8"] ;
689 -> 690 ;
691 [label=<gini = 0.0<br/>samples = 2<br/>value = [0, 0, 0, 0, 2]<br/>class = Other>, fillcolor="#e539c0"] ;
689 -> 691 ;
692 [label=<Frame Length &le; 60.0<br/>gini = 0.473<br/>samples = 13<br/>value = [0, 0, 8, 0, 5]<br/>class = Audio>, fillcolor="#b5f5e9"] ;
684 -> 692 ;
693 [label=<gini = 0.0<br/>samples = 6<br/>value = [0, 0, 6, 0, 0]<br/>class = Audio>, fillcolor="#39e5c5"] ;
692 -> 693 ;
694 [label=<Frame Length &le; 1499.0<br/>gini = 0.408<br/>samples = 7<br/>value = [0, 0, 2, 0, 5]<br/>class = Other>, fillcolor="#ef88d9"] ;
692 -> 694 ;
695 [label=<gini = 0.278<br/>samples = 6<br/>value = [0, 0, 1, 0, 5]<br/>class = Other>, fillcolor="#ea61cd"] ;
694 -> 695 ;
696 [label=<gini = 0.0<br/>samples = 1<br/>value = [0, 0, 1, 0, 0]<br/>class = Audio>, fillcolor="#39e5c5"] ;
694 -> 696 ;
697 [label=<TCP Dst Port &le; 2843.5<br/>gini = 0.471<br/>samples = 79<br/>value = [0, 0, 0, 30, 49]<br/>class = Other>, fillcolor="#f5b2e7"] ;
683 -> 697 ;
698 [label=<gini = 0.0<br/>samples = 30<br/>value = [0, 0, 0, 30, 0]<br/>class = Video>, fillcolor="#3c39e5"] ;
697 -> 698 ;
699 [label=<gini = 0.0<br/>samples = 49<br/>value = [0, 0, 0, 0, 49]<br/>class = Other>, fillcolor="#e539c0"] ;
697 -> 699 ;
700 [label=<Frame Length &le; 367.5<br/>gini = 0.018<br/>samples = 547<br/>value = [0, 0, 5, 0, 542]<br/>class = Other>, fillcolor="#e53bc1"] ;
682 -> 700 ;
701 [label=<Frame Length &le; 92.0<br/>gini = 0.008<br/>samples = 516<br/>value = [0, 0, 2, 0, 514]<br/>class = Other>, fillcolor="#e53ac0"] ;
700 -> 701 ;
702 [label=<TCP Src Port &le; 50371.5<br/>gini = 0.124<br/>samples = 15<br/>value = [0, 0, 1, 0, 14]<br/>class = Other>, fillcolor="#e747c4"] ;
701 -> 702 ;
703 [label=<gini = 0.0<br/>samples = 13<br/>value = [0, 0, 0, 0, 13]<br/>class = Other>, fillcolor="#e539c0"] ;
702 -> 703 ;
