digraph Tree {
node [shape=box, style="filled, rounded", color="black", fontname=helvetica] ;
edge [fontname=helvetica] ;
0 [label=<TCP Src Port &le; 38279.0<br/>gini = 0.504<br/>samples = 232032<br/>value = [18283, 1893, 7752, 49781, 154323]<br/>class = Other>, fillcolor="#f08ddb"] ;
1 [label=<UDP Src Port &le; 33849.5<br/>gini = 0.34<br/>samples = 162941<br/>value = [11957, 1875, 4469, 13598, 131042]<br/>class = Other>, fillcolor="#eb63cd"] ;
0 -> 1 [labeldistance=2.5, labelangle=45, headlabel="True"] ;
2 [label=<TCP Src Port &le; 3067.5<br/>gini = 0.227<br/>samples = 144720<br/>value = [11957, 1873, 2044, 2203, 126643]<br/>class = Other>, fillcolor="#e954c9"] ;
1 -> 2 ;
3 [label=<IP Protocol_1 &le; 0.5<br/>gini = 0.12<br/>samples = 124877<br/>value = [2950, 1587, 1458, 1789, 117093]<br/>class = Other>, fillcolor="#e746c4"] ;
2 -> 3 ;
4 [label=<Ethernet Type &le; 34741.5<br/>gini = 0.074<br/>samples = 117897<br/>value = [1049, 1587, 68, 1786, 113407]<br/>class = Other>, fillcolor="#e641c2"] ;
3 -> 4 ;
5 [label=<UDP Src Port &le; 1843.0<br/>gini = 0.061<br/>samples = 117067<br/>value = [1049, 763, 68, 1786, 113401]<br/>class = Other>, fillcolor="#e63fc2"] ;
4 -> 5 ;
6 [label=<IP Protocol_2 &le; 0.5<br/>gini = 0.026<br/>samples = 112575<br/>value = [0, 721, 23, 711, 111120]<br/>class = Other>, fillcolor="#e53cc1"] ;
5 -> 6 ;
7 [label=<Ethernet Type &le; 1023.5<br/>gini = 0.017<br/>samples = 111778<br/>value = [0, 721, 0, 221, 110836]<br/>class = Other>, fillcolor="#e53bc1"] ;
6 -> 7 ;
8 [label=<gini = 0.0<br/>samples = 124<br/>value = [0, 124, 0, 0, 0]<br/>class = Sensor>, fillcolor="#7be539"] ;
7 -> 8 ;
9 [label=<IP Protocol_17 &le; 0.5<br/>gini = 0.015<br/>samples = 111654<br/>value = [0, 597, 0, 221, 110836]<br/>class = Other>, fillcolor="#e53ac0"] ;
7 -> 9 ;
10 [label=<gini = 0.0<br/>samples = 101869<br/>value = [0, 0, 0, 0, 101869]<br/>class = Other>, fillcolor="#e539c0"] ;
9 -> 10 ;
11 [label=<UDP Dst Port &le; 67.5<br/>gini = 0.156<br/>samples = 9785<br/>value = [0, 597, 0, 221, 8967]<br/>class = Other>, fillcolor="#e74bc6"] ;
9 -> 11 ;
12 [label=<IPv4 Flags_0 &le; 0.5<br/>gini = 0.476<br/>samples = 884<br/>value = [0, 597, 0, 221, 66]<br/>class = Sensor>, fillcolor="#b4f08f"] ;
11 -> 12 ;
13 [label=<UDP Src Port &le; 33.5<br/>gini = 0.051<br/>samples = 227<br/>value = [0, 0, 0, 221, 6]<br/>class = Video>, fillcolor="#413ee6"] ;
12 -> 13 ;
14 [label=<gini = 0.0<br/>samples = 217<br/>value = [0, 0, 0, 217, 0]<br/>class = Video>, fillcolor="#3c39e5"] ;
13 -> 14 ;
15 [label=<Frame Length &le; 349.5<br/>gini = 0.48<br/>samples = 10<br/>value = [0, 0, 0, 4, 6]<br/>class = Other>, fillcolor="#f6bdea"] ;
13 -> 15 ;
16 [label=<Frame Length &le; 202.5<br/>gini = 0.444<br/>samples = 6<br/>value = [0, 0, 0, 4, 2]<br/>class = Video>, fillcolor="#9e9cf2"] ;
15 -> 16 ;
17 [label=<gini = 0.0<br/>samples = 2<br/>value = [0, 0, 0, 0, 2]<br/>class = Other>, fillcolor="#e539c0"] ;
16 -> 17 ;
18 [label=<gini = 0.0<br/>samples = 4<br/>value = [0, 0, 0, 4, 0]<br/>class = Video>, fillcolor="#3c39e5"] ;
16 -> 18 ;
19 [label=<gini = 0.0<br/>samples = 4<br/>value = [0, 0, 0, 0, 4]<br/>class = Other>, fillcolor="#e539c0"] ;
15 -> 19 ;
20 [label=<Frame Length &le; 347.0<br/>gini = 0.166<br/>samples = 657<br/>value = [0, 597, 0, 0, 60]<br/>class = Sensor>, fillcolor="#88e84d"] ;
12 -> 20 ;
21 [label=<gini = 0.0<br/>samples = 57<br/>value = [0, 0, 0, 0, 57]<br/>class = Other>, fillcolor="#e539c0"] ;
20 -> 21 ;
22 [label=<Frame Length &le; 353.0<br/>gini = 0.01<br/>samples = 600<br/>value = [0, 597, 0, 0, 3]<br/>class = Sensor>, fillcolor="#7ce53a"] ;
20 -> 22 ;
23 [label=<gini = 0.0<br/>samples = 597<br/>value = [0, 597, 0, 0, 0]<br/>class = Sensor>, fillcolor="#7be539"] ;
22 -> 23 ;
24 [label=<gini = 0.0<br/>samples = 3<br/>value = [0, 0, 0, 0, 3]<br/>class = Other>, fillcolor="#e539c0"] ;
22 -> 24 ;
25 [label=<gini = 0.0<br/>samples = 8901<br/>value = [0, 0, 0, 0, 8901]<br/>class = Other>, fillcolor="#e539c0"] ;
11 -> 25 ;
26 [label=<IPv4 Flags_0 &le; 0.5<br/>gini = 0.494<br/>samples = 797<br/>value = [0, 0, 23, 490, 284]<br/>class = Video>, fillcolor="#b1aff5"] ;
6 -> 26 ;
27 [label=<Frame Length &le; 50.0<br/>gini = 0.086<br/>samples = 513<br/>value = [0, 0, 23, 490, 0]<br/>class = Video>, fillcolor="#4542e6"] ;
26 -> 27 ;
28 [label=<gini = 0.0<br/>samples = 490<br/>value = [0, 0, 0, 490, 0]<br/>class = Video>, fillcolor="#3c39e5"] ;
27 -> 28 ;
29 [label=<gini = 0.0<br/>samples = 23<br/>value = [0, 0, 23, 0, 0]<br/>class = Audio>, fillcolor="#39e5c5"] ;
27 -> 29 ;
30 [label=<gini = 0.0<br/>samples = 284<br/>value = [0, 0, 0, 0, 284]<br/>class = Other>, fillcolor="#e539c0"] ;
26 -> 30 ;
31 [label=<UDP Src Port &le; 3723.0<br/>gini = 0.63<br/>samples = 4492<br/>value = [1049, 42, 45, 1075, 2281]<br/>class = Other>, fillcolor="#f6b9e9"] ;
5 -> 31 ;
32 [label=<UDP Src Port &le; 2989.0<br/>gini = 0.613<br/>samples = 2137<br/>value = [1048, 0, 0, 740, 349]<br/>class = Smart Static>, fillcolor="#f9e3d3"] ;
31 -> 32 ;
33 [label=<UDP Dst Port &le; 2561.0<br/>gini = 0.469<br/>samples = 792<br/>value = [0, 0, 0, 494, 298]<br/>class = Video>, fillcolor="#b2b0f5"] ;
32 -> 33 ;
34 [label=<gini = 0.0<br/>samples = 258<br/>value = [0, 0, 0, 0, 258]<br/>class = Other>, fillcolor="#e539c0"] ;
33 -> 34 ;
35 [label=<IPv4 Flags_0 &le; 0.5<br/>gini = 0.139<br/>samples = 534<br/>value = [0, 0, 0, 494, 40]<br/>class = Video>, fillcolor="#4c49e7"] ;
33 -> 35 ;
36 [label=<gini = 0.0<br/>samples = 494<br/>value = [0, 0, 0, 494, 0]<br/>class = Video>, fillcolor="#3c39e5"] ;
35 -> 36 ;
37 [label=<gini = 0.0<br/>samples = 40<br/>value = [0, 0, 0, 0, 40]<br/>class = Other>, fillcolor="#e539c0"] ;
35 -> 37 ;
38 [label=<UDP Src Port &le; 3402.5<br/>gini = 0.358<br/>samples = 1345<br/>value = [1048, 0, 0, 246, 51]<br/>class = Smart Static>, fillcolor="#eca36f"] ;
32 -> 38 ;
39 [label=<gini = 0.0<br/>samples = 1048<br/>value = [1048, 0, 0, 0, 0]<br/>class = Smart Static>, fillcolor="#e58139"] ;
38 -> 39 ;
40 [label=<IPv4 Flags_0 &le; 0.5<br/>gini = 0.284<br/>samples = 297<br/>value = [0, 0, 0, 246, 51]<br/>class = Video>, fillcolor="#6462ea"] ;
38 -> 40 ;
41 [label=<gini = 0.0<br/>samples = 51<br/>value = [0, 0, 0, 0, 51]<br/>class = Other>, fillcolor="#e539c0"] ;
40 -> 41 ;
42 [label=<gini = 0.0<br/>samples = 246<br/>value = [0, 0, 0, 246, 0]<br/>class = Video>, fillcolor="#3c39e5"] ;
40 -> 42 ;
43 [label=<IPv4 Flags_0 &le; 0.5<br/>gini = 0.306<br/>samples = 2355<br/>value = [1, 42, 45, 335, 1932]<br/>class = Other>, fillcolor="#ea62cd"] ;
31 -> 43 ;
44 [label=<Frame Length &le; 74.5<br/>gini = 0.519<br/>samples = 925<br/>value = [0, 0, 45, 335, 545]<br/>class = Other>, fillcolor="#f6b9e9"] ;
43 -> 44 ;
45 [label=<UDP Src Port &le; 16589.5<br/>gini = 0.053<br/>samples = 328<br/>value = [0, 0, 0, 319, 9]<br/>class = Video>, fillcolor="#423fe6"] ;
44 -> 45 ;
46 [label=<gini = 0.0<br/>samples = 6<br/>value = [0, 0, 0, 0, 6]<br/>class = Other>, fillcolor="#e539c0"] ;
45 -> 46 ;
47 [label=<UDP Src Port &le; 33758.5<br/>gini = 0.018<br/>samples = 322<br/>value = [0, 0, 0, 319, 3]<br/>class = Video>, fillcolor="#3e3be5"] ;
45 -> 47 ;
48 [label=<UDP Src Port &le; 17448.0<br/>gini = 0.012<br/>samples = 321<br/>value = [0, 0, 0, 319, 2]<br/>class = Video>, fillcolor="#3d3ae5"] ;
47 -> 48 ;
49 [label=<gini = 0.0<br/>samples = 310<br/>value = [0, 0, 0, 310, 0]<br/>class = Video>, fillcolor="#3c39e5"] ;
48 -> 49 ;
50 [label=<UDP Src Port &le; 30412.0<br/>gini = 0.298<br/>samples = 11<br/>value = [0, 0, 0, 9, 2]<br/>class = Video>, fillcolor="#6765eb"] ;
48 -> 50 ;
51 [label=<gini = 0.0<br/>samples = 2<br/>value = [0, 0, 0, 0, 2]<br/>class = Other>, fillcolor="#e539c0"] ;
50 -> 51 ;
52 [label=<gini = 0.0<br/>samples = 9<br/>value = [0, 0, 0, 9, 0]<br/>class = Video>, fillcolor="#3c39e5"] ;
50 -> 52 ;
53 [label=<gini = 0.0<br/>samples = 1<br/>value = [0, 0, 0, 0, 1]<br/>class = Other>, fillcolor="#e539c0"] ;
47 -> 53 ;
54 [label=<UDP Dst Port &le; 283.0<br/>gini = 0.188<br/>samples = 597<br/>value = [0, 0, 45, 16, 536]<br/>class = Other>, fillcolor="#e84fc7"] ;
44 -> 54 ;
55 [label=<UDP Src Port &le; 32729.0<br/>gini = 0.557<br/>samples = 141<br/>value = [0, 0, 45, 15, 81]<br/>class = Other>, fillcolor="#f5b5e7"] ;
54 -> 55 ;
56 [label=<Frame Length &le; 79.5<br/>gini = 0.178<br/>samples = 71<br/>value = [0, 0, 0, 7, 64]<br/>class = Other>, fillcolor="#e84fc7"] ;
55 -> 56 ;
57 [label=<Frame Length &le; 77.5<br/>gini = 0.475<br/>samples = 18<br/>value = [0, 0, 0, 7, 11]<br/>class = Other>, fillcolor="#f6b7e8"] ;
56 -> 57 ;
58 [label=<gini = 0.0<br/>samples = 7<br/>value = [0, 0, 0, 0, 7]<br/>class = Other>, fillcolor="#e539c0"] ;
57 -> 58 ;
59 [label=<UDP Src Port &le; 30788.5<br/>gini = 0.463<br/>samples = 11<br/>value = [0, 0, 0, 7, 4]<br/>class = Video>, fillcolor="#abaaf4"] ;
57 -> 59 ;
60 [label=<UDP Src Port &le; 14560.0<br/>gini = 0.346<br/>samples = 9<br/>value = [0, 0, 0, 7, 2]<br/>class = Video>, fillcolor="#7472ec"] ;
59 -> 60 ;
61 [label=<gini = 0.0<br/>samples = 3<br/>value = [0, 0, 0, 3, 0]<br/>class = Video>, fillcolor="#3c39e5"] ;
60 -> 61 ;
62 [label=<UDP Src Port &le; 21068.0<br/>gini = 0.444<br/>samples = 6<br/>value = [0, 0, 0, 4, 2]<br/>class = Video>, fillcolor="#9e9cf2"] ;
60 -> 62 ;
63 [label=<UDP Src Port &le; 15276.0<br/>gini = 0.444<br/>samples = 3<br/>value = [0, 0, 0, 1, 2]<br/>class = Other>, fillcolor="#f29ce0"] ;
62 -> 63 ;
64 [label=<gini = 0.0<br/>samples = 1<br/>value = [0, 0, 0, 0, 1]<br/>class = Other>, fillcolor="#e539c0"] ;
63 -> 64 ;
65 [label=<Frame Length &le; 78.5<br/>gini = 0.5<br/>samples = 2<br/>value = [0, 0, 0, 1, 1]<br/>class = Video>, fillcolor="#ffffff"] ;
63 -> 65 ;
66 [label=<gini = 0.0<br/>samples = 1<br/>value = [0, 0, 0, 1, 0]<br/>class = Video>, fillcolor="#3c39e5"] ;
65 -> 66 ;
67 [label=<gini = 0.0<br/>samples = 1<br/>value = [0, 0, 0, 0, 1]<br/>class = Other>, fillcolor="#e539c0"] ;
65 -> 67 ;
68 [label=<gini = 0.0<br/>samples = 3<br/>value = [0, 0, 0, 3, 0]<br/>class = Video>, fillcolor="#3c39e5"] ;
62 -> 68 ;
69 [label=<gini = 0.0<br/>samples = 2<br/>value = [0, 0, 0, 0, 2]<br/>class = Other>, fillcolor="#e539c0"] ;
59 -> 69 ;
70 [label=<gini = 0.0<br/>samples = 53<br/>value = [0, 0, 0, 0, 53]<br/>class = Other>, fillcolor="#e539c0"] ;
56 -> 70 ;
71 [label=<Frame Length &le; 75.5<br/>gini = 0.515<br/>samples = 70<br/>value = [0, 0, 45, 8, 17]<br/>class = Audio>, fillcolor="#96f1e0"] ;
55 -> 71 ;
72 [label=<UDP Src Port &le; 33005.0<br/>gini = 0.087<br/>samples = 22<br/>value = [0, 0, 21, 0, 1]<br/>class = Audio>, fillcolor="#42e6c8"] ;
71 -> 72 ;
73 [label=<UDP Src Port &le; 32945.5<br/>gini = 0.278<br/>samples = 6<br/>value = [0, 0, 5, 0, 1]<br/>class = Audio>, fillcolor="#61ead1"] ;
72 -> 73 ;
74 [label=<gini = 0.0<br/>samples = 5<br/>value = [0, 0, 5, 0, 0]<br/>class = Audio>, fillcolor="#39e5c5"] ;
73 -> 74 ;
75 [label=<gini = 0.0<br/>samples = 1<br/>value = [0, 0, 0, 0, 1]<br/>class = Other>, fillcolor="#e539c0"] ;
73 -> 75 ;
76 [label=<gini = 0.0<br/>samples = 16<br/>value = [0, 0, 16, 0, 0]<br/>class = Audio>, fillcolor="#39e5c5"] ;
72 -> 76 ;
77 [label=<Frame Length &le; 87.0<br/>gini = 0.611<br/>samples = 48<br/>value = [0, 0, 24, 8, 16]<br/>class = Audio>, fillcolor="#cef8f0"] ;
71 -> 77 ;
78 [label=<Frame Length &le; 82.5<br/>gini = 0.472<br/>samples = 21<br/>value = [0, 0, 0, 8, 13]<br/>class = Other>, fillcolor="#f5b3e7"] ;
77 -> 78 ;
79 [label=<gini = 0.0<br/>samples = 13<br/>value = [0, 0, 0, 0, 13]<br/>class = Other>, fillcolor="#e539c0"] ;
78 -> 79 ;
80 [label=<gini = 0.0<br/>samples = 8<br/>value = [0, 0, 0, 8, 0]<br/>class = Video>, fillcolor="#3c39e5"] ;
78 -> 80 ;
81 [label=<UDP Src Port &le; 33680.0<br/>gini = 0.198<br/>samples = 27<br/>value = [0, 0, 24, 0, 3]<br/>class = Audio>, fillcolor="#52e8cc"] ;
77 -> 81 ;
82 [label=<UDP Src Port &le; 33348.0<br/>gini = 0.08<br/>samples = 24<br/>value = [0, 0, 23, 0, 1]<br/>class = Audio>, fillcolor="#42e6c8"] ;
81 -> 82 ;
83 [label=<UDP Src Port &le; 33324.5<br/>gini = 0.153<br/>samples = 12<br/>value = [0, 0, 11, 0, 1]<br/>class = Audio>, fillcolor="#4be7ca"] ;
82 -> 83 ;
84 [label=<gini = 0.0<br/>samples = 11<br/>value = [0, 0, 11, 0, 0]<br/>class = Audio>, fillcolor="#39e5c5"] ;
83 -> 84 ;
85 [label=<gini = 0.0<br/>samples = 1<br/>value = [0, 0, 0, 0, 1]<br/>class = Other>, fillcolor="#e539c0"] ;
83 -> 85 ;
86 [label=<gini = 0.0<br/>samples = 12<br/>value = [0, 0, 12, 0, 0]<br/>class = Audio>, fillcolor="#39e5c5"] ;
82 -> 86 ;
87 [label=<IPv6 Next Header_-1 &le; 0.5<br/>gini = 0.444<br/>samples = 3<br/>value = [0, 0, 1, 0, 2]<br/>class = Other>, fillcolor="#f29ce0"] ;
81 -> 87 ;
88 [label=<gini = 0.0<br/>samples = 1<br/>value = [0, 0, 0, 0, 1]<br/>class = Other>, fillcolor="#e539c0"] ;
87 -> 88 ;
89 [label=<UDP Src Port &le; 33713.5<br/>gini = 0.5<br/>samples = 2<br/>value = [0, 0, 1, 0, 1]<br/>class = Audio>, fillcolor="#ffffff"] ;
87 -> 89 ;
90 [label=<gini = 0.0<br/>samples = 1<br/>value = [0, 0, 1, 0, 0]<br/>class = Audio>, fillcolor="#39e5c5"] ;
89 -> 90 ;
91 [label=<gini = 0.0<br/>samples = 1<br/>value = [0, 0, 0, 0, 1]<br/>class = Other>, fillcolor="#e539c0"] ;
89 -> 91 ;
92 [label=<UDP Src Port &le; 6176.5<br/>gini = 0.004<br/>samples = 456<br/>value = [0, 0, 0, 1, 455]<br/>class = Other>, fillcolor="#e539c0"] ;
54 -> 92 ;
93 [label=<Frame Length &le; 179.5<br/>gini = 0.245<br/>samples = 7<br/>value = [0, 0, 0, 1, 6]<br/>class = Other>, fillcolor="#e95acb"] ;
92 -> 93 ;
94 [label=<gini = 0.0<br/>samples = 5<br/>value = [0, 0, 0, 0, 5]<br/>class = Other>, fillcolor="#e539c0"] ;
93 -> 94 ;
95 [label=<IPv6 Next Header_-1 &le; 0.5<br/>gini = 0.5<br/>samples = 2<br/>value = [0, 0, 0, 1, 1]<br/>class = Video>, fillcolor="#ffffff"] ;
93 -> 95 ;
96 [label=<gini = 0.0<br/>samples = 1<br/>value = [0, 0, 0, 0, 1]<br/>class = Other>, fillcolor="#e539c0"] ;
95 -> 96 ;
97 [label=<gini = 0.0<br/>samples = 1<br/>value = [0, 0, 0, 1, 0]<br/>class = Video>, fillcolor="#3c39e5"] ;
95 -> 97 ;
98 [label=<gini = 0.0<br/>samples = 449<br/>value = [0, 0, 0, 0, 449]<br/>class = Other>, fillcolor="#e539c0"] ;
92 -> 98 ;
99 [label=<UDP Dst Port &le; 88.0<br/>gini = 0.058<br/>samples = 1430<br/>value = [1, 42, 0, 0, 1387]<br/>class = Other>, fillcolor="#e63fc2"] ;
43 -> 99 ;
100 [label=<UDP Src Port &le; 16128.0<br/>gini = 0.509<br/>samples = 78<br/>value = [1, 42, 0, 0, 35]<br/>class = Sensor>, fillcolor="#eafbdf"] ;
99 -> 100 ;
101 [label=<Frame Length &le; 75.0<br/>gini = 0.054<br/>samples = 36<br/>value = [1, 0, 0, 0, 35]<br/>class = Other>, fillcolor="#e63fc2"] ;
100 -> 101 ;
102 [label=<gini = 0.0<br/>samples = 35<br/>value = [0, 0, 0, 0, 35]<br/>class = Other>, fillcolor="#e539c0"] ;
101 -> 102 ;
103 [label=<gini = 0.0<br/>samples = 1<br/>value = [1, 0, 0, 0, 0]<br/>class = Smart Static>, fillcolor="#e58139"] ;
101 -> 103 ;
104 [label=<gini = 0.0<br/>samples = 42<br/>value = [0, 42, 0, 0, 0]<br/>class = Sensor>, fillcolor="#7be539"] ;
100 -> 104 ;
105 [label=<gini = 0.0<br/>samples = 1352<br/>value = [0, 0, 0, 0, 1352]<br/>class = Other>, fillcolor="#e539c0"] ;
99 -> 105 ;
106 [label=<Frame Length &le; 75.5<br/>gini = 0.014<br/>samples = 830<br/>value = [0, 824, 0, 0, 6]<br/>class = Sensor>, fillcolor="#7ce53a"] ;
4 -> 106 ;
107 [label=<gini = 0.0<br/>samples = 1<br/>value = [0, 0, 0, 0, 1]<br/>class = Other>, fillcolor="#e539c0"] ;
106 -> 107 ;
108 [label=<Frame Length &le; 124.0<br/>gini = 0.012<br/>samples = 829<br/>value = [0, 824, 0, 0, 5]<br/>class = Sensor>, fillcolor="#7ce53a"] ;
106 -> 108 ;
109 [label=<gini = 0.0<br/>samples = 693<br/>value = [0, 693, 0, 0, 0]<br/>class = Sensor>, fillcolor="#7be539"] ;
108 -> 109 ;
110 [label=<Frame Length &le; 137.0<br/>gini = 0.071<br/>samples = 136<br/>value = [0, 131, 0, 0, 5]<br/>class = Sensor>, fillcolor="#80e641"] ;
108 -> 110 ;
111 [label=<gini = 0.0<br/>samples = 5<br/>value = [0, 0, 0, 0, 5]<br/>class = Other>, fillcolor="#e539c0"] ;
110 -> 111 ;
112 [label=<gini = 0.0<br/>samples = 131<br/>value = [0, 131, 0, 0, 0]<br/>class = Sensor>, fillcolor="#7be539"] ;
110 -> 112 ;
113 [label=<IPv4 Flags_0 &le; 0.5<br/>gini = 0.607<br/>samples = 6980<br/>value = [1901, 0, 1390, 3, 3686]<br/>class = Other>, fillcolor="#f6b9e9"] ;
3 -> 113 ;
114 [label=<Frame Length &le; 108.0<br/>gini = 0.512<br/>samples = 3372<br/>value = [1901, 0, 1390, 0, 81]<br/>class = Smart Static>, fillcolor="#f8dfcc"] ;
113 -> 114 ;
115 [label=<Frame Length &le; 80.0<br/>gini = 0.104<br/>samples = 1471<br/>value = [0, 0, 1390, 0, 81]<br/>class = Audio>, fillcolor="#45e7c8"] ;
114 -> 115 ;
116 [label=<gini = 0.0<br/>samples = 81<br/>value = [0, 0, 0, 0, 81]<br/>class = Other>, fillcolor="#e539c0"] ;
115 -> 116 ;
117 [label=<gini = 0.0<br/>samples = 1390<br/>value = [0, 0, 1390, 0, 0]<br/>class = Audio>, fillcolor="#39e5c5"] ;
115 -> 117 ;
118 [label=<gini = 0.0<br/>samples = 1901<br/>value = [1901, 0, 0, 0, 0]<br/>class = Smart Static>, fillcolor="#e58139"] ;
114 -> 118 ;
119 [label=<Frame Length &le; 78.5<br/>gini = 0.002<br/>samples = 3608<br/>value = [0, 0, 0, 3, 3605]<br/>class = Other>, fillcolor="#e539c0"] ;
113 -> 119 ;
120 [label=<gini = 0.0<br/>samples = 1<br/>value = [0, 0, 0, 1, 0]<br/>class = Video>, fillcolor="#3c39e5"] ;
119 -> 120 ;
121 [label=<UDP Dst Port &le; 40162.5<br/>gini = 0.001<br/>samples = 3607<br/>value = [0, 0, 0, 2, 3605]<br/>class = Other>, fillcolor="#e539c0"] ;
119 -> 121 ;
122 [label=<gini = 0.0<br/>samples = 3598<br/>value = [0, 0, 0, 0, 3598]<br/>class = Other>, fillcolor="#e539c0"] ;
121 -> 122 ;
123 [label=<UDP Src Port &le; 4101.0<br/>gini = 0.346<br/>samples = 9<br/>value = [0, 0, 0, 2, 7]<br/>class = Other>, fillcolor="#ec72d2"] ;
121 -> 123 ;
124 [label=<gini = 0.0<br/>samples = 7<br/>value = [0, 0, 0, 0, 7]<br/>class = Other>, fillcolor="#e539c0"] ;
123 -> 124 ;
125 [label=<gini = 0.0<br/>samples = 2<br/>value = [0, 0, 0, 2, 0]<br/>class = Video>, fillcolor="#3c39e5"] ;
123 -> 125 ;
126 [label=<TCP Src Port &le; 5110.0<br/>gini = 0.561<br/>samples = 19843<br/>value = [9007, 286, 586, 414, 9550]<br/>class = Other>, fillcolor="#fef5fc"] ;
2 -> 126 ;
127 [label=<TCP Dst Port &le; 51794.0<br/>gini = 0.098<br/>samples = 9499<br/>value = [9007, 0, 0, 0, 492]<br/>class = Smart Static>, fillcolor="#e68844"] ;
126 -> 127 ;
128 [label=<TCP Dst Port &le; 6365.0<br/>gini = 0.034<br/>samples = 9166<br/>value = [9007, 0, 0, 0, 159]<br/>class = Smart Static>, fillcolor="#e5833c"] ;
127 -> 128 ;
129 [label=<TCP Dst Port &le; 3778.5<br/>gini = 0.289<br/>samples = 908<br/>value = [749, 0, 0, 0, 159]<br/>class = Smart Static>, fillcolor="#eb9c63"] ;
128 -> 129 ;
130 [label=<Frame Length &le; 130.0<br/>gini = 0.139<br/>samples = 810<br/>value = [749, 0, 0, 0, 61]<br/>class = Smart Static>, fillcolor="#e78b49"] ;
129 -> 130 ;
131 [label=<TCP Src Port &le; 3489.5<br/>gini = 0.007<br/>samples = 556<br/>value = [554, 0, 0, 0, 2]<br/>class = Smart Static>, fillcolor="#e5813a"] ;
130 -> 131 ;
132 [label=<TCP Src Port &le; 3441.0<br/>gini = 0.026<br/>samples = 153<br/>value = [151, 0, 0, 0, 2]<br/>class = Smart Static>, fillcolor="#e5833c"] ;
131 -> 132 ;
133 [label=<gini = 0.0<br/>samples = 151<br/>value = [151, 0, 0, 0, 0]<br/>class = Smart Static>, fillcolor="#e58139"] ;
132 -> 133 ;
134 [label=<gini = 0.0<br/>samples = 2<br/>value = [0, 0, 0, 0, 2]<br/>class = Other>, fillcolor="#e539c0"] ;
132 -> 134 ;
135 [label=<gini = 0.0<br/>samples = 403<br/>value = [403, 0, 0, 0, 0]<br/>class = Smart Static>, fillcolor="#e58139"] ;
131 -> 135 ;
136 [label=<Frame Length &le; 180.0<br/>gini = 0.357<br/>samples = 254<br/>value = [195, 0, 0, 0, 59]<br/>class = Smart Static>, fillcolor="#eda775"] ;
130 -> 136 ;
137 [label=<gini = 0.0<br/>samples = 59<br/>value = [0, 0, 0, 0, 59]<br/>class = Other>, fillcolor="#e539c0"] ;
136 -> 137 ;
138 [label=<gini = 0.0<br/>samples = 195<br/>value = [195, 0, 0, 0, 0]<br/>class = Smart Static>, fillcolor="#e58139"] ;
136 -> 138 ;
139 [label=<gini = 0.0<br/>samples = 98<br/>value = [0, 0, 0, 0, 98]<br/>class = Other>, fillcolor="#e539c0"] ;
129 -> 139 ;
140 [label=<gini = 0.0<br/>samples = 8258<br/>value = [8258, 0, 0, 0, 0]<br/>class = Smart Static>, fillcolor="#e58139"] ;
128 -> 140 ;
141 [label=<gini = 0.0<br/>samples = 333<br/>value = [0, 0, 0, 0, 333]<br/>class = Other>, fillcolor="#e539c0"] ;
127 -> 141 ;
142 [label=<TCP Dst Port &le; 729.0<br/>gini = 0.228<br/>samples = 10344<br/>value = [0, 286, 586, 414, 9058]<br/>class = Other>, fillcolor="#e853c8"] ;
126 -> 142 ;
143 [label=<Frame Length &le; 60.0<br/>gini = 0.538<br/>samples = 1456<br/>value = [0, 0, 586, 76, 794]<br/>class = Other>, fillcolor="#f9d0f0"] ;
142 -> 143 ;
144 [label=<TCP Src Port &le; 34027.0<br/>gini = 0.44<br/>samples = 261<br/>value = [0, 0, 187, 22, 52]<br/>class = Audio>, fillcolor="#7feeda"] ;
143 -> 144 ;
145 [label=<TCP Dst Port &le; 261.5<br/>gini = 0.411<br/>samples = 43<br/>value = [0, 0, 4, 7, 32]<br/>class = Other>, fillcolor="#ed76d3"] ;
144 -> 145 ;
146 [label=<gini = 0.0<br/>samples = 7<br/>value = [0, 0, 0, 7, 0]<br/>class = Video>, fillcolor="#3c39e5"] ;
145 -> 146 ;
147 [label=<TCP Src Port &le; 33553.0<br/>gini = 0.198<br/>samples = 36<br/>value = [0, 0, 4, 0, 32]<br/>class = Other>, fillcolor="#e852c8"] ;
145 -> 147 ;
148 [label=<TCP Flags_16 &le; 0.5<br/>gini = 0.32<br/>samples = 5<br/>value = [0, 0, 4, 0, 1]<br/>class = Audio>, fillcolor="#6aecd4"] ;
147 -> 148 ;
149 [label=<gini = 0.0<br/>samples = 1<br/>value = [0, 0, 0, 0, 1]<br/>class = Other>, fillcolor="#e539c0"] ;
148 -> 149 ;
150 [label=<gini = 0.0<br/>samples = 4<br/>value = [0, 0, 4, 0, 0]<br/>class = Audio>, fillcolor="#39e5c5"] ;
148 -> 150 ;
151 [label=<gini = 0.0<br/>samples = 31<br/>value = [0, 0, 0, 0, 31]<br/>class = Other>, fillcolor="#e539c0"] ;
147 -> 151 ;
152 [label=<TCP Dst Port &le; 261.5<br/>gini = 0.282<br/>samples = 218<br/>value = [0, 0, 183, 15, 20]<br/>class = Audio>, fillcolor="#5ceacf"] ;
144 -> 152 ;
153 [label=<gini = 0.0<br/>samples = 15<br/>value = [0, 0, 0, 15, 0]<br/>class = Video>, fillcolor="#3c39e5"] ;
152 -> 153 ;
154 [label=<TCP Flags_4 &le; 0.5<br/>gini = 0.178<br/>samples = 203<br/>value = [0, 0, 183, 0, 20]<br/>class = Audio>, fillcolor="#4fe8cb"] ;
152 -> 154 ;
155 [label=<TCP Src Port &le; 34716.0<br/>gini = 0.099<br/>samples = 192<br/>value = [0, 0, 182, 0, 10]<br/>class = Audio>, fillcolor="#44e6c8"] ;
154 -> 155 ;
156 [label=<gini = 0.0<br/>samples = 97<br/>value = [0, 0, 97, 0, 0]<br/>class = Audio>, fillcolor="#39e5c5"] ;
155 -> 156 ;
157 [label=<TCP Src Port &le; 36274.5<br/>gini = 0.188<br/>samples = 95<br/>value = [0, 0, 85, 0, 10]<br/>class = Audio>, fillcolor="#50e8cc"] ;
155 -> 157 ;
158 [label=<TCP Src Port &le; 35529.5<br/>gini = 0.494<br/>samples = 18<br/>value = [0, 0, 8, 0, 10]<br/>class = Other>, fillcolor="#fad7f2"] ;
157 -> 158 ;
159 [label=<TCP Src Port &le; 34923.5<br/>gini = 0.245<br/>samples = 7<br/>value = [0, 0, 6, 0, 1]<br/>class = Audio>, fillcolor="#5ae9cf"] ;
158 -> 159 ;
160 [label=<gini = 0.0<br/>samples = 1<br/>value = [0, 0, 0, 0, 1]<br/>class = Other>, fillcolor="#e539c0"] ;
159 -> 160 ;
161 [label=<gini = 0.0<br/>samples = 6<br/>value = [0, 0, 6, 0, 0]<br/>class = Audio>, fillcolor="#39e5c5"] ;
159 -> 161 ;
162 [label=<TCP Src Port &le; 35747.5<br/>gini = 0.298<br/>samples = 11<br/>value = [0, 0, 2, 0, 9]<br/>class = Other>, fillcolor="#eb65ce"] ;
158 -> 162 ;
163 [label=<gini = 0.0<br/>samples = 5<br/>value = [0, 0, 0, 0, 5]<br/>class = Other>, fillcolor="#e539c0"] ;
162 -> 163 ;
164 [label=<TCP Src Port &le; 35990.0<br/>gini = 0.444<br/>samples = 6<br/>value = [0, 0, 2, 0, 4]<br/>class = Other>, fillcolor="#f29ce0"] ;
162 -> 164 ;
165 [label=<gini = 0.0<br/>samples = 2<br/>value = [0, 0, 2, 0, 0]<br/>class = Audio>, fillcolor="#39e5c5"] ;
164 -> 165 ;
166 [label=<gini = 0.0<br/>samples = 4<br/>value = [0, 0, 0, 0, 4]<br/>class = Other>, fillcolor="#e539c0"] ;
164 -> 166 ;
167 [label=<gini = 0.0<br/>samples = 77<br/>value = [0, 0, 77, 0, 0]<br/>class = Audio>, fillcolor="#39e5c5"] ;
157 -> 167 ;
168 [label=<TCP Src Port &le; 36428.0<br/>gini = 0.165<br/>samples = 11<br/>value = [0, 0, 1, 0, 10]<br/>class = Other>, fillcolor="#e84dc6"] ;
154 -> 168 ;
169 [label=<gini = 0.0<br/>samples = 8<br/>value = [0, 0, 0, 0, 8]<br/>class = Other>, fillcolor="#e539c0"] ;
168 -> 169 ;
170 [label=<TCP Src Port &le; 36669.0<br/>gini = 0.444<br/>samples = 3<br/>value = [0, 0, 1, 0, 2]<br/>class = Other>, fillcolor="#f29ce0"] ;
168 -> 170 ;
171 [label=<gini = 0.0<br/>samples = 1<br/>value = [0, 0, 1, 0, 0]<br/>class = Audio>, fillcolor="#39e5c5"] ;
170 -> 171 ;
172 [label=<gini = 0.0<br/>samples = 2<br/>value = [0, 0, 0, 0, 2]<br/>class = Other>, fillcolor="#e539c0"] ;
170 -> 172 ;
173 [label=<TCP Dst Port &le; 454.0<br/>gini = 0.501<br/>samples = 1195<br/>value = [0, 0, 399, 54, 742]<br/>class = Other>, fillcolor="#f4aae4"] ;
143 -> 173 ;
174 [label=<Frame Length &le; 95.5<br/>gini = 0.461<br/>samples = 1148<br/>value = [0, 0, 399, 7, 742]<br/>class = Other>, fillcolor="#f3a4e2"] ;
173 -> 174 ;
175 [label=<Frame Length &le; 90.0<br/>gini = 0.495<br/>samples = 803<br/>value = [0, 0, 347, 3, 453]<br/>class = Other>, fillcolor="#f9d1f0"] ;
174 -> 175 ;
176 [label=<TCP Dst Port &le; 261.5<br/>gini = 0.412<br/>samples = 635<br/>value = [0, 0, 179, 3, 453]<br/>class = Other>, fillcolor="#ef88d9"] ;
175 -> 176 ;
177 [label=<TCP Src Port &le; 33333.0<br/>gini = 0.502<br/>samples = 290<br/>value = [0, 0, 162, 3, 125]<br/>class = Audio>, fillcolor="#d3f9f2"] ;
176 -> 177 ;
178 [label=<TCP Src Port &le; 33051.5<br/>gini = 0.293<br/>samples = 28<br/>value = [0, 0, 5, 0, 23]<br/>class = Other>, fillcolor="#eb64ce"] ;
177 -> 178 ;
179 [label=<TCP Src Port &le; 32996.0<br/>gini = 0.401<br/>samples = 18<br/>value = [0, 0, 5, 0, 13]<br/>class = Other>, fillcolor="#ef85d8"] ;
178 -> 179 ;
180 [label=<TCP Src Port &le; 32919.0<br/>gini = 0.305<br/>samples = 16<br/>value = [0, 0, 3, 0, 13]<br/>class = Other>, fillcolor="#eb67cf"] ;
179 -> 180 ;
181 [label=<TCP Src Port &le; 32856.0<br/>gini = 0.469<br/>samples = 8<br/>value = [0, 0, 3, 0, 5]<br/>class = Other>, fillcolor="#f5b0e6"] ;
180 -> 181 ;
182 [label=<gini = 0.0<br/>samples = 5<br/>value = [0, 0, 0, 0, 5]<br/>class = Other>, fillcolor="#e539c0"] ;
181 -> 182 ;
183 [label=<gini = 0.0<br/>samples = 3<br/>value = [0, 0, 3, 0, 0]<br/>class = Audio>, fillcolor="#39e5c5"] ;
181 -> 183 ;
184 [label=<gini = 0.0<br/>samples = 8<br/>value = [0, 0, 0, 0, 8]<br/>class = Other>, fillcolor="#e539c0"] ;
180 -> 184 ;
185 [label=<gini = 0.0<br/>samples = 2<br/>value = [0, 0, 2, 0, 0]<br/>class = Audio>, fillcolor="#39e5c5"] ;
179 -> 185 ;
186 [label=<gini = 0.0<br/>samples = 10<br/>value = [0, 0, 0, 0, 10]<br/>class = Other>, fillcolor="#e539c0"] ;
178 -> 186 ;
187 [label=<TCP Src Port &le; 36604.0<br/>gini = 0.489<br/>samples = 262<br/>value = [0, 0, 157, 3, 102]<br/>class = Audio>, fillcolor="#bbf6eb"] ;
177 -> 187 ;
188 [label=<TCP Src Port &le; 35476.0<br/>gini = 0.509<br/>samples = 205<br/>value = [0, 0, 112, 3, 90]<br/>class = Audio>, fillcolor="#d9faf4"] ;
187 -> 188 ;
189 [label=<TCP Src Port &le; 34783.0<br/>gini = 0.471<br/>samples = 139<br/>value = [0, 0, 90, 3, 46]<br/>class = Audio>, fillcolor="#a1f3e4"] ;
188 -> 189 ;
190 [label=<TCP Src Port &le; 33491.5<br/>gini = 0.523<br/>samples = 96<br/>value = [0, 0, 52, 3, 41]<br/>class = Audio>, fillcolor="#d7faf3"] ;
189 -> 190 ;
191 [label=<TCP Src Port &le; 33437.5<br/>gini = 0.322<br/>samples = 21<br/>value = [0, 0, 17, 1, 3]<br/>class = Audio>, fillcolor="#65ebd2"] ;
190 -> 191 ;
192 [label=<TCP Src Port &le; 33410.0<br/>gini = 0.444<br/>samples = 9<br/>value = [0, 0, 6, 0, 3]<br/>class = Audio>, fillcolor="#9cf2e2"] ;
191 -> 192 ;
193 [label=<gini = 0.0<br/>samples = 6<br/>value = [0, 0, 6, 0, 0]<br/>class = Audio>, fillcolor="#39e5c5"] ;
192 -> 193 ;
194 [label=<gini = 0.0<br/>samples = 3<br/>value = [0, 0, 0, 0, 3]<br/>class = Other>, fillcolor="#e539c0"] ;
192 -> 194 ;
195 [label=<TCP Src Port &le; 33467.5<br/>gini = 0.153<br/>samples = 12<br/>value = [0, 0, 11, 1, 0]<br/>class = Audio>, fillcolor="#4be7ca"] ;
191 -> 195 ;
196 [label=<gini = 0.0<br/>samples = 10<br/>value = [0, 0, 10, 0, 0]<br/>class = Audio>, fillcolor="#39e5c5"] ;
195 -> 196 ;
197 [label=<Frame Length &le; 70.0<br/>gini = 0.5<br/>samples = 2<br/>value = [0, 0, 1, 1, 0]<br/>class = Audio>, fillcolor="#ffffff"] ;
195 -> 197 ;
198 [label=<gini = 0.0<br/>samples = 1<br/>value = [0, 0, 0, 1, 0]<br/>class = Video>, fillcolor="#3c39e5"] ;
197 -> 198 ;
199 [label=<gini = 0.0<br/>samples = 1<br/>value = [0, 0, 1, 0, 0]<br/>class = Audio>, fillcolor="#39e5c5"] ;
197 -> 199 ;
200 [label=<TCP Src Port &le; 33502.5<br/>gini = 0.525<br/>samples = 75<br/>value = [0, 0, 35, 2, 38]<br/>class = Other>, fillcolor="#fdf0fa"] ;
190 -> 200 ;
201 [label=<gini = 0.0<br/>samples = 9<br/>value = [0, 0, 0, 0, 9]<br/>class = Other>, fillcolor="#e539c0"] ;
200 -> 201 ;
202 [label=<TCP Src Port &le; 34056.0<br/>gini = 0.525<br/>samples = 66<br/>value = [0, 0, 35, 2, 29]<br/>class = Audio>, fillcolor="#dffbf6"] ;
200 -> 202 ;
203 [label=<TCP Src Port &le; 33674.0<br/>gini = 0.462<br/>samples = 26<br/>value = [0, 0, 18, 2, 6]<br/>class = Audio>, fillcolor="#88efdc"] ;
202 -> 203 ;
204 [label=<TCP Src Port &le; 33591.5<br/>gini = 0.569<br/>samples = 12<br/>value = [0, 0, 5, 1, 6]<br/>class = Other>, fillcolor="#fbe3f6"] ;
203 -> 204 ;
205 [label=<TCP Src Port &le; 33528.5<br/>gini = 0.278<br/>samples = 6<br/>value = [0, 0, 5, 1, 0]<br/>class = Audio>, fillcolor="#61ead1"] ;
204 -> 205 ;
206 [label=<gini = 0.0<br/>samples = 5<br/>value = [0, 0, 5, 0, 0]<br/>class = Audio>, fillcolor="#39e5c5"] ;
205 -> 206 ;
207 [label=<gini = 0.0<br/>samples = 1<br/>value = [0, 0, 0, 1, 0]<br/>class = Video>, fillcolor="#3c39e5"] ;
205 -> 207 ;
208 [label=<gini = 0.0<br/>samples = 6<br/>value = [0, 0, 0, 0, 6]<br/>class = Other>, fillcolor="#e539c0"] ;
204 -> 208 ;
209 [label=<TCP Src Port &le; 33930.5<br/>gini = 0.133<br/>samples = 14<br/>value = [0, 0, 13, 1, 0]<br/>class = Audio>, fillcolor="#48e7c9"] ;
203 -> 209 ;
210 [label=<gini = 0.0<br/>samples = 11<br/>value = [0, 0, 11, 0, 0]<br/>class = Audio>, fillcolor="#39e5c5"] ;
209 -> 210 ;
211 [label=<TCP Src Port &le; 34016.0<br/>gini = 0.444<br/>samples = 3<br/>value = [0, 0, 2, 1, 0]<br/>class = Audio>, fillcolor="#9cf2e2"] ;
209 -> 211 ;
212 [label=<gini = 0.0<br/>samples = 1<br/>value = [0, 0, 0, 1, 0]<br/>class = Video>, fillcolor="#3c39e5"] ;
211 -> 212 ;
213 [label=<gini = 0.0<br/>samples = 2<br/>value = [0, 0, 2, 0, 0]<br/>class = Audio>, fillcolor="#39e5c5"] ;
211 -> 213 ;
214 [label=<TCP Src Port &le; 34467.0<br/>gini = 0.489<br/>samples = 40<br/>value = [0, 0, 17, 0, 23]<br/>class = Other>, fillcolor="#f8cbef"] ;
202 -> 214 ;
215 [label=<gini = 0.0<br/>samples = 14<br/>value = [0, 0, 0, 0, 14]<br/>class = Other>, fillcolor="#e539c0"] ;
214 -> 215 ;
216 [label=<TCP Src Port &le; 34779.5<br/>gini = 0.453<br/>samples = 26<br/>value = [0, 0, 17, 0, 9]<br/>class = Audio>, fillcolor="#a2f3e4"] ;
214 -> 216 ;
217 [label=<TCP Src Port &le; 34483.0<br/>gini = 0.413<br/>samples = 24<br/>value = [0, 0, 17, 0, 7]<br/>class = Audio>, fillcolor="#8bf0dd"] ;
216 -> 217 ;
218 [label=<gini = 0.0<br/>samples = 4<br/>value = [0, 0, 4, 0, 0]<br/>class = Audio>, fillcolor="#39e5c5"] ;
217 -> 218 ;
219 [label=<TCP Src Port &le; 34505.5<br/>gini = 0.455<br/>samples = 20<br/>value = [0, 0, 13, 0, 7]<br/>class = Audio>, fillcolor="#a4f3e4"] ;
217 -> 219 ;
220 [label=<gini = 0.0<br/>samples = 3<br/>value = [0, 0, 0, 0, 3]<br/>class = Other>, fillcolor="#e539c0"] ;
219 -> 220 ;
221 [label=<TCP Src Port &le; 34548.0<br/>gini = 0.36<br/>samples = 17<br/>value = [0, 0, 13, 0, 4]<br/>class = Audio>, fillcolor="#76edd7"] ;
219 -> 221 ;
222 [label=<gini = 0.0<br/>samples = 7<br/>value = [0, 0, 7, 0, 0]<br/>class = Audio>, fillcolor="#39e5c5"] ;
221 -> 222 ;
223 [label=<TCP Src Port &le; 34756.5<br/>gini = 0.48<br/>samples = 10<br/>value = [0, 0, 6, 0, 4]<br/>class = Audio>, fillcolor="#bdf6ec"] ;
221 -> 223 ;
224 [label=<TCP Src Port &le; 34605.5<br/>gini = 0.444<br/>samples = 6<br/>value = [0, 0, 2, 0, 4]<br/>class = Other>, fillcolor="#f29ce0"] ;
223 -> 224 ;
225 [label=<Frame Length &le; 70.0<br/>gini = 0.444<br/>samples = 3<br/>value = [0, 0, 2, 0, 1]<br/>class = Audio>, fillcolor="#9cf2e2"] ;
224 -> 225 ;
226 [label=<gini = 0.0<br/>samples = 2<br/>value = [0, 0, 2, 0, 0]<br/>class = Audio>, fillcolor="#39e5c5"] ;
225 -> 226 ;
227 [label=<gini = 0.0<br/>samples = 1<br/>value = [0, 0, 0, 0, 1]<br/>class = Other>, fillcolor="#e539c0"] ;
225 -> 227 ;
228 [label=<gini = 0.0<br/>samples = 3<br/>value = [0, 0, 0, 0, 3]<br/>class = Other>, fillcolor="#e539c0"] ;
224 -> 228 ;
229 [label=<gini = 0.0<br/>samples = 4<br/>value = [0, 0, 4, 0, 0]<br/>class = Audio>, fillcolor="#39e5c5"] ;
223 -> 229 ;
230 [label=<gini = 0.0<br/>samples = 2<br/>value = [0, 0, 0, 0, 2]<br/>class = Other>, fillcolor="#e539c0"] ;
216 -> 230 ;
231 [label=<TCP Src Port &le; 35035.5<br/>gini = 0.206<br/>samples = 43<br/>value = [0, 0, 38, 0, 5]<br/>class = Audio>, fillcolor="#53e8cd"] ;
189 -> 231 ;
232 [label=<gini = 0.0<br/>samples = 17<br/>value = [0, 0, 17, 0, 0]<br/>class = Audio>, fillcolor="#39e5c5"] ;
231 -> 232 ;
233 [label=<TCP Src Port &le; 35079.5<br/>gini = 0.311<br/>samples = 26<br/>value = [0, 0, 21, 0, 5]<br/>class = Audio>, fillcolor="#68ebd3"] ;
231 -> 233 ;
234 [label=<gini = 0.0<br/>samples = 3<br/>value = [0, 0, 0, 0, 3]<br/>class = Other>, fillcolor="#e539c0"] ;
233 -> 234 ;
235 [label=<TCP Src Port &le; 35207.0<br/>gini = 0.159<br/>samples = 23<br/>value = [0, 0, 21, 0, 2]<br/>class = Audio>, fillcolor="#4ce7cb"] ;
233 -> 235 ;
236 [label=<TCP Src Port &le; 35160.0<br/>gini = 0.298<br/>samples = 11<br/>value = [0, 0, 9, 0, 2]<br/>class = Audio>, fillcolor="#65ebd2"] ;
235 -> 236 ;
237 [label=<gini = 0.0<br/>samples = 9<br/>value = [0, 0, 9, 0, 0]<br/>class = Audio>, fillcolor="#39e5c5"] ;
236 -> 237 ;
238 [label=<gini = 0.0<br/>samples = 2<br/>value = [0, 0, 0, 0, 2]<br/>class = Other>, fillcolor="#e539c0"] ;
236 -> 238 ;
239 [label=<gini = 0.0<br/>samples = 12<br/>value = [0, 0, 12, 0, 0]<br/>class = Audio>, fillcolor="#39e5c5"] ;
235 -> 239 ;
240 [label=<TCP Src Port &le; 35734.5<br/>gini = 0.444<br/>samples = 66<br/>value = [0, 0, 22, 0, 44]<br/>class = Other>, fillcolor="#f29ce0"] ;
188 -> 240 ;
241 [label=<gini = 0.0<br/>samples = 23<br/>value = [0, 0, 0, 0, 23]<br/>class = Other>, fillcolor="#e539c0"] ;
240 -> 241 ;
242 [label=<TCP Src Port &le; 35930.0<br/>gini = 0.5<br/>samples = 43<br/>value = [0, 0, 22, 0, 21]<br/>class = Audio>, fillcolor="#f6fefc"] ;
240 -> 242 ;
243 [label=<gini = 0.0<br/>samples = 11<br/>value = [0, 0, 11, 0, 0]<br/>class = Audio>, fillcolor="#39e5c5"] ;
242 -> 243 ;
244 [label=<TCP Src Port &le; 36017.0<br/>gini = 0.451<br/>samples = 32<br/>value = [0, 0, 11, 0, 21]<br/>class = Other>, fillcolor="#f3a1e1"] ;
242 -> 244 ;
245 [label=<gini = 0.0<br/>samples = 8<br/>value = [0, 0, 0, 0, 8]<br/>class = Other>, fillcolor="#e539c0"] ;
244 -> 245 ;
246 [label=<TCP Src Port &le; 36366.0<br/>gini = 0.497<br/>samples = 24<br/>value = [0, 0, 11, 0, 13]<br/>class = Other>, fillcolor="#fbe1f5"] ;
244 -> 246 ;
247 [label=<TCP Src Port &le; 36273.5<br/>gini = 0.457<br/>samples = 17<br/>value = [0, 0, 11, 0, 6]<br/>class = Audio>, fillcolor="#a5f3e5"] ;
246 -> 247 ;
248 [label=<TCP Src Port &le; 36045.0<br/>gini = 0.48<br/>samples = 10<br/>value = [0, 0, 4, 0, 6]<br/>class = Other>, fillcolor="#f6bdea"] ;
247 -> 248 ;
249 [label=<gini = 0.0<br/>samples = 4<br/>value = [0, 0, 4, 0, 0]<br/>class = Audio>, fillcolor="#39e5c5"] ;
248 -> 249 ;
250 [label=<gini = 0.0<br/>samples = 6<br/>value = [0, 0, 0, 0, 6]<br/>class = Other>, fillcolor="#e539c0"] ;
248 -> 250 ;
251 [label=<gini = 0.0<br/>samples = 7<br/>value = [0, 0, 7, 0, 0]<br/>class = Audio>, fillcolor="#39e5c5"] ;
247 -> 251 ;
252 [label=<gini = 0.0<br/>samples = 7<br/>value = [0, 0, 0, 0, 7]<br/>class = Other>, fillcolor="#e539c0"] ;
246 -> 252 ;
253 [label=<TCP Src Port &le; 37347.0<br/>gini = 0.332<br/>samples = 57<br/>value = [0, 0, 45, 0, 12]<br/>class = Audio>, fillcolor="#6eecd4"] ;
187 -> 253 ;
254 [label=<TCP Src Port &le; 36965.5<br/>gini = 0.142<br/>samples = 39<br/>value = [0, 0, 36, 0, 3]<br/>class = Audio>, fillcolor="#49e7ca"] ;
253 -> 254 ;
255 [label=<gini = 0.0<br/>samples = 18<br/>value = [0, 0, 18, 0, 0]<br/>class = Audio>, fillcolor="#39e5c5"] ;
254 -> 255 ;
256 [label=<TCP Src Port &le; 37044.0<br/>gini = 0.245<br/>samples = 21<br/>value = [0, 0, 18, 0, 3]<br/>class = Audio>, fillcolor="#5ae9cf"] ;
254 -> 256 ;
257 [label=<gini = 0.0<br/>samples = 3<br/>value = [0, 0, 0, 0, 3]<br/>class = Other>, fillcolor="#e539c0"] ;
256 -> 257 ;
258 [label=<gini = 0.0<br/>samples = 18<br/>value = [0, 0, 18, 0, 0]<br/>class = Audio>, fillcolor="#39e5c5"] ;
256 -> 258 ;
259 [label=<TCP Src Port &le; 37564.5<br/>gini = 0.5<br/>samples = 18<br/>value = [0, 0, 9, 0, 9]<br/>class = Audio>, fillcolor="#ffffff"] ;
253 -> 259 ;
260 [label=<gini = 0.0<br/>samples = 4<br/>value = [0, 0, 0, 0, 4]<br/>class = Other>, fillcolor="#e539c0"] ;
259 -> 260 ;
261 [label=<TCP Src Port &le; 37888.0<br/>gini = 0.459<br/>samples = 14<br/>value = [0, 0, 9, 0, 5]<br/>class = Audio>, fillcolor="#a7f3e5"] ;
259 -> 261 ;
262 [label=<TCP Src Port &le; 37808.5<br/>gini = 0.346<br/>samples = 9<br/>value = [0, 0, 7, 0, 2]<br/>class = Audio>, fillcolor="#72ecd6"] ;
261 -> 262 ;
263 [label=<TCP Src Port &le; 37669.5<br/>gini = 0.5<br/>samples = 4<br/>value = [0, 0, 2, 0, 2]<br/>class = Audio>, fillcolor="#ffffff"] ;
262 -> 263 ;
264 [label=<gini = 0.0<br/>samples = 2<br/>value = [0, 0, 2, 0, 0]<br/>class = Audio>, fillcolor="#39e5c5"] ;
263 -> 264 ;
265 [label=<gini = 0.0<br/>samples = 2<br/>value = [0, 0, 0, 0, 2]<br/>class = Other>, fillcolor="#e539c0"] ;
263 -> 265 ;
266 [label=<gini = 0.0<br/>samples = 5<br/>value = [0, 0, 5, 0, 0]<br/>class = Audio>, fillcolor="#39e5c5"] ;
262 -> 266 ;
267 [label=<TCP Src Port &le; 38002.0<br/>gini = 0.48<br/>samples = 5<br/>value = [0, 0, 2, 0, 3]<br/>class = Other>, fillcolor="#f6bdea"] ;
261 -> 267 ;
268 [label=<gini = 0.0<br/>samples = 2<br/>value = [0, 0, 0, 0, 2]<br/>class = Other>, fillcolor="#e539c0"] ;
267 -> 268 ;
269 [label=<TCP Src Port &le; 38139.5<br/>gini = 0.444<br/>samples = 3<br/>value = [0, 0, 2, 0, 1]<br/>class = Audio>, fillcolor="#9cf2e2"] ;
267 -> 269 ;
270 [label=<gini = 0.0<br/>samples = 2<br/>value = [0, 0, 2, 0, 0]<br/>class = Audio>, fillcolor="#39e5c5"] ;
269 -> 270 ;
271 [label=<gini = 0.0<br/>samples = 1<br/>value = [0, 0, 0, 0, 1]<br/>class = Other>, fillcolor="#e539c0"] ;
269 -> 271 ;
272 [label=<TCP Flags_24 &le; 0.5<br/>gini = 0.094<br/>samples = 345<br/>value = [0, 0, 17, 0, 328]<br/>class = Other>, fillcolor="#e643c3"] ;
176 -> 272 ;
273 [label=<TCP Flags_2 &le; 0.5<br/>gini = 0.079<br/>samples = 340<br/>value = [0, 0, 14, 0, 326]<br/>class = Other>, fillcolor="#e642c3"] ;
272 -> 273 ;
274 [label=<TCP Src Port &le; 38255.5<br/>gini = 0.06<br/>samples = 291<br/>value = [0, 0, 9, 0, 282]<br/>class = Other>, fillcolor="#e63fc2"] ;
273 -> 274 ;
275 [label=<TCP Src Port &le; 35460.5<br/>gini = 0.055<br/>samples = 283<br/>value = [0, 0, 8, 0, 275]<br/>class = Other>, fillcolor="#e63fc2"] ;
274 -> 275 ;
276 [label=<TCP Src Port &le; 35453.5<br/>gini = 0.085<br/>samples = 135<br/>value = [0, 0, 6, 0, 129]<br/>class = Other>, fillcolor="#e642c3"] ;
275 -> 276 ;
277 [label=<TCP Src Port &le; 34994.5<br/>gini = 0.058<br/>samples = 133<br/>value = [0, 0, 4, 0, 129]<br/>class = Other>, fillcolor="#e63fc2"] ;
276 -> 277 ;
278 [label=<TCP Src Port &le; 33885.5<br/>gini = 0.02<br/>samples = 98<br/>value = [0, 0, 1, 0, 97]<br/>class = Other>, fillcolor="#e53bc1"] ;
277 -> 278 ;
279 [label=<gini = 0.0<br/>samples = 52<br/>value = [0, 0, 0, 0, 52]<br/>class = Other>, fillcolor="#e539c0"] ;
278 -> 279 ;
280 [label=<TCP Src Port &le; 33889.5<br/>gini = 0.043<br/>samples = 46<br/>value = [0, 0, 1, 0, 45]<br/>class = Other>, fillcolor="#e63dc1"] ;
278 -> 280 ;
281 [label=<gini = 0.0<br/>samples = 1<br/>value = [0, 0, 1, 0, 0]<br/>class = Audio>, fillcolor="#39e5c5"] ;
280 -> 281 ;
282 [label=<gini = 0.0<br/>samples = 45<br/>value = [0, 0, 0, 0, 45]<br/>class = Other>, fillcolor="#e539c0"] ;
280 -> 282 ;
283 [label=<TCP Src Port &le; 35048.5<br/>gini = 0.157<br/>samples = 35<br/>value = [0, 0, 3, 0, 32]<br/>class = Other>, fillcolor="#e74cc6"] ;
277 -> 283 ;
284 [label=<gini = 0.0<br/>samples = 2<br/>value = [0, 0, 2, 0, 0]<br/>class = Audio>, fillcolor="#39e5c5"] ;
283 -> 284 ;
285 [label=<TCP Src Port &le; 35156.0<br/>gini = 0.059<br/>samples = 33<br/>value = [0, 0, 1, 0, 32]<br/>class = Other>, fillcolor="#e63fc2"] ;
283 -> 285 ;
286 [label=<gini = 0.0<br/>samples = 24<br/>value = [0, 0, 0, 0, 24]<br/>class = Other>, fillcolor="#e539c0"] ;
285 -> 286 ;
287 [label=<TCP Src Port &le; 35207.5<br/>gini = 0.198<br/>samples = 9<br/>value = [0, 0, 1, 0, 8]<br/>class = Other>, fillcolor="#e852c8"] ;
285 -> 287 ;
288 [label=<gini = 0.0<br/>samples = 1<br/>value = [0, 0, 1, 0, 0]<br/>class = Audio>, fillcolor="#39e5c5"] ;
287 -> 288 ;
289 [label=<gini = 0.0<br/>samples = 8<br/>value = [0, 0, 0, 0, 8]<br/>class = Other>, fillcolor="#e539c0"] ;
287 -> 289 ;
290 [label=<gini = 0.0<br/>samples = 2<br/>value = [0, 0, 2, 0, 0]<br/>class = Audio>, fillcolor="#39e5c5"] ;
276 -> 290 ;
291 [label=<TCP Flags_17 &le; 0.5<br/>gini = 0.027<br/>samples = 148<br/>value = [0, 0, 2, 0, 146]<br/>class = Other>, fillcolor="#e53cc1"] ;
275 -> 291 ;
292 [label=<TCP Src Port &le; 36590.0<br/>gini = 0.015<br/>samples = 130<br/>value = [0, 0, 1, 0, 129]<br/>class = Other>, fillcolor="#e53bc0"] ;
291 -> 292 ;
293 [label=<gini = 0.0<br/>samples = 71<br/>value = [0, 0, 0, 0, 71]<br/>class = Other>, fillcolor="#e539c0"] ;
292 -> 293 ;
294 [label=<TCP Src Port &le; 36639.0<br/>gini = 0.033<br/>samples = 59<br/>value = [0, 0, 1, 0, 58]<br/>class = Other>, fillcolor="#e53cc1"] ;
292 -> 294 ;
295 [label=<gini = 0.0<br/>samples = 1<br/>value = [0, 0, 1, 0, 0]<br/>class = Audio>, fillcolor="#39e5c5"] ;
294 -> 295 ;
296 [label=<gini = 0.0<br/>samples = 58<br/>value = [0, 0, 0, 0, 58]<br/>class = Other>, fillcolor="#e539c0"] ;
294 -> 296 ;
297 [label=<TCP Src Port &le; 36555.5<br/>gini = 0.105<br/>samples = 18<br/>value = [0, 0, 1, 0, 17]<br/>class = Other>, fillcolor="#e745c4"] ;
291 -> 297 ;
298 [label=<gini = 0.0<br/>samples = 10<br/>value = [0, 0, 0, 0, 10]<br/>class = Other>, fillcolor="#e539c0"] ;
297 -> 298 ;
299 [label=<TCP Src Port &le; 36649.5<br/>gini = 0.219<br/>samples = 8<br/>value = [0, 0, 1, 0, 7]<br/>class = Other>, fillcolor="#e955c9"] ;
297 -> 299 ;
300 [label=<gini = 0.0<br/>samples = 1<br/>value = [0, 0, 1, 0, 0]<br/>class = Audio>, fillcolor="#39e5c5"] ;
299 -> 300 ;
301 [label=<gini = 0.0<br/>samples = 7<br/>value = [0, 0, 0, 0, 7]<br/>class = Other>, fillcolor="#e539c0"] ;
299 -> 301 ;
302 [label=<TCP Src Port &le; 38258.5<br/>gini = 0.219<br/>samples = 8<br/>value = [0, 0, 1, 0, 7]<br/>class = Other>, fillcolor="#e955c9"] ;
274 -> 302 ;
303 [label=<gini = 0.0<br/>samples = 1<br/>value = [0, 0, 1, 0, 0]<br/>class = Audio>, fillcolor="#39e5c5"] ;
302 -> 303 ;
304 [label=<gini = 0.0<br/>samples = 7<br/>value = [0, 0, 0, 0, 7]<br/>class = Other>, fillcolor="#e539c0"] ;
302 -> 304 ;
305 [label=<TCP Src Port &le; 34456.0<br/>gini = 0.183<br/>samples = 49<br/>value = [0, 0, 5, 0, 44]<br/>class = Other>, fillcolor="#e850c7"] ;
273 -> 305 ;
306 [label=<gini = 0.0<br/>samples = 15<br/>value = [0, 0, 0, 0, 15]<br/>class = Other>, fillcolor="#e539c0"] ;
305 -> 306 ;
307 [label=<TCP Src Port &le; 34663.0<br/>gini = 0.251<br/>samples = 34<br/>value = [0, 0, 5, 0, 29]<br/>class = Other>, fillcolor="#e95bcb"] ;
305 -> 307 ;
308 [label=<gini = 0.0<br/>samples = 2<br/>value = [0, 0, 2, 0, 0]<br/>class = Audio>, fillcolor="#39e5c5"] ;
307 -> 308 ;
309 [label=<TCP Src Port &le; 37712.0<br/>gini = 0.17<br/>samples = 32<br/>value = [0, 0, 3, 0, 29]<br/>class = Other>, fillcolor="#e84dc7"] ;
307 -> 309 ;
310 [label=<TCP Src Port &le; 35794.0<br/>gini = 0.128<br/>samples = 29<br/>value = [0, 0, 2, 0, 27]<br/>class = Other>, fillcolor="#e748c5"] ;
309 -> 310 ;
311 [label=<TCP Src Port &le; 35522.5<br/>gini = 0.245<br/>samples = 7<br/>value = [0, 0, 1, 0, 6]<br/>class = Other>, fillcolor="#e95acb"] ;
310 -> 311 ;
312 [label=<gini = 0.0<br/>samples = 6<br/>value = [0, 0, 0, 0, 6]<br/>class = Other>, fillcolor="#e539c0"] ;
311 -> 312 ;
313 [label=<gini = 0.0<br/>samples = 1<br/>value = [0, 0, 1, 0, 0]<br/>class = Audio>, fillcolor="#39e5c5"] ;
311 -> 313 ;
314 [label=<TCP Src Port &le; 36908.5<br/>gini = 0.087<br/>samples = 22<br/>value = [0, 0, 1, 0, 21]<br/>class = Other>, fillcolor="#e642c3"] ;
310 -> 314 ;
315 [label=<gini = 0.0<br/>samples = 15<br/>value = [0, 0, 0, 0, 15]<br/>class = Other>, fillcolor="#e539c0"] ;
314 -> 315 ;
316 [label=<TCP Src Port &le; 37030.5<br/>gini = 0.245<br/>samples = 7<br/>value = [0, 0, 1, 0, 6]<br/>class = Other>, fillcolor="#e95acb"] ;
314 -> 316 ;
317 [label=<gini = 0.0<br/>samples = 1<br/>value = [0, 0, 1, 0, 0]<br/>class = Audio>, fillcolor="#39e5c5"] ;
316 -> 317 ;
318 [label=<gini = 0.0<br/>samples = 6<br/>value = [0, 0, 0, 0, 6]<br/>class = Other>, fillcolor="#e539c0"] ;
316 -> 318 ;
319 [label=<TCP Src Port &le; 38047.0<br/>gini = 0.444<br/>samples = 3<br/>value = [0, 0, 1, 0, 2]<br/>class = Other>, fillcolor="#f29ce0"] ;
309 -> 319 ;
320 [label=<gini = 0.0<br/>samples = 1<br/>value = [0, 0, 1, 0, 0]<br/>class = Audio>, fillcolor="#39e5c5"] ;
319 -> 320 ;
321 [label=<gini = 0.0<br/>samples = 2<br/>value = [0, 0, 0, 0, 2]<br/>class = Other>, fillcolor="#e539c0"] ;
319 -> 321 ;
322 [label=<Frame Length &le; 87.0<br/>gini = 0.48<br/>samples = 5<br/>value = [0, 0, 3, 0, 2]<br/>class = Audio>, fillcolor="#bdf6ec"] ;
272 -> 322 ;
323 [label=<gini = 0.0<br/>samples = 3<br/>value = [0, 0, 3, 0, 0]<br/>class = Audio>, fillcolor="#39e5c5"] ;
322 -> 323 ;
324 [label=<gini = 0.0<br/>samples = 2<br/>value = [0, 0, 0, 0, 2]<br/>class = Other>, fillcolor="#e539c0"] ;
322 -> 324 ;
325 [label=<gini = 0.0<br/>samples = 168<br/>value = [0, 0, 168, 0, 0]<br/>class = Audio>, fillcolor="#39e5c5"] ;
175 -> 325 ;
326 [label=<TCP Flags_24 &le; 0.5<br/>gini = 0.275<br/>samples = 345<br/>value = [0, 0, 52, 4, 289]<br/>class = Other>, fillcolor="#ea5fcc"] ;
174 -> 326 ;
327 [label=<Frame Length &le; 182.0<br/>gini = 0.484<br/>samples = 34<br/>value = [0, 0, 14, 0, 20]<br/>class = Other>, fillcolor="#f7c4ec"] ;
326 -> 327 ;
328 [label=<TCP Src Port &le; 33950.0<br/>gini = 0.32<br/>samples = 10<br/>value = [0, 0, 8, 0, 2]<br/>class = Audio>, fillcolor="#6aecd4"] ;
327 -> 328 ;
329 [label=<gini = 0.0<br/>samples = 2<br/>value = [0, 0, 0, 0, 2]<br/>class = Other>, fillcolor="#e539c0"] ;
328 -> 329 ;
330 [label=<gini = 0.0<br/>samples = 8<br/>value = [0, 0, 8, 0, 0]<br/>class = Audio>, fillcolor="#39e5c5"] ;
328 -> 330 ;
331 [label=<Frame Length &le; 1499.0<br/>gini = 0.375<br/>samples = 24<br/>value = [0, 0, 6, 0, 18]<br/>class = Other>, fillcolor="#ee7bd5"] ;
327 -> 331 ;
332 [label=<gini = 0.0<br/>samples = 10<br/>value = [0, 0, 0, 0, 10]<br/>class = Other>, fillcolor="#e539c0"] ;
331 -> 332 ;
333 [label=<TCP Dst Port &le; 261.5<br/>gini = 0.49<br/>samples = 14<br/>value = [0, 0, 6, 0, 8]<br/>class = Other>, fillcolor="#f8ceef"] ;
331 -> 333 ;
334 [label=<gini = 0.0<br/>samples = 8<br/>value = [0, 0, 0, 0, 8]<br/>class = Other>, fillcolor="#e539c0"] ;
333 -> 334 ;
335 [label=<gini = 0.0<br/>samples = 6<br/>value = [0, 0, 6, 0, 0]<br/>class = Audio>, fillcolor="#39e5c5"] ;
333 -> 335 ;
336 [label=<Frame Length &le; 293.0<br/>gini = 0.237<br/>samples = 311<br/>value = [0, 0, 38, 4, 269]<br/>class = Other>, fillcolor="#e957ca"] ;
326 -> 336 ;
337 [label=<Frame Length &le; 239.0<br/>gini = 0.167<br/>samples = 188<br/>value = [0, 0, 13, 4, 171]<br/>class = Other>, fillcolor="#e84cc6"] ;
336 -> 337 ;
338 [label=<TCP Dst Port &le; 261.5<br/>gini = 0.279<br/>samples = 106<br/>value = [0, 0, 13, 4, 89]<br/>class = Other>, fillcolor="#ea5dcc"] ;
337 -> 338 ;
339 [label=<gini = 0.0<br/>samples = 4<br/>value = [0, 0, 0, 4, 0]<br/>class = Video>, fillcolor="#3c39e5"] ;
338 -> 339 ;
340 [label=<Frame Length &le; 205.0<br/>gini = 0.222<br/>samples = 102<br/>value = [0, 0, 13, 0, 89]<br/>class = Other>, fillcolor="#e956c9"] ;
338 -> 340 ;
341 [label=<Frame Length &le; 152.5<br/>gini = 0.153<br/>samples = 96<br/>value = [0, 0, 8, 0, 88]<br/>class = Other>, fillcolor="#e74bc6"] ;
340 -> 341 ;
342 [label=<TCP Src Port &le; 34028.0<br/>gini = 0.031<br/>samples = 63<br/>value = [0, 0, 1, 0, 62]<br/>class = Other>, fillcolor="#e53cc1"] ;
341 -> 342 ;
343 [label=<TCP Src Port &le; 33885.5<br/>gini = 0.095<br/>samples = 20<br/>value = [0, 0, 1, 0, 19]<br/>class = Other>, fillcolor="#e643c3"] ;
342 -> 343 ;
344 [label=<gini = 0.0<br/>samples = 19<br/>value = [0, 0, 0, 0, 19]<br/>class = Other>, fillcolor="#e539c0"] ;
343 -> 344 ;
345 [label=<gini = 0.0<br/>samples = 1<br/>value = [0, 0, 1, 0, 0]<br/>class = Audio>, fillcolor="#39e5c5"] ;
343 -> 345 ;
346 [label=<gini = 0.0<br/>samples = 43<br/>value = [0, 0, 0, 0, 43]<br/>class = Other>, fillcolor="#e539c0"] ;
342 -> 346 ;
347 [label=<Frame Length &le; 162.5<br/>gini = 0.334<br/>samples = 33<br/>value = [0, 0, 7, 0, 26]<br/>class = Other>, fillcolor="#ec6ed1"] ;
341 -> 347 ;
348 [label=<TCP Src Port &le; 33845.5<br/>gini = 0.375<br/>samples = 8<br/>value = [0, 0, 6, 0, 2]<br/>class = Audio>, fillcolor="#7beed8"] ;
347 -> 348 ;
349 [label=<gini = 0.0<br/>samples = 1<br/>value = [0, 0, 0, 0, 1]<br/>class = Other>, fillcolor="#e539c0"] ;
348 -> 349 ;
350 [label=<TCP Src Port &le; 34736.5<br/>gini = 0.245<br/>samples = 7<br/>value = [0, 0, 6, 0, 1]<br/>class = Audio>, fillcolor="#5ae9cf"] ;
348 -> 350 ;
351 [label=<gini = 0.0<br/>samples = 3<br/>value = [0, 0, 3, 0, 0]<br/>class = Audio>, fillcolor="#39e5c5"] ;
350 -> 351 ;
352 [label=<TCP Src Port &le; 34939.5<br/>gini = 0.375<br/>samples = 4<br/>value = [0, 0, 3, 0, 1]<br/>class = Audio>, fillcolor="#7beed8"] ;
350 -> 352 ;
353 [label=<gini = 0.0<br/>samples = 1<br/>value = [0, 0, 0, 0, 1]<br/>class = Other>, fillcolor="#e539c0"] ;
352 -> 353 ;
354 [label=<gini = 0.0<br/>samples = 3<br/>value = [0, 0, 3, 0, 0]<br/>class = Audio>, fillcolor="#39e5c5"] ;
352 -> 354 ;
355 [label=<TCP Src Port &le; 37078.5<br/>gini = 0.077<br/>samples = 25<br/>value = [0, 0, 1, 0, 24]<br/>class = Other>, fillcolor="#e641c3"] ;
347 -> 355 ;
356 [label=<gini = 0.0<br/>samples = 21<br/>value = [0, 0, 0, 0, 21]<br/>class = Other>, fillcolor="#e539c0"] ;
355 -> 356 ;
357 [label=<TCP Src Port &le; 37237.5<br/>gini = 0.375<br/>samples = 4<br/>value = [0, 0, 1, 0, 3]<br/>class = Other>, fillcolor="#ee7bd5"] ;
355 -> 357 ;
358 [label=<gini = 0.0<br/>samples = 1<br/>value = [0, 0, 1, 0, 0]<br/>class = Audio>, fillcolor="#39e5c5"] ;
357 -> 358 ;
359 [label=<gini = 0.0<br/>samples = 3<br/>value = [0, 0, 0, 0, 3]<br/>class = Other>, fillcolor="#e539c0"] ;
357 -> 359 ;
360 [label=<TCP Src Port &le; 35566.5<br/>gini = 0.278<br/>samples = 6<br/>value = [0, 0, 5, 0, 1]<br/>class = Audio>, fillcolor="#61ead1"] ;
340 -> 360 ;
361 [label=<gini = 0.0<br/>samples = 3<br/>value = [0, 0, 3, 0, 0]<br/>class = Audio>, fillcolor="#39e5c5"] ;
360 -> 361 ;
362 [label=<TCP Src Port &le; 37039.5<br/>gini = 0.444<br/>samples = 3<br/>value = [0, 0, 2, 0, 1]<br/>class = Audio>, fillcolor="#9cf2e2"] ;
360 -> 362 ;
363 [label=<gini = 0.0<br/>samples = 1<br/>value = [0, 0, 0, 0, 1]<br/>class = Other>, fillcolor="#e539c0"] ;
362 -> 363 ;
364 [label=<gini = 0.0<br/>samples = 2<br/>value = [0, 0, 2, 0, 0]<br/>class = Audio>, fillcolor="#39e5c5"] ;
362 -> 364 ;
365 [label=<gini = 0.0<br/>samples = 82<br/>value = [0, 0, 0, 0, 82]<br/>class = Other>, fillcolor="#e539c0"] ;
337 -> 365 ;
366 [label=<Frame Length &le; 383.5<br/>gini = 0.324<br/>samples = 123<br/>value = [0, 0, 25, 0, 98]<br/>class = Other>, fillcolor="#ec6cd0"] ;
336 -> 366 ;
367 [label=<Frame Length &le; 363.5<br/>gini = 0.497<br/>samples = 37<br/>value = [0, 0, 17, 0, 20]<br/>class = Other>, fillcolor="#fbe1f6"] ;
366 -> 367 ;
368 [label=<Frame Length &le; 337.5<br/>gini = 0.365<br/>samples = 25<br/>value = [0, 0, 6, 0, 19]<br/>class = Other>, fillcolor="#ed78d4"] ;
367 -> 368 ;
369 [label=<gini = 0.0<br/>samples = 5<br/>value = [0, 0, 5, 0, 0]<br/>class = Audio>, fillcolor="#39e5c5"] ;
368 -> 369 ;
370 [label=<Frame Length &le; 361.5<br/>gini = 0.095<br/>samples = 20<br/>value = [0, 0, 1, 0, 19]<br/>class = Other>, fillcolor="#e643c3"] ;
368 -> 370 ;
371 [label=<Frame Length &le; 355.0<br/>gini = 0.375<br/>samples = 4<br/>value = [0, 0, 1, 0, 3]<br/>class = Other>, fillcolor="#ee7bd5"] ;
370 -> 371 ;
372 [label=<gini = 0.0<br/>samples = 3<br/>value = [0, 0, 0, 0, 3]<br/>class = Other>, fillcolor="#e539c0"] ;
371 -> 372 ;
373 [label=<gini = 0.0<br/>samples = 1<br/>value = [0, 0, 1, 0, 0]<br/>class = Audio>, fillcolor="#39e5c5"] ;
371 -> 373 ;
374 [label=<gini = 0.0<br/>samples = 16<br/>value = [0, 0, 0, 0, 16]<br/>class = Other>, fillcolor="#e539c0"] ;
370 -> 374 ;
375 [label=<TCP Src Port &le; 33011.0<br/>gini = 0.153<br/>samples = 12<br/>value = [0, 0, 11, 0, 1]<br/>class = Audio>, fillcolor="#4be7ca"] ;
367 -> 375 ;
376 [label=<gini = 0.0<br/>samples = 1<br/>value = [0, 0, 0, 0, 1]<br/>class = Other>, fillcolor="#e539c0"] ;
375 -> 376 ;
377 [label=<gini = 0.0<br/>samples = 11<br/>value = [0, 0, 11, 0, 0]<br/>class = Audio>, fillcolor="#39e5c5"] ;
375 -> 377 ;
378 [label=<Frame Length &le; 587.0<br/>gini = 0.169<br/>samples = 86<br/>value = [0, 0, 8, 0, 78]<br/>class = Other>, fillcolor="#e84dc6"] ;
366 -> 378 ;
379 [label=<Frame Length &le; 564.5<br/>gini = 0.265<br/>samples = 51<br/>value = [0, 0, 8, 0, 43]<br/>class = Other>, fillcolor="#ea5ecc"] ;
378 -> 379 ;
380 [label=<Frame Length &le; 518.0<br/>gini = 0.049<br/>samples = 40<br/>value = [0, 0, 1, 0, 39]<br/>class = Other>, fillcolor="#e63ec2"] ;
379 -> 380 ;
381 [label=<gini = 0.0<br/>samples = 34<br/>value = [0, 0, 0, 0, 34]<br/>class = Other>, fillcolor="#e539c0"] ;
380 -> 381 ;
382 [label=<TCP Src Port &le; 35182.5<br/>gini = 0.278<br/>samples = 6<br/>value = [0, 0, 1, 0, 5]<br/>class = Other>, fillcolor="#ea61cd"] ;
380 -> 382 ;
383 [label=<gini = 0.0<br/>samples = 1<br/>value = [0, 0, 1, 0, 0]<br/>class = Audio>, fillcolor="#39e5c5"] ;
382 -> 383 ;
384 [label=<gini = 0.0<br/>samples = 5<br/>value = [0, 0, 0, 0, 5]<br/>class = Other>, fillcolor="#e539c0"] ;
382 -> 384 ;
385 [label=<Frame Length &le; 577.0<br/>gini = 0.463<br/>samples = 11<br/>value = [0, 0, 7, 0, 4]<br/>class = Audio>, fillcolor="#aaf4e6"] ;
379 -> 385 ;
386 [label=<gini = 0.0<br/>samples = 6<br/>value = [0, 0, 6, 0, 0]<br/>class = Audio>, fillcolor="#39e5c5"] ;
385 -> 386 ;
387 [label=<TCP Src Port &le; 34920.5<br/>gini = 0.32<br/>samples = 5<br/>value = [0, 0, 1, 0, 4]<br/>class = Other>, fillcolor="#ec6ad0"] ;
385 -> 387 ;
388 [label=<gini = 0.0<br/>samples = 1<br/>value = [0, 0, 1, 0, 0]<br/>class = Audio>, fillcolor="#39e5c5"] ;
387 -> 388 ;
389 [label=<gini = 0.0<br/>samples = 4<br/>value = [0, 0, 0, 0, 4]<br/>class = Other>, fillcolor="#e539c0"] ;
387 -> 389 ;
390 [label=<gini = 0.0<br/>samples = 35<br/>value = [0, 0, 0, 0, 35]<br/>class = Other>, fillcolor="#e539c0"] ;
378 -> 390 ;
391 [label=<gini = 0.0<br/>samples = 47<br/>value = [0, 0, 0, 47, 0]<br/>class = Video>, fillcolor="#3c39e5"] ;
173 -> 391 ;
392 [label=<Frame Length &le; 64.0<br/>gini = 0.133<br/>samples = 8888<br/>value = [0, 286, 0, 338, 8264]<br/>class = Other>, fillcolor="#e747c5"] ;
142 -> 392 ;
393 [label=<IPv4 Flags_0 &le; 0.5<br/>gini = 0.658<br/>samples = 605<br/>value = [0, 186, 0, 171, 248]<br/>class = Other>, fillcolor="#fbe2f6"] ;
392 -> 393 ;
394 [label=<TCP Dst Port &le; 50305.0<br/>gini = 0.486<br/>samples = 412<br/>value = [0, 0, 0, 171, 241]<br/>class = Other>, fillcolor="#f7c5ed"] ;
393 -> 394 ;
395 [label=<gini = 0.0<br/>samples = 232<br/>value = [0, 0, 0, 0, 232]<br/>class = Other>, fillcolor="#e539c0"] ;
394 -> 395 ;
396 [label=<TCP Dst Port &le; 51871.5<br/>gini = 0.095<br/>samples = 180<br/>value = [0, 0, 0, 171, 9]<br/>class = Video>, fillcolor="#4643e6"] ;
394 -> 396 ;
397 [label=<gini = 0.0<br/>samples = 171<br/>value = [0, 0, 0, 171, 0]<br/>class = Video>, fillcolor="#3c39e5"] ;
396 -> 397 ;
398 [label=<gini = 0.0<br/>samples = 9<br/>value = [0, 0, 0, 0, 9]<br/>class = Other>, fillcolor="#e539c0"] ;
396 -> 398 ;
399 [label=<TCP Src Port &le; 17223.0<br/>gini = 0.07<br/>samples = 193<br/>value = [0, 186, 0, 0, 7]<br/>class = Sensor>, fillcolor="#80e640"] ;
393 -> 399 ;
400 [label=<gini = 0.0<br/>samples = 7<br/>value = [0, 0, 0, 0, 7]<br/>class = Other>, fillcolor="#e539c0"] ;
399 -> 400 ;
401 [label=<gini = 0.0<br/>samples = 186<br/>value = [0, 186, 0, 0, 0]<br/>class = Sensor>, fillcolor="#7be539"] ;
399 -> 401 ;
402 [label=<Frame Length &le; 105.5<br/>gini = 0.063<br/>samples = 8283<br/>value = [0, 100, 0, 167, 8016]<br/>class = Other>, fillcolor="#e640c2"] ;
392 -> 402 ;
403 [label=<TCP Dst Port &le; 50374.0<br/>gini = 0.0<br/>samples = 6486<br/>value = [0, 0, 0, 1, 6485]<br/>class = Other>, fillcolor="#e539c0"] ;
402 -> 403 ;
404 [label=<gini = 0.0<br/>samples = 5836<br/>value = [0, 0, 0, 0, 5836]<br/>class = Other>, fillcolor="#e539c0"] ;
403 -> 404 ;
405 [label=<TCP Src Port &le; 34437.0<br/>gini = 0.003<br/>samples = 650<br/>value = [0, 0, 0, 1, 649]<br/>class = Other>, fillcolor="#e539c0"] ;
403 -> 405 ;
406 [label=<gini = 0.0<br/>samples = 637<br/>value = [0, 0, 0, 0, 637]<br/>class = Other>, fillcolor="#e539c0"] ;
405 -> 406 ;
407 [label=<TCP Src Port &le; 34832.0<br/>gini = 0.142<br/>samples = 13<br/>value = [0, 0, 0, 1, 12]<br/>class = Other>, fillcolor="#e749c5"] ;
405 -> 407 ;
408 [label=<gini = 0.0<br/>samples = 1<br/>value = [0, 0, 0, 1, 0]<br/>class = Video>, fillcolor="#3c39e5"] ;
407 -> 408 ;
409 [label=<gini = 0.0<br/>samples = 12<br/>value = [0, 0, 0, 0, 12]<br/>class = Other>, fillcolor="#e539c0"] ;
407 -> 409 ;
410 [label=<TCP Src Port &le; 25116.5<br/>gini = 0.263<br/>samples = 1797<br/>value = [0, 100, 0, 166, 1531]<br/>class = Other>, fillcolor="#e959ca"] ;
402 -> 410 ;
411 [label=<gini = 0.0<br/>samples = 1465<br/>value = [0, 0, 0, 0, 1465]<br/>class = Other>, fillcolor="#e539c0"] ;
410 -> 411 ;
412 [label=<IPv4 Flags_0 &le; 0.5<br/>gini = 0.62<br/>samples = 332<br/>value = [0, 100, 0, 166, 66]<br/>class = Video>, fillcolor="#c8c7f8"] ;
410 -> 412 ;
413 [label=<Frame Length &le; 166.0<br/>gini = 0.407<br/>samples = 232<br/>value = [0, 0, 0, 166, 66]<br/>class = Video>, fillcolor="#8a88ef"] ;
412 -> 413 ;
414 [label=<TCP Dst Port &le; 25718.0<br/>gini = 0.012<br/>samples = 167<br/>value = [0, 0, 0, 166, 1]<br/>class = Video>, fillcolor="#3d3ae5"] ;
413 -> 414 ;
415 [label=<gini = 0.0<br/>samples = 1<br/>value = [0, 0, 0, 0, 1]<br/>class = Other>, fillcolor="#e539c0"] ;
414 -> 415 ;
416 [label=<gini = 0.0<br/>samples = 166<br/>value = [0, 0, 0, 166, 0]<br/>class = Video>, fillcolor="#3c39e5"] ;
414 -> 416 ;
417 [label=<gini = 0.0<br/>samples = 65<br/>value = [0, 0, 0, 0, 65]<br/>class = Other>, fillcolor="#e539c0"] ;
413 -> 417 ;
418 [label=<gini = 0.0<br/>samples = 100<br/>value = [0, 100, 0, 0, 0]<br/>class = Sensor>, fillcolor="#7be539"] ;
412 -> 418 ;
419 [label=<IPv4 Flags_0 &le; 0.5<br/>gini = 0.533<br/>samples = 18221<br/>value = [0, 2, 2425, 11395, 4399]<br/>class = Video>, fillcolor="#9c9bf2"] ;
1 -> 419 ;
420 [label=<UDP Dst Port &le; 19394.5<br/>gini = 0.35<br/>samples = 14468<br/>value = [0, 0, 2425, 11395, 648]<br/>class = Video>, fillcolor="#6e6cec"] ;
419 -> 420 ;
421 [label=<UDP Dst Port &le; 1171.5<br/>gini = 0.204<br/>samples = 12821<br/>value = [0, 0, 871, 11395, 555]<br/>class = Video>, fillcolor="#5351e8"] ;
420 -> 421 ;
422 [label=<Frame Length &le; 74.5<br/>gini = 0.625<br/>samples = 1728<br/>value = [0, 0, 849, 360, 519]<br/>class = Audio>, fillcolor="#c9f8ef"] ;
421 -> 422 ;
423 [label=<Frame Length &le; 73.5<br/>gini = 0.101<br/>samples = 207<br/>value = [0, 0, 0, 196, 11]<br/>class = Video>, fillcolor="#4744e6"] ;
422 -> 423 ;
424 [label=<UDP Src Port &le; 55370.0<br/>gini = 0.219<br/>samples = 8<br/>value = [0, 0, 0, 1, 7]<br/>class = Other>, fillcolor="#e955c9"] ;
423 -> 424 ;
425 [label=<gini = 0.0<br/>samples = 6<br/>value = [0, 0, 0, 0, 6]<br/>class = Other>, fillcolor="#e539c0"] ;
424 -> 425 ;
426 [label=<UDP Src Port &le; 59693.5<br/>gini = 0.5<br/>samples = 2<br/>value = [0, 0, 0, 1, 1]<br/>class = Video>, fillcolor="#ffffff"] ;
424 -> 426 ;
427 [label=<gini = 0.0<br/>samples = 1<br/>value = [0, 0, 0, 1, 0]<br/>class = Video>, fillcolor="#3c39e5"] ;
426 -> 427 ;
428 [label=<gini = 0.0<br/>samples = 1<br/>value = [0, 0, 0, 0, 1]<br/>class = Other>, fillcolor="#e539c0"] ;
426 -> 428 ;
429 [label=<UDP Src Port &le; 42101.5<br/>gini = 0.039<br/>samples = 199<br/>value = [0, 0, 0, 195, 4]<br/>class = Video>, fillcolor="#403de6"] ;
423 -> 429 ;
430 [label=<gini = 0.0<br/>samples = 64<br/>value = [0, 0, 0, 64, 0]<br/>class = Video>, fillcolor="#3c39e5"] ;
429 -> 430 ;
431 [label=<UDP Src Port &le; 42556.5<br/>gini = 0.058<br/>samples = 135<br/>value = [0, 0, 0, 131, 4]<br/>class = Video>, fillcolor="#423fe6"] ;
429 -> 431 ;
432 [label=<gini = 0.0<br/>samples = 1<br/>value = [0, 0, 0, 0, 1]<br/>class = Other>, fillcolor="#e539c0"] ;
431 -> 432 ;
433 [label=<UDP Src Port &le; 47071.0<br/>gini = 0.044<br/>samples = 134<br/>value = [0, 0, 0, 131, 3]<br/>class = Video>, fillcolor="#403ee6"] ;
431 -> 433 ;
434 [label=<UDP Src Port &le; 47014.0<br/>gini = 0.124<br/>samples = 30<br/>value = [0, 0, 0, 28, 2]<br/>class = Video>, fillcolor="#4a47e7"] ;
433 -> 434 ;
435 [label=<UDP Src Port &le; 45517.0<br/>gini = 0.067<br/>samples = 29<br/>value = [0, 0, 0, 28, 1]<br/>class = Video>, fillcolor="#4340e6"] ;
434 -> 435 ;
436 [label=<gini = 0.0<br/>samples = 20<br/>value = [0, 0, 0, 20, 0]<br/>class = Video>, fillcolor="#3c39e5"] ;
435 -> 436 ;
437 [label=<UDP Src Port &le; 45751.5<br/>gini = 0.198<br/>samples = 9<br/>value = [0, 0, 0, 8, 1]<br/>class = Video>, fillcolor="#5452e8"] ;
435 -> 437 ;
438 [label=<gini = 0.0<br/>samples = 1<br/>value = [0, 0, 0, 0, 1]<br/>class = Other>, fillcolor="#e539c0"] ;
437 -> 438 ;
439 [label=<gini = 0.0<br/>samples = 8<br/>value = [0, 0, 0, 8, 0]<br/>class = Video>, fillcolor="#3c39e5"] ;
437 -> 439 ;
440 [label=<gini = 0.0<br/>samples = 1<br/>value = [0, 0, 0, 0, 1]<br/>class = Other>, fillcolor="#e539c0"] ;
434 -> 440 ;
441 [label=<UDP Src Port &le; 55332.5<br/>gini = 0.019<br/>samples = 104<br/>value = [0, 0, 0, 103, 1]<br/>class = Video>, fillcolor="#3e3be5"] ;
433 -> 441 ;
442 [label=<gini = 0.0<br/>samples = 52<br/>value = [0, 0, 0, 52, 0]<br/>class = Video>, fillcolor="#3c39e5"] ;
441 -> 442 ;
443 [label=<UDP Src Port &le; 55503.5<br/>gini = 0.038<br/>samples = 52<br/>value = [0, 0, 0, 51, 1]<br/>class = Video>, fillcolor="#403de6"] ;
441 -> 443 ;
444 [label=<gini = 0.0<br/>samples = 1<br/>value = [0, 0, 0, 0, 1]<br/>class = Other>, fillcolor="#e539c0"] ;
443 -> 444 ;
445 [label=<gini = 0.0<br/>samples = 51<br/>value = [0, 0, 0, 51, 0]<br/>class = Video>, fillcolor="#3c39e5"] ;
443 -> 445 ;
446 [label=<Frame Length &le; 75.5<br/>gini = 0.565<br/>samples = 1521<br/>value = [0, 0, 849, 164, 508]<br/>class = Audio>, fillcolor="#bcf6eb"] ;
422 -> 446 ;
447 [label=<UDP Src Port &le; 59555.5<br/>gini = 0.12<br/>samples = 466<br/>value = [0, 0, 436, 0, 30]<br/>class = Audio>, fillcolor="#47e7c9"] ;
446 -> 447 ;
448 [label=<UDP Src Port &le; 37489.0<br/>gini = 0.08<br/>samples = 432<br/>value = [0, 0, 414, 0, 18]<br/>class = Audio>, fillcolor="#42e6c8"] ;
447 -> 448 ;
449 [label=<UDP Src Port &le; 37466.0<br/>gini = 0.226<br/>samples = 54<br/>value = [0, 0, 47, 0, 7]<br/>class = Audio>, fillcolor="#56e9ce"] ;
448 -> 449 ;
450 [label=<UDP Src Port &le; 35281.0<br/>gini = 0.145<br/>samples = 51<br/>value = [0, 0, 47, 0, 4]<br/>class = Audio>, fillcolor="#4ae7ca"] ;
449 -> 450 ;
451 [label=<gini = 0.0<br/>samples = 22<br/>value = [0, 0, 22, 0, 0]<br/>class = Audio>, fillcolor="#39e5c5"] ;
450 -> 451 ;
452 [label=<UDP Src Port &le; 35509.5<br/>gini = 0.238<br/>samples = 29<br/>value = [0, 0, 25, 0, 4]<br/>class = Audio>, fillcolor="#59e9ce"] ;
450 -> 452 ;
453 [label=<gini = 0.0<br/>samples = 3<br/>value = [0, 0, 0, 0, 3]<br/>class = Other>, fillcolor="#e539c0"] ;
452 -> 453 ;
454 [label=<UDP Src Port &le; 35778.0<br/>gini = 0.074<br/>samples = 26<br/>value = [0, 0, 25, 0, 1]<br/>class = Audio>, fillcolor="#41e6c7"] ;
452 -> 454 ;
455 [label=<UDP Src Port &le; 35672.5<br/>gini = 0.278<br/>samples = 6<br/>value = [0, 0, 5, 0, 1]<br/>class = Audio>, fillcolor="#61ead1"] ;
454 -> 455 ;
456 [label=<gini = 0.0<br/>samples = 5<br/>value = [0, 0, 5, 0, 0]<br/>class = Audio>, fillcolor="#39e5c5"] ;
455 -> 456 ;
457 [label=<gini = 0.0<br/>samples = 1<br/>value = [0, 0, 0, 0, 1]<br/>class = Other>, fillcolor="#e539c0"] ;
455 -> 457 ;
458 [label=<gini = 0.0<br/>samples = 20<br/>value = [0, 0, 20, 0, 0]<br/>class = Audio>, fillcolor="#39e5c5"] ;
454 -> 458 ;
459 [label=<gini = 0.0<br/>samples = 3<br/>value = [0, 0, 0, 0, 3]<br/>class = Other>, fillcolor="#e539c0"] ;
449 -> 459 ;
460 [label=<UDP Src Port &le; 57226.0<br/>gini = 0.057<br/>samples = 378<br/>value = [0, 0, 367, 0, 11]<br/>class = Audio>, fillcolor="#3fe6c7"] ;
448 -> 460 ;
461 [label=<UDP Src Port &le; 50796.0<br/>gini = 0.03<br/>samples = 332<br/>value = [0, 0, 327, 0, 5]<br/>class = Audio>, fillcolor="#3ce5c6"] ;
460 -> 461 ;
462 [label=<UDP Src Port &le; 45208.0<br/>gini = 0.009<br/>samples = 227<br/>value = [0, 0, 226, 0, 1]<br/>class = Audio>, fillcolor="#3ae5c5"] ;
461 -> 462 ;
463 [label=<gini = 0.0<br/>samples = 142<br/>value = [0, 0, 142, 0, 0]<br/>class = Audio>, fillcolor="#39e5c5"] ;
462 -> 463 ;
464 [label=<UDP Src Port &le; 45313.0<br/>gini = 0.023<br/>samples = 85<br/>value = [0, 0, 84, 0, 1]<br/>class = Audio>, fillcolor="#3be5c6"] ;
462 -> 464 ;
465 [label=<gini = 0.0<br/>samples = 1<br/>value = [0, 0, 0, 0, 1]<br/>class = Other>, fillcolor="#e539c0"] ;
464 -> 465 ;
466 [label=<gini = 0.0<br/>samples = 84<br/>value = [0, 0, 84, 0, 0]<br/>class = Audio>, fillcolor="#39e5c5"] ;
464 -> 466 ;
467 [label=<UDP Src Port &le; 50815.0<br/>gini = 0.073<br/>samples = 105<br/>value = [0, 0, 101, 0, 4]<br/>class = Audio>, fillcolor="#41e6c7"] ;
461 -> 467 ;
468 [label=<gini = 0.0<br/>samples = 1<br/>value = [0, 0, 0, 0, 1]<br/>class = Other>, fillcolor="#e539c0"] ;
467 -> 468 ;
469 [label=<UDP Src Port &le; 52505.0<br/>gini = 0.056<br/>samples = 104<br/>value = [0, 0, 101, 0, 3]<br/>class = Audio>, fillcolor="#3fe6c7"] ;
467 -> 469 ;
470 [label=<UDP Src Port &le; 52192.0<br/>gini = 0.121<br/>samples = 31<br/>value = [0, 0, 29, 0, 2]<br/>class = Audio>, fillcolor="#47e7c9"] ;
469 -> 470 ;
471 [label=<gini = 0.0<br/>samples = 28<br/>value = [0, 0, 28, 0, 0]<br/>class = Audio>, fillcolor="#39e5c5"] ;
470 -> 471 ;
472 [label=<UDP Src Port &le; 52337.0<br/>gini = 0.444<br/>samples = 3<br/>value = [0, 0, 1, 0, 2]<br/>class = Other>, fillcolor="#f29ce0"] ;
470 -> 472 ;
473 [label=<gini = 0.0<br/>samples = 1<br/>value = [0, 0, 0, 0, 1]<br/>class = Other>, fillcolor="#e539c0"] ;
472 -> 473 ;
474 [label=<UDP Src Port &le; 52464.0<br/>gini = 0.5<br/>samples = 2<br/>value = [0, 0, 1, 0, 1]<br/>class = Audio>, fillcolor="#ffffff"] ;
472 -> 474 ;
475 [label=<gini = 0.0<br/>samples = 1<br/>value = [0, 0, 1, 0, 0]<br/>class = Audio>, fillcolor="#39e5c5"] ;
474 -> 475 ;
476 [label=<gini = 0.0<br/>samples = 1<br/>value = [0, 0, 0, 0, 1]<br/>class = Other>, fillcolor="#e539c0"] ;
474 -> 476 ;
477 [label=<UDP Src Port &le; 55820.5<br/>gini = 0.027<br/>samples = 73<br/>value = [0, 0, 72, 0, 1]<br/>class = Audio>, fillcolor="#3ce5c6"] ;
469 -> 477 ;
478 [label=<gini = 0.0<br/>samples = 52<br/>value = [0, 0, 52, 0, 0]<br/>class = Audio>, fillcolor="#39e5c5"] ;
477 -> 478 ;
479 [label=<UDP Src Port &le; 55861.5<br/>gini = 0.091<br/>samples = 21<br/>value = [0, 0, 20, 0, 1]<br/>class = Audio>, fillcolor="#43e6c8"] ;
477 -> 479 ;
480 [label=<gini = 0.0<br/>samples = 1<br/>value = [0, 0, 0, 0, 1]<br/>class = Other>, fillcolor="#e539c0"] ;
479 -> 480 ;
481 [label=<gini = 0.0<br/>samples = 20<br/>value = [0, 0, 20, 0, 0]<br/>class = Audio>, fillcolor="#39e5c5"] ;
479 -> 481 ;
482 [label=<UDP Src Port &le; 57274.0<br/>gini = 0.227<br/>samples = 46<br/>value = [0, 0, 40, 0, 6]<br/>class = Audio>, fillcolor="#57e9ce"] ;
460 -> 482 ;
483 [label=<gini = 0.0<br/>samples = 6<br/>value = [0, 0, 0, 0, 6]<br/>class = Other>, fillcolor="#e539c0"] ;
482 -> 483 ;
484 [label=<gini = 0.0<br/>samples = 40<br/>value = [0, 0, 40, 0, 0]<br/>class = Audio>, fillcolor="#39e5c5"] ;
482 -> 484 ;
485 [label=<UDP Src Port &le; 59680.5<br/>gini = 0.457<br/>samples = 34<br/>value = [0, 0, 22, 0, 12]<br/>class = Audio>, fillcolor="#a5f3e5"] ;
447 -> 485 ;
486 [label=<gini = 0.0<br/>samples = 12<br/>value = [0, 0, 0, 0, 12]<br/>class = Other>, fillcolor="#e539c0"] ;
485 -> 486 ;
487 [label=<gini = 0.0<br/>samples = 22<br/>value = [0, 0, 22, 0, 0]<br/>class = Audio>, fillcolor="#39e5c5"] ;
485 -> 487 ;
488 [label=<UDP Dst Port &le; 88.0<br/>gini = 0.617<br/>samples = 1055<br/>value = [0, 0, 413, 164, 478]<br/>class = Other>, fillcolor="#fcebf9"] ;
446 -> 488 ;
489 [label=<Frame Length &le; 82.5<br/>gini = 0.409<br/>samples = 583<br/>value = [0, 0, 27, 127, 429]<br/>class = Other>, fillcolor="#ee7cd5"] ;
488 -> 489 ;
490 [label=<Frame Length &le; 79.5<br/>gini = 0.055<br/>samples = 286<br/>value = [0, 0, 4, 4, 278]<br/>class = Other>, fillcolor="#e63fc2"] ;
489 -> 490 ;
491 [label=<Frame Length &le; 78.5<br/>gini = 0.038<br/>samples = 206<br/>value = [0, 0, 0, 4, 202]<br/>class = Other>, fillcolor="#e63dc1"] ;
490 -> 491 ;
492 [label=<Frame Length &le; 77.0<br/>gini = 0.069<br/>samples = 111<br/>value = [0, 0, 0, 4, 107]<br/>class = Other>, fillcolor="#e640c2"] ;
491 -> 492 ;
493 [label=<gini = 0.0<br/>samples = 70<br/>value = [0, 0, 0, 0, 70]<br/>class = Other>, fillcolor="#e539c0"] ;
492 -> 493 ;
494 [label=<UDP Src Port &le; 45910.0<br/>gini = 0.176<br/>samples = 41<br/>value = [0, 0, 0, 4, 37]<br/>class = Other>, fillcolor="#e84ec7"] ;
492 -> 494 ;
495 [label=<UDP Src Port &le; 43815.5<br/>gini = 0.266<br/>samples = 19<br/>value = [0, 0, 0, 3, 16]<br/>class = Other>, fillcolor="#ea5ecc"] ;
494 -> 495 ;
496 [label=<UDP Src Port &le; 37080.5<br/>gini = 0.117<br/>samples = 16<br/>value = [0, 0, 0, 1, 15]<br/>class = Other>, fillcolor="#e746c4"] ;
495 -> 496 ;
497 [label=<UDP Src Port &le; 36567.0<br/>gini = 0.245<br/>samples = 7<br/>value = [0, 0, 0, 1, 6]<br/>class = Other>, fillcolor="#e95acb"] ;
496 -> 497 ;
498 [label=<gini = 0.0<br/>samples = 6<br/>value = [0, 0, 0, 0, 6]<br/>class = Other>, fillcolor="#e539c0"] ;
497 -> 498 ;
499 [label=<gini = 0.0<br/>samples = 1<br/>value = [0, 0, 0, 1, 0]<br/>class = Video>, fillcolor="#3c39e5"] ;
497 -> 499 ;
500 [label=<gini = 0.0<br/>samples = 9<br/>value = [0, 0, 0, 0, 9]<br/>class = Other>, fillcolor="#e539c0"] ;
496 -> 500 ;
501 [label=<UDP Src Port &le; 44491.5<br/>gini = 0.444<br/>samples = 3<br/>value = [0, 0, 0, 2, 1]<br/>class = Video>, fillcolor="#9e9cf2"] ;
495 -> 501 ;
502 [label=<gini = 0.0<br/>samples = 1<br/>value = [0, 0, 0, 1, 0]<br/>class = Video>, fillcolor="#3c39e5"] ;
501 -> 502 ;
503 [label=<UDP Src Port &le; 44895.5<br/>gini = 0.5<br/>samples = 2<br/>value = [0, 0, 0, 1, 1]<br/>class = Video>, fillcolor="#ffffff"] ;
501 -> 503 ;
504 [label=<gini = 0.0<br/>samples = 1<br/>value = [0, 0, 0, 0, 1]<br/>class = Other>, fillcolor="#e539c0"] ;
503 -> 504 ;
505 [label=<gini = 0.0<br/>samples = 1<br/>value = [0, 0, 0, 1, 0]<br/>class = Video>, fillcolor="#3c39e5"] ;
503 -> 505 ;
506 [label=<UDP Src Port &le; 55883.0<br/>gini = 0.087<br/>samples = 22<br/>value = [0, 0, 0, 1, 21]<br/>class = Other>, fillcolor="#e642c3"] ;
494 -> 506 ;
507 [label=<gini = 0.0<br/>samples = 17<br/>value = [0, 0, 0, 0, 17]<br/>class = Other>, fillcolor="#e539c0"] ;
506 -> 507 ;
508 [label=<UDP Src Port &le; 57414.5<br/>gini = 0.32<br/>samples = 5<br/>value = [0, 0, 0, 1, 4]<br/>class = Other>, fillcolor="#ec6ad0"] ;
506 -> 508 ;
509 [label=<gini = 0.0<br/>samples = 1<br/>value = [0, 0, 0, 1, 0]<br/>class = Video>, fillcolor="#3c39e5"] ;
508 -> 509 ;
510 [label=<gini = 0.0<br/>samples = 4<br/>value = [0, 0, 0, 0, 4]<br/>class = Other>, fillcolor="#e539c0"] ;
508 -> 510 ;
511 [label=<gini = 0.0<br/>samples = 95<br/>value = [0, 0, 0, 0, 95]<br/>class = Other>, fillcolor="#e539c0"] ;
491 -> 511 ;
512 [label=<Frame Length &le; 80.5<br/>gini = 0.095<br/>samples = 80<br/>value = [0, 0, 4, 0, 76]<br/>class = Other>, fillcolor="#e643c3"] ;
490 -> 512 ;
513 [label=<UDP Src Port &le; 51072.0<br/>gini = 0.198<br/>samples = 36<br/>value = [0, 0, 4, 0, 32]<br/>class = Other>, fillcolor="#e852c8"] ;
512 -> 513 ;
514 [label=<UDP Src Port &le; 45570.5<br/>gini = 0.08<br/>samples = 24<br/>value = [0, 0, 1, 0, 23]<br/>class = Other>, fillcolor="#e642c3"] ;
513 -> 514 ;
515 [label=<gini = 0.0<br/>samples = 15<br/>value = [0, 0, 0, 0, 15]<br/>class = Other>, fillcolor="#e539c0"] ;
514 -> 515 ;
516 [label=<UDP Src Port &le; 45646.0<br/>gini = 0.198<br/>samples = 9<br/>value = [0, 0, 1, 0, 8]<br/>class = Other>, fillcolor="#e852c8"] ;
514 -> 516 ;
517 [label=<gini = 0.0<br/>samples = 1<br/>value = [0, 0, 1, 0, 0]<br/>class = Audio>, fillcolor="#39e5c5"] ;
516 -> 517 ;
518 [label=<gini = 0.0<br/>samples = 8<br/>value = [0, 0, 0, 0, 8]<br/>class = Other>, fillcolor="#e539c0"] ;
516 -> 518 ;
519 [label=<UDP Src Port &le; 52297.0<br/>gini = 0.375<br/>samples = 12<br/>value = [0, 0, 3, 0, 9]<br/>class = Other>, fillcolor="#ee7bd5"] ;
513 -> 519 ;
520 [label=<gini = 0.0<br/>samples = 1<br/>value = [0, 0, 1, 0, 0]<br/>class = Audio>, fillcolor="#39e5c5"] ;
519 -> 520 ;
521 [label=<UDP Src Port &le; 56866.0<br/>gini = 0.298<br/>samples = 11<br/>value = [0, 0, 2, 0, 9]<br/>class = Other>, fillcolor="#eb65ce"] ;
519 -> 521 ;
522 [label=<gini = 0.0<br/>samples = 4<br/>value = [0, 0, 0, 0, 4]<br/>class = Other>, fillcolor="#e539c0"] ;
521 -> 522 ;
523 [label=<UDP Src Port &le; 57728.0<br/>gini = 0.408<br/>samples = 7<br/>value = [0, 0, 2, 0, 5]<br/>class = Other>, fillcolor="#ef88d9"] ;
521 -> 523 ;
524 [label=<gini = 0.0<br/>samples = 1<br/>value = [0, 0, 1, 0, 0]<br/>class = Audio>, fillcolor="#39e5c5"] ;
523 -> 524 ;
525 [label=<UDP Src Port &le; 59789.0<br/>gini = 0.278<br/>samples = 6<br/>value = [0, 0, 1, 0, 5]<br/>class = Other>, fillcolor="#ea61cd"] ;
523 -> 525 ;
526 [label=<gini = 0.0<br/>samples = 3<br/>value = [0, 0, 0, 0, 3]<br/>class = Other>, fillcolor="#e539c0"] ;
525 -> 526 ;
527 [label=<UDP Src Port &le; 60170.0<br/>gini = 0.444<br/>samples = 3<br/>value = [0, 0, 1, 0, 2]<br/>class = Other>, fillcolor="#f29ce0"] ;
525 -> 527 ;
528 [label=<gini = 0.0<br/>samples = 1<br/>value = [0, 0, 1, 0, 0]<br/>class = Audio>, fillcolor="#39e5c5"] ;
527 -> 528 ;
529 [label=<gini = 0.0<br/>samples = 2<br/>value = [0, 0, 0, 0, 2]<br/>class = Other>, fillcolor="#e539c0"] ;
527 -> 529 ;
530 [label=<gini = 0.0<br/>samples = 44<br/>value = [0, 0, 0, 0, 44]<br/>class = Other>, fillcolor="#e539c0"] ;
512 -> 530 ;
531 [label=<Frame Length &le; 88.5<br/>gini = 0.564<br/>samples = 297<br/>value = [0, 0, 23, 123, 151]<br/>class = Other>, fillcolor="#fbdff5"] ;
489 -> 531 ;
532 [label=<Frame Length &le; 86.5<br/>gini = 0.312<br/>samples = 151<br/>value = [0, 0, 23, 123, 5]<br/>class = Video>, fillcolor="#6764eb"] ;
531 -> 532 ;
533 [label=<Frame Length &le; 84.0<br/>gini = 0.062<br/>samples = 126<br/>value = [0, 0, 1, 122, 3]<br/>class = Video>, fillcolor="#423fe6"] ;
532 -> 533 ;
534 [label=<UDP Src Port &le; 59285.0<br/>gini = 0.035<br/>samples = 112<br/>value = [0, 0, 0, 110, 2]<br/>class = Video>, fillcolor="#403de5"] ;
533 -> 534 ;
535 [label=<UDP Src Port &le; 44194.0<br/>gini = 0.019<br/>samples = 102<br/>value = [0, 0, 0, 101, 1]<br/>class = Video>, fillcolor="#3e3be5"] ;
534 -> 535 ;
536 [label=<UDP Src Port &le; 44020.0<br/>gini = 0.041<br/>samples = 48<br/>value = [0, 0, 0, 47, 1]<br/>class = Video>, fillcolor="#403de6"] ;
535 -> 536 ;
537 [label=<gini = 0.0<br/>samples = 47<br/>value = [0, 0, 0, 47, 0]<br/>class = Video>, fillcolor="#3c39e5"] ;
536 -> 537 ;
538 [label=<gini = 0.0<br/>samples = 1<br/>value = [0, 0, 0, 0, 1]<br/>class = Other>, fillcolor="#e539c0"] ;
536 -> 538 ;
539 [label=<gini = 0.0<br/>samples = 54<br/>value = [0, 0, 0, 54, 0]<br/>class = Video>, fillcolor="#3c39e5"] ;
535 -> 539 ;
540 [label=<UDP Src Port &le; 59736.0<br/>gini = 0.18<br/>samples = 10<br/>value = [0, 0, 0, 9, 1]<br/>class = Video>, fillcolor="#524fe8"] ;
534 -> 540 ;
541 [label=<gini = 0.0<br/>samples = 1<br/>value = [0, 0, 0, 0, 1]<br/>class = Other>, fillcolor="#e539c0"] ;
540 -> 541 ;
542 [label=<gini = 0.0<br/>samples = 9<br/>value = [0, 0, 0, 9, 0]<br/>class = Video>, fillcolor="#3c39e5"] ;
540 -> 542 ;
543 [label=<Frame Length &le; 85.5<br/>gini = 0.255<br/>samples = 14<br/>value = [0, 0, 1, 12, 1]<br/>class = Video>, fillcolor="#5a57e9"] ;
533 -> 543 ;
544 [label=<gini = 0.0<br/>samples = 1<br/>value = [0, 0, 0, 0, 1]<br/>class = Other>, fillcolor="#e539c0"] ;
543 -> 544 ;
545 [label=<UDP Src Port &le; 42913.0<br/>gini = 0.142<br/>samples = 13<br/>value = [0, 0, 1, 12, 0]<br/>class = Video>, fillcolor="#4c49e7"] ;
543 -> 545 ;
546 [label=<UDP Src Port &le; 42315.0<br/>gini = 0.375<br/>samples = 4<br/>value = [0, 0, 1, 3, 0]<br/>class = Video>, fillcolor="#7d7bee"] ;
545 -> 546 ;
547 [label=<gini = 0.0<br/>samples = 3<br/>value = [0, 0, 0, 3, 0]<br/>class = Video>, fillcolor="#3c39e5"] ;
546 -> 547 ;
548 [label=<gini = 0.0<br/>samples = 1<br/>value = [0, 0, 1, 0, 0]<br/>class = Audio>, fillcolor="#39e5c5"] ;
546 -> 548 ;
549 [label=<gini = 0.0<br/>samples = 9<br/>value = [0, 0, 0, 9, 0]<br/>class = Video>, fillcolor="#3c39e5"] ;
545 -> 549 ;
550 [label=<IP Protocol_17 &le; 0.5<br/>gini = 0.218<br/>samples = 25<br/>value = [0, 0, 22, 1, 2]<br/>class = Audio>, fillcolor="#53e8cd"] ;
532 -> 550 ;
551 [label=<gini = 0.0<br/>samples = 2<br/>value = [0, 0, 0, 0, 2]<br/>class = Other>, fillcolor="#e539c0"] ;
550 -> 551 ;
552 [label=<UDP Src Port &le; 61035.0<br/>gini = 0.083<br/>samples = 23<br/>value = [0, 0, 22, 1, 0]<br/>class = Audio>, fillcolor="#42e6c8"] ;
550 -> 552 ;
553 [label=<gini = 0.0<br/>samples = 22<br/>value = [0, 0, 22, 0, 0]<br/>class = Audio>, fillcolor="#39e5c5"] ;
552 -> 553 ;
554 [label=<gini = 0.0<br/>samples = 1<br/>value = [0, 0, 0, 1, 0]<br/>class = Video>, fillcolor="#3c39e5"] ;
552 -> 554 ;
555 [label=<gini = 0.0<br/>samples = 146<br/>value = [0, 0, 0, 0, 146]<br/>class = Other>, fillcolor="#e539c0"] ;
531 -> 555 ;
556 [label=<UDP Dst Port &le; 283.0<br/>gini = 0.314<br/>samples = 472<br/>value = [0, 0, 386, 37, 49]<br/>class = Audio>, fillcolor="#61ead1"] ;
488 -> 556 ;
557 [label=<UDP Src Port &le; 46323.0<br/>gini = 0.197<br/>samples = 433<br/>value = [0, 0, 386, 37, 10]<br/>class = Audio>, fillcolor="#51e8cc"] ;
556 -> 557 ;
558 [label=<UDP Src Port &le; 43650.0<br/>gini = 0.293<br/>samples = 165<br/>value = [0, 0, 137, 21, 7]<br/>class = Audio>, fillcolor="#60ead0"] ;
557 -> 558 ;
559 [label=<UDP Src Port &le; 35519.5<br/>gini = 0.223<br/>samples = 130<br/>value = [0, 0, 114, 9, 7]<br/>class = Audio>, fillcolor="#53e8cd"] ;
558 -> 559 ;
560 [label=<UDP Src Port &le; 34662.5<br/>gini = 0.04<br/>samples = 49<br/>value = [0, 0, 48, 0, 1]<br/>class = Audio>, fillcolor="#3de6c6"] ;
559 -> 560 ;
561 [label=<gini = 0.0<br/>samples = 36<br/>value = [0, 0, 36, 0, 0]<br/>class = Audio>, fillcolor="#39e5c5"] ;
560 -> 561 ;
562 [label=<UDP Src Port &le; 34734.0<br/>gini = 0.142<br/>samples = 13<br/>value = [0, 0, 12, 0, 1]<br/>class = Audio>, fillcolor="#49e7ca"] ;
560 -> 562 ;
563 [label=<gini = 0.0<br/>samples = 1<br/>value = [0, 0, 0, 0, 1]<br/>class = Other>, fillcolor="#e539c0"] ;
562 -> 563 ;
564 [label=<gini = 0.0<br/>samples = 12<br/>value = [0, 0, 12, 0, 0]<br/>class = Audio>, fillcolor="#39e5c5"] ;
562 -> 564 ;
565 [label=<UDP Src Port &le; 35853.5<br/>gini = 0.318<br/>samples = 81<br/>value = [0, 0, 66, 9, 6]<br/>class = Audio>, fillcolor="#62ead1"] ;
559 -> 565 ;
566 [label=<gini = 0.0<br/>samples = 2<br/>value = [0, 0, 0, 2, 0]<br/>class = Video>, fillcolor="#3c39e5"] ;
565 -> 566 ;
567 [label=<UDP Src Port &le; 37586.5<br/>gini = 0.288<br/>samples = 79<br/>value = [0, 0, 66, 7, 6]<br/>class = Audio>, fillcolor="#5deacf"] ;
565 -> 567 ;
568 [label=<UDP Src Port &le; 37171.5<br/>gini = 0.531<br/>samples = 8<br/>value = [0, 0, 5, 2, 1]<br/>class = Audio>, fillcolor="#9cf2e2"] ;
567 -> 568 ;
569 [label=<UDP Src Port &le; 36524.0<br/>gini = 0.278<br/>samples = 6<br/>value = [0, 0, 5, 0, 1]<br/>class = Audio>, fillcolor="#61ead1"] ;
568 -> 569 ;
570 [label=<UDP Src Port &le; 36348.5<br/>gini = 0.444<br/>samples = 3<br/>value = [0, 0, 2, 0, 1]<br/>class = Audio>, fillcolor="#9cf2e2"] ;
569 -> 570 ;
571 [label=<gini = 0.0<br/>samples = 2<br/>value = [0, 0, 2, 0, 0]<br/>class = Audio>, fillcolor="#39e5c5"] ;
570 -> 571 ;
572 [label=<gini = 0.0<br/>samples = 1<br/>value = [0, 0, 0, 0, 1]<br/>class = Other>, fillcolor="#e539c0"] ;
570 -> 572 ;
573 [label=<gini = 0.0<br/>samples = 3<br/>value = [0, 0, 3, 0, 0]<br/>class = Audio>, fillcolor="#39e5c5"] ;
569 -> 573 ;
574 [label=<gini = 0.0<br/>samples = 2<br/>value = [0, 0, 0, 2, 0]<br/>class = Video>, fillcolor="#3c39e5"] ;
568 -> 574 ;
575 [label=<UDP Src Port &le; 42690.0<br/>gini = 0.252<br/>samples = 71<br/>value = [0, 0, 61, 5, 5]<br/>class = Audio>, fillcolor="#57e9ce"] ;
567 -> 575 ;
576 [label=<UDP Src Port &le; 39981.0<br/>gini = 0.215<br/>samples = 59<br/>value = [0, 0, 52, 5, 2]<br/>class = Audio>, fillcolor="#53e8cd"] ;
575 -> 576 ;
577 [label=<UDP Src Port &le; 38148.0<br/>gini = 0.095<br/>samples = 20<br/>value = [0, 0, 19, 0, 1]<br/>class = Audio>, fillcolor="#43e6c8"] ;
576 -> 577 ;
578 [label=<UDP Src Port &le; 38043.5<br/>gini = 0.278<br/>samples = 6<br/>value = [0, 0, 5, 0, 1]<br/>class = Audio>, fillcolor="#61ead1"] ;
577 -> 578 ;
579 [label=<gini = 0.0<br/>samples = 5<br/>value = [0, 0, 5, 0, 0]<br/>class = Audio>, fillcolor="#39e5c5"] ;
578 -> 579 ;
580 [label=<gini = 0.0<br/>samples = 1<br/>value = [0, 0, 0, 0, 1]<br/>class = Other>, fillcolor="#e539c0"] ;
578 -> 580 ;
581 [label=<gini = 0.0<br/>samples = 14<br/>value = [0, 0, 14, 0, 0]<br/>class = Audio>, fillcolor="#39e5c5"] ;
577 -> 581 ;
582 [label=<UDP Src Port &le; 40133.5<br/>gini = 0.267<br/>samples = 39<br/>value = [0, 0, 33, 5, 1]<br/>class = Audio>, fillcolor="#5ceacf"] ;
576 -> 582 ;
583 [label=<gini = 0.0<br/>samples = 1<br/>value = [0, 0, 0, 1, 0]<br/>class = Video>, fillcolor="#3c39e5"] ;
582 -> 583 ;
584 [label=<UDP Src Port &le; 41054.0<br/>gini = 0.234<br/>samples = 38<br/>value = [0, 0, 33, 4, 1]<br/>class = Audio>, fillcolor="#56e9ce"] ;
582 -> 584 ;
585 [label=<gini = 0.0<br/>samples = 9<br/>value = [0, 0, 9, 0, 0]<br/>class = Audio>, fillcolor="#39e5c5"] ;
584 -> 585 ;
586 [label=<UDP Src Port &le; 41118.0<br/>gini = 0.295<br/>samples = 29<br/>value = [0, 0, 24, 4, 1]<br/>class = Audio>, fillcolor="#61ead1"] ;
584 -> 586 ;
587 [label=<gini = 0.0<br/>samples = 1<br/>value = [0, 0, 0, 1, 0]<br/>class = Video>, fillcolor="#3c39e5"] ;
586 -> 587 ;
588 [label=<UDP Src Port &le; 42524.0<br/>gini = 0.253<br/>samples = 28<br/>value = [0, 0, 24, 3, 1]<br/>class = Audio>, fillcolor="#59e9ce"] ;
586 -> 588 ;
589 [label=<UDP Src Port &le; 42046.0<br/>gini = 0.218<br/>samples = 25<br/>value = [0, 0, 22, 2, 1]<br/>class = Audio>, fillcolor="#53e8cd"] ;
588 -> 589 ;
590 [label=<UDP Src Port &le; 41983.5<br/>gini = 0.278<br/>samples = 12<br/>value = [0, 0, 10, 2, 0]<br/>class = Audio>, fillcolor="#61ead1"] ;
589 -> 590 ;
591 [label=<UDP Src Port &le; 41720.0<br/>gini = 0.165<br/>samples = 11<br/>value = [0, 0, 10, 1, 0]<br/>class = Audio>, fillcolor="#4de8cb"] ;
590 -> 591 ;
592 [label=<gini = 0.0<br/>samples = 6<br/>value = [0, 0, 6, 0, 0]<br/>class = Audio>, fillcolor="#39e5c5"] ;
591 -> 592 ;
593 [label=<UDP Src Port &le; 41867.5<br/>gini = 0.32<br/>samples = 5<br/>value = [0, 0, 4, 1, 0]<br/>class = Audio>, fillcolor="#6aecd4"] ;
591 -> 593 ;
594 [label=<gini = 0.0<br/>samples = 1<br/>value = [0, 0, 0, 1, 0]<br/>class = Video>, fillcolor="#3c39e5"] ;
593 -> 594 ;
595 [label=<gini = 0.0<br/>samples = 4<br/>value = [0, 0, 4, 0, 0]<br/>class = Audio>, fillcolor="#39e5c5"] ;
593 -> 595 ;
596 [label=<gini = 0.0<br/>samples = 1<br/>value = [0, 0, 0, 1, 0]<br/>class = Video>, fillcolor="#3c39e5"] ;
590 -> 596 ;
597 [label=<UDP Src Port &le; 42121.0<br/>gini = 0.142<br/>samples = 13<br/>value = [0, 0, 12, 0, 1]<br/>class = Audio>, fillcolor="#49e7ca"] ;
589 -> 597 ;
598 [label=<UDP Src Port &le; 42095.0<br/>gini = 0.278<br/>samples = 6<br/>value = [0, 0, 5, 0, 1]<br/>class = Audio>, fillcolor="#61ead1"] ;
597 -> 598 ;
599 [label=<gini = 0.0<br/>samples = 5<br/>value = [0, 0, 5, 0, 0]<br/>class = Audio>, fillcolor="#39e5c5"] ;
598 -> 599 ;
600 [label=<gini = 0.0<br/>samples = 1<br/>value = [0, 0, 0, 0, 1]<br/>class = Other>, fillcolor="#e539c0"] ;
598 -> 600 ;
601 [label=<gini = 0.0<br/>samples = 7<br/>value = [0, 0, 7, 0, 0]<br/>class = Audio>, fillcolor="#39e5c5"] ;
597 -> 601 ;
602 [label=<UDP Src Port &le; 42600.5<br/>gini = 0.444<br/>samples = 3<br/>value = [0, 0, 2, 1, 0]<br/>class = Audio>, fillcolor="#9cf2e2"] ;
588 -> 602 ;
603 [label=<gini = 0.0<br/>samples = 1<br/>value = [0, 0, 0, 1, 0]<br/>class = Video>, fillcolor="#3c39e5"] ;
602 -> 603 ;
604 [label=<gini = 0.0<br/>samples = 2<br/>value = [0, 0, 2, 0, 0]<br/>class = Audio>, fillcolor="#39e5c5"] ;
602 -> 604 ;
605 [label=<UDP Src Port &le; 42797.5<br/>gini = 0.375<br/>samples = 12<br/>value = [0, 0, 9, 0, 3]<br/>class = Audio>, fillcolor="#7beed8"] ;
575 -> 605 ;
606 [label=<gini = 0.0<br/>samples = 1<br/>value = [0, 0, 0, 0, 1]<br/>class = Other>, fillcolor="#e539c0"] ;
605 -> 606 ;
607 [label=<UDP Src Port &le; 43561.5<br/>gini = 0.298<br/>samples = 11<br/>value = [0, 0, 9, 0, 2]<br/>class = Audio>, fillcolor="#65ebd2"] ;
605 -> 607 ;
608 [label=<UDP Src Port &le; 43526.5<br/>gini = 0.375<br/>samples = 8<br/>value = [0, 0, 6, 0, 2]<br/>class = Audio>, fillcolor="#7beed8"] ;
607 -> 608 ;
609 [label=<UDP Src Port &le; 42916.0<br/>gini = 0.245<br/>samples = 7<br/>value = [0, 0, 6, 0, 1]<br/>class = Audio>, fillcolor="#5ae9cf"] ;
608 -> 609 ;
610 [label=<UDP Src Port &le; 42878.0<br/>gini = 0.444<br/>samples = 3<br/>value = [0, 0, 2, 0, 1]<br/>class = Audio>, fillcolor="#9cf2e2"] ;
609 -> 610 ;
611 [label=<gini = 0.0<br/>samples = 2<br/>value = [0, 0, 2, 0, 0]<br/>class = Audio>, fillcolor="#39e5c5"] ;
610 -> 611 ;
612 [label=<gini = 0.0<br/>samples = 1<br/>value = [0, 0, 0, 0, 1]<br/>class = Other>, fillcolor="#e539c0"] ;
610 -> 612 ;
613 [label=<gini = 0.0<br/>samples = 4<br/>value = [0, 0, 4, 0, 0]<br/>class = Audio>, fillcolor="#39e5c5"] ;
609 -> 613 ;
614 [label=<gini = 0.0<br/>samples = 1<br/>value = [0, 0, 0, 0, 1]<br/>class = Other>, fillcolor="#e539c0"] ;
608 -> 614 ;
615 [label=<gini = 0.0<br/>samples = 3<br/>value = [0, 0, 3, 0, 0]<br/>class = Audio>, fillcolor="#39e5c5"] ;
607 -> 615 ;
616 [label=<UDP Src Port &le; 44624.5<br/>gini = 0.451<br/>samples = 35<br/>value = [0, 0, 23, 12, 0]<br/>class = Audio>, fillcolor="#a0f3e3"] ;
558 -> 616 ;
617 [label=<UDP Src Port &le; 44111.5<br/>gini = 0.473<br/>samples = 13<br/>value = [0, 0, 5, 8, 0]<br/>class = Video>, fillcolor="#b6b5f5"] ;
616 -> 617 ;
618 [label=<UDP Src Port &le; 43754.0<br/>gini = 0.408<br/>samples = 7<br/>value = [0, 0, 5, 2, 0]<br/>class = Audio>, fillcolor="#88efdc"] ;
617 -> 618 ;
619 [label=<UDP Src Port &le; 43691.0<br/>gini = 0.444<br/>samples = 3<br/>value = [0, 0, 1, 2, 0]<br/>class = Video>, fillcolor="#9e9cf2"] ;
618 -> 619 ;
620 [label=<gini = 0.0<br/>samples = 1<br/>value = [0, 0, 0, 1, 0]<br/>class = Video>, fillcolor="#3c39e5"] ;
619 -> 620 ;
621 [label=<UDP Src Port &le; 43721.5<br/>gini = 0.5<br/>samples = 2<br/>value = [0, 0, 1, 1, 0]<br/>class = Audio>, fillcolor="#ffffff"] ;
619 -> 621 ;
622 [label=<gini = 0.0<br/>samples = 1<br/>value = [0, 0, 1, 0, 0]<br/>class = Audio>, fillcolor="#39e5c5"] ;
621 -> 622 ;
623 [label=<gini = 0.0<br/>samples = 1<br/>value = [0, 0, 0, 1, 0]<br/>class = Video>, fillcolor="#3c39e5"] ;
621 -> 623 ;
624 [label=<gini = 0.0<br/>samples = 4<br/>value = [0, 0, 4, 0, 0]<br/>class = Audio>, fillcolor="#39e5c5"] ;
618 -> 624 ;
625 [label=<gini = 0.0<br/>samples = 6<br/>value = [0, 0, 0, 6, 0]<br/>class = Video>, fillcolor="#3c39e5"] ;
617 -> 625 ;
626 [label=<UDP Src Port &le; 45109.0<br/>gini = 0.298<br/>samples = 22<br/>value = [0, 0, 18, 4, 0]<br/>class = Audio>, fillcolor="#65ebd2"] ;
616 -> 626 ;
627 [label=<gini = 0.0<br/>samples = 12<br/>value = [0, 0, 12, 0, 0]<br/>class = Audio>, fillcolor="#39e5c5"] ;
626 -> 627 ;
628 [label=<UDP Src Port &le; 45456.5<br/>gini = 0.48<br/>samples = 10<br/>value = [0, 0, 6, 4, 0]<br/>class = Audio>, fillcolor="#bdf6ec"] ;
626 -> 628 ;
629 [label=<gini = 0.0<br/>samples = 2<br/>value = [0, 0, 0, 2, 0]<br/>class = Video>, fillcolor="#3c39e5"] ;
628 -> 629 ;
630 [label=<UDP Src Port &le; 46207.0<br/>gini = 0.375<br/>samples = 8<br/>value = [0, 0, 6, 2, 0]<br/>class = Audio>, fillcolor="#7beed8"] ;
628 -> 630 ;
631 [label=<UDP Src Port &le; 46002.0<br/>gini = 0.245<br/>samples = 7<br/>value = [0, 0, 6, 1, 0]<br/>class = Audio>, fillcolor="#5ae9cf"] ;
630 -> 631 ;
632 [label=<gini = 0.0<br/>samples = 4<br/>value = [0, 0, 4, 0, 0]<br/>class = Audio>, fillcolor="#39e5c5"] ;
631 -> 632 ;
633 [label=<UDP Src Port &le; 46089.5<br/>gini = 0.444<br/>samples = 3<br/>value = [0, 0, 2, 1, 0]<br/>class = Audio>, fillcolor="#9cf2e2"] ;
631 -> 633 ;
634 [label=<gini = 0.0<br/>samples = 1<br/>value = [0, 0, 0, 1, 0]<br/>class = Video>, fillcolor="#3c39e5"] ;
633 -> 634 ;
635 [label=<gini = 0.0<br/>samples = 2<br/>value = [0, 0, 2, 0, 0]<br/>class = Audio>, fillcolor="#39e5c5"] ;
633 -> 635 ;
636 [label=<gini = 0.0<br/>samples = 1<br/>value = [0, 0, 0, 1, 0]<br/>class = Video>, fillcolor="#3c39e5"] ;
630 -> 636 ;
637 [label=<UDP Src Port &le; 58393.0<br/>gini = 0.133<br/>samples = 268<br/>value = [0, 0, 249, 16, 3]<br/>class = Audio>, fillcolor="#48e7c9"] ;
557 -> 637 ;
638 [label=<UDP Src Port &le; 50144.0<br/>gini = 0.096<br/>samples = 239<br/>value = [0, 0, 227, 9, 3]<br/>class = Audio>, fillcolor="#43e6c8"] ;
637 -> 638 ;
639 [label=<UDP Src Port &le; 48272.0<br/>gini = 0.203<br/>samples = 63<br/>value = [0, 0, 56, 5, 2]<br/>class = Audio>, fillcolor="#51e8cc"] ;
638 -> 639 ;
640 [label=<UDP Src Port &le; 46744.0<br/>gini = 0.041<br/>samples = 48<br/>value = [0, 0, 47, 1, 0]<br/>class = Audio>, fillcolor="#3de6c6"] ;
639 -> 640 ;
641 [label=<UDP Src Port &le; 46660.5<br/>gini = 0.111<br/>samples = 17<br/>value = [0, 0, 16, 1, 0]<br/>class = Audio>, fillcolor="#45e7c9"] ;
640 -> 641 ;
642 [label=<gini = 0.0<br/>samples = 16<br/>value = [0, 0, 16, 0, 0]<br/>class = Audio>, fillcolor="#39e5c5"] ;
641 -> 642 ;
643 [label=<gini = 0.0<br/>samples = 1<br/>value = [0, 0, 0, 1, 0]<br/>class = Video>, fillcolor="#3c39e5"] ;
641 -> 643 ;
644 [label=<gini = 0.0<br/>samples = 31<br/>value = [0, 0, 31, 0, 0]<br/>class = Audio>, fillcolor="#39e5c5"] ;
640 -> 644 ;
645 [label=<UDP Src Port &le; 49143.0<br/>gini = 0.551<br/>samples = 15<br/>value = [0, 0, 9, 4, 2]<br/>class = Audio>, fillcolor="#a5f3e5"] ;
639 -> 645 ;
646 [label=<UDP Src Port &le; 48696.5<br/>gini = 0.5<br/>samples = 2<br/>value = [0, 0, 0, 1, 1]<br/>class = Video>, fillcolor="#ffffff"] ;
645 -> 646 ;
647 [label=<gini = 0.0<br/>samples = 1<br/>value = [0, 0, 0, 1, 0]<br/>class = Video>, fillcolor="#3c39e5"] ;
646 -> 647 ;
648 [label=<gini = 0.0<br/>samples = 1<br/>value = [0, 0, 0, 0, 1]<br/>class = Other>, fillcolor="#e539c0"] ;
646 -> 648 ;
649 [label=<UDP Src Port &le; 49970.5<br/>gini = 0.462<br/>samples = 13<br/>value = [0, 0, 9, 3, 1]<br/>class = Audio>, fillcolor="#88efdc"] ;
645 -> 649 ;
650 [label=<UDP Src Port &le; 49476.0<br/>gini = 0.375<br/>samples = 12<br/>value = [0, 0, 9, 3, 0]<br/>class = Audio>, fillcolor="#7beed8"] ;
649 -> 650 ;
651 [label=<gini = 0.0<br/>samples = 5<br/>value = [0, 0, 5, 0, 0]<br/>class = Audio>, fillcolor="#39e5c5"] ;
650 -> 651 ;
652 [label=<UDP Src Port &le; 49885.0<br/>gini = 0.49<br/>samples = 7<br/>value = [0, 0, 4, 3, 0]<br/>class = Audio>, fillcolor="#cef8f0"] ;
650 -> 652 ;
653 [label=<gini = 0.0<br/>samples = 3<br/>value = [0, 0, 0, 3, 0]<br/>class = Video>, fillcolor="#3c39e5"] ;
652 -> 653 ;
654 [label=<gini = 0.0<br/>samples = 4<br/>value = [0, 0, 4, 0, 0]<br/>class = Audio>, fillcolor="#39e5c5"] ;
652 -> 654 ;
655 [label=<gini = 0.0<br/>samples = 1<br/>value = [0, 0, 0, 0, 1]<br/>class = Other>, fillcolor="#e539c0"] ;
649 -> 655 ;
656 [label=<UDP Src Port &le; 52785.0<br/>gini = 0.055<br/>samples = 176<br/>value = [0, 0, 171, 4, 1]<br/>class = Audio>, fillcolor="#3fe6c7"] ;
638 -> 656 ;
657 [label=<UDP Src Port &le; 51243.0<br/>gini = 0.023<br/>samples = 87<br/>value = [0, 0, 86, 1, 0]<br/>class = Audio>, fillcolor="#3be5c6"] ;
656 -> 657 ;
658 [label=<UDP Src Port &le; 51116.5<br/>gini = 0.095<br/>samples = 20<br/>value = [0, 0, 19, 1, 0]<br/>class = Audio>, fillcolor="#43e6c8"] ;
657 -> 658 ;
659 [label=<gini = 0.0<br/>samples = 19<br/>value = [0, 0, 19, 0, 0]<br/>class = Audio>, fillcolor="#39e5c5"] ;
658 -> 659 ;
660 [label=<gini = 0.0<br/>samples = 1<br/>value = [0, 0, 0, 1, 0]<br/>class = Video>, fillcolor="#3c39e5"] ;
658 -> 660 ;
661 [label=<gini = 0.0<br/>samples = 67<br/>value = [0, 0, 67, 0, 0]<br/>class = Audio>, fillcolor="#39e5c5"] ;
657 -> 661 ;
662 [label=<UDP Src Port &le; 52846.0<br/>gini = 0.087<br/>samples = 89<br/>value = [0, 0, 85, 3, 1]<br/>class = Audio>, fillcolor="#42e6c8"] ;
656 -> 662 ;
663 [label=<gini = 0.0<br/>samples = 1<br/>value = [0, 0, 0, 1, 0]<br/>class = Video>, fillcolor="#3c39e5"] ;
662 -> 663 ;
664 [label=<UDP Src Port &le; 54351.5<br/>gini = 0.066<br/>samples = 88<br/>value = [0, 0, 85, 2, 1]<br/>class = Audio>, fillcolor="#40e6c7"] ;
662 -> 664 ;
665 [label=<gini = 0.0<br/>samples = 31<br/>value = [0, 0, 31, 0, 0]<br/>class = Audio>, fillcolor="#39e5c5"] ;
664 -> 665 ;
666 [label=<UDP Src Port &le; 54401.5<br/>gini = 0.101<br/>samples = 57<br/>value = [0, 0, 54, 2, 1]<br/>class = Audio>, fillcolor="#44e6c8"] ;
664 -> 666 ;
667 [label=<gini = 0.0<br/>samples = 1<br/>value = [0, 0, 0, 1, 0]<br/>class = Video>, fillcolor="#3c39e5"] ;
666 -> 667 ;
668 [label=<UDP Src Port &le; 55188.5<br/>gini = 0.07<br/>samples = 56<br/>value = [0, 0, 54, 1, 1]<br/>class = Audio>, fillcolor="#40e6c7"] ;
666 -> 668 ;
669 [label=<UDP Src Port &le; 54825.5<br/>gini = 0.32<br/>samples = 5<br/>value = [0, 0, 4, 0, 1]<br/>class = Audio>, fillcolor="#6aecd4"] ;
668 -> 669 ;
670 [label=<gini = 0.0<br/>samples = 4<br/>value = [0, 0, 4, 0, 0]<br/>class = Audio>, fillcolor="#39e5c5"] ;
669 -> 670 ;
671 [label=<gini = 0.0<br/>samples = 1<br/>value = [0, 0, 0, 0, 1]<br/>class = Other>, fillcolor="#e539c0"] ;
669 -> 671 ;
672 [label=<UDP Src Port &le; 57794.5<br/>gini = 0.038<br/>samples = 51<br/>value = [0, 0, 50, 1, 0]<br/>class = Audio>, fillcolor="#3de6c6"] ;
668 -> 672 ;
673 [label=<gini = 0.0<br/>samples = 31<br/>value = [0, 0, 31, 0, 0]<br/>class = Audio>, fillcolor="#39e5c5"] ;
672 -> 673 ;
674 [label=<UDP Src Port &le; 57932.0<br/>gini = 0.095<br/>samples = 20<br/>value = [0, 0, 19, 1, 0]<br/>class = Audio>, fillcolor="#43e6c8"] ;
672 -> 674 ;
675 [label=<gini = 0.0<br/>samples = 1<br/>value = [0, 0, 0, 1, 0]<br/>class = Video>, fillcolor="#3c39e5"] ;
674 -> 675 ;
676 [label=<gini = 0.0<br/>samples = 19<br/>value = [0, 0, 19, 0, 0]<br/>class = Audio>, fillcolor="#39e5c5"] ;
674 -> 676 ;
677 [label=<UDP Src Port &le; 58824.5<br/>gini = 0.366<br/>samples = 29<br/>value = [0, 0, 22, 7, 0]<br/>class = Audio>, fillcolor="#78edd7"] ;
637 -> 677 ;
678 [label=<UDP Src Port &le; 58531.0<br/>gini = 0.48<br/>samples = 5<br/>value = [0, 0, 2, 3, 0]<br/>class = Video>, fillcolor="#bebdf6"] ;
677 -> 678 ;
679 [label=<UDP Src Port &le; 58462.0<br/>gini = 0.444<br/>samples = 3<br/>value = [0, 0, 2, 1, 0]<br/>class = Audio>, fillcolor="#9cf2e2"] ;
678 -> 679 ;
680 [label=<gini = 0.0<br/>samples = 1<br/>value = [0, 0, 0, 1, 0]<br/>class = Video>, fillcolor="#3c39e5"] ;
679 -> 680 ;
681 [label=<gini = 0.0<br/>samples = 2<br/>value = [0, 0, 2, 0, 0]<br/>class = Audio>, fillcolor="#39e5c5"] ;
679 -> 681 ;
682 [label=<gini = 0.0<br/>samples = 2<br/>value = [0, 0, 0, 2, 0]<br/>class = Video>, fillcolor="#3c39e5"] ;
678 -> 682 ;
683 [label=<UDP Src Port &le; 60679.0<br/>gini = 0.278<br/>samples = 24<br/>value = [0, 0, 20, 4, 0]<br/>class = Audio>, fillcolor="#61ead1"] ;
677 -> 683 ;
684 [label=<UDP Src Port &le; 59755.0<br/>gini = 0.346<br/>samples = 18<br/>value = [0, 0, 14, 4, 0]<br/>class = Audio>, fillcolor="#72ecd6"] ;
683 -> 684 ;
685 [label=<UDP Src Port &le; 59402.0<br/>gini = 0.153<br/>samples = 12<br/>value = [0, 0, 11, 1, 0]<br/>class = Audio>, fillcolor="#4be7ca"] ;
684 -> 685 ;
686 [label=<UDP Src Port &le; 59199.5<br/>gini = 0.444<br/>samples = 3<br/>value = [0, 0, 2, 1, 0]<br/>class = Audio>, fillcolor="#9cf2e2"] ;
685 -> 686 ;
687 [label=<gini = 0.0<br/>samples = 2<br/>value = [0, 0, 2, 0, 0]<br/>class = Audio>, fillcolor="#39e5c5"] ;
686 -> 687 ;
688 [label=<gini = 0.0<br/>samples = 1<br/>value = [0, 0, 0, 1, 0]<br/>class = Video>, fillcolor="#3c39e5"] ;
686 -> 688 ;
689 [label=<gini = 0.0<br/>samples = 9<br/>value = [0, 0, 9, 0, 0]<br/>class = Audio>, fillcolor="#39e5c5"] ;
685 -> 689 ;
690 [label=<UDP Src Port &le; 60354.5<br/>gini = 0.5<br/>samples = 6<br/>value = [0, 0, 3, 3, 0]<br/>class = Audio>, fillcolor="#ffffff"] ;
684 -> 690 ;
691 [label=<gini = 0.0<br/>samples = 2<br/>value = [0, 0, 0, 2, 0]<br/>class = Video>, fillcolor="#3c39e5"] ;
690 -> 691 ;
692 [label=<UDP Src Port &le; 60548.0<br/>gini = 0.375<br/>samples = 4<br/>value = [0, 0, 3, 1, 0]<br/>class = Audio>, fillcolor="#7beed8"] ;
690 -> 692 ;
693 [label=<gini = 0.0<br/>samples = 3<br/>value = [0, 0, 3, 0, 0]<br/>class = Audio>, fillcolor="#39e5c5"] ;
692 -> 693 ;
694 [label=<gini = 0.0<br/>samples = 1<br/>value = [0, 0, 0, 1, 0]<br/>class = Video>, fillcolor="#3c39e5"] ;
692 -> 694 ;
695 [label=<gini = 0.0<br/>samples = 6<br/>value = [0, 0, 6, 0, 0]<br/>class = Audio>, fillcolor="#39e5c5"] ;
683 -> 695 ;
696 [label=<gini = 0.0<br/>samples = 39<br/>value = [0, 0, 0, 0, 39]<br/>class = Other>, fillcolor="#e539c0"] ;
556 -> 696 ;
697 [label=<Frame Length &le; 612.0<br/>gini = 0.01<br/>samples = 11093<br/>value = [0, 0, 22, 11035, 36]<br/>class = Video>, fillcolor="#3d3ae5"] ;
421 -> 697 ;
698 [label=<UDP Dst Port &le; 4927.5<br/>gini = 0.007<br/>samples = 11073<br/>value = [0, 0, 22, 11035, 16]<br/>class = Video>, fillcolor="#3d3ae5"] ;
697 -> 698 ;
699 [label=<UDP Src Port &le; 59515.5<br/>gini = 0.004<br/>samples = 11058<br/>value = [0, 0, 22, 11035, 1]<br/>class = Video>, fillcolor="#3c39e5"] ;
698 -> 699 ;
700 [label=<Frame Length &le; 168.5<br/>gini = 0.004<br/>samples = 11057<br/>value = [0, 0, 22, 11035, 0]<br/>class = Video>, fillcolor="#3c39e5"] ;
699 -> 700 ;
701 [label=<Frame Length &le; 143.0<br/>gini = 0.042<br/>samples = 1018<br/>value = [0, 0, 22, 996, 0]<br/>class = Video>, fillcolor="#403de6"] ;
700 -> 701 ;
702 [label=<gini = 0.0<br/>samples = 996<br/>value = [0, 0, 0, 996, 0]<br/>class = Video>, fillcolor="#3c39e5"] ;
701 -> 702 ;
703 [label=<gini = 0.0<br/>samples = 22<br/>value = [0, 0, 22, 0, 0]<br/>class = Audio>, fillcolor="#39e5c5"] ;
701 -> 703 ;
704 [label=<gini = 0.0<br/>samples = 10039<br/>value = [0, 0, 0, 10039, 0]<br/>class = Video>, fillcolor="#3c39e5"] ;
700 -> 704 ;
705 [label=<gini = 0.0<br/>samples = 1<br/>value = [0, 0, 0, 0, 1]<br/>class = Other>, fillcolor="#e539c0"] ;
699 -> 705 ;
706 [label=<gini = 0.0<br/>samples = 15<br/>value = [0, 0, 0, 0, 15]<br/>class = Other>, fillcolor="#e539c0"] ;
698 -> 706 ;
707 [label=<gini = 0.0<br/>samples = 20<br/>value = [0, 0, 0, 0, 20]<br/>class = Other>, fillcolor="#e539c0"] ;
697 -> 707 ;
708 [label=<UDP Dst Port &le; 54262.0<br/>gini = 0.107<br/>samples = 1647<br/>value = [0, 0, 1554, 0, 93]<br/>class = Audio>, fillcolor="#45e7c8"] ;
420 -> 708 ;
709 [label=<gini = 0.0<br/>samples = 1554<br/>value = [0, 0, 1554, 0, 0]<br/>class = Audio>, fillcolor="#39e5c5"] ;
708 -> 709 ;
