digraph Tree {
node [shape=box, style="filled, rounded", color="black", fontname="helvetica"] ;
edge [fontname="helvetica"] ;
0 [label=<Bwd Packet Length Max &le; 12332.0<br/>gini = 0.933<br/>samples = 50121<br/>value = [3418, 3365, 3329, 3343, 3392, 3330, 3455, 3257, 3344<br/>3353, 3369, 3239, 3342, 3368, 3217]<br/>class = DoS slowloris>, fillcolor="#ffffff"] ;
1 [label=<Destination Port &le; 22.5<br/>gini = 0.929<br/>samples = 46777<br/>value = [3418, 3365, 3329, 3343, 3392, 3330, 3455, 3257, 0<br/>3353, 3369, 3239, 3342, 3368, 3217]<br/>class = DoS slowloris>, fillcolor="#ffffff"] ;
0 -> 1 [labeldistance=2.5, labelangle=45, headlabel="True"] ;
2 [label=<Destination Port &le; 21.5<br/>gini = 0.51<br/>samples = 6564<br/>value = [25, 0, 0, 0, 0, 0, 0, 3257, 0, 0, 43, 3239, 0<br/>0, 0]<br/>class = FTP-Patator>, fillcolor="#feffff"] ;
1 -> 2 ;
3 [label=<Packet Length Variance &le; 57.971<br/>gini = 0.029<br/>samples = 3306<br/>value = [10, 0, 0, 0, 0, 0, 0, 3257, 0, 0, 39, 0, 0<br/>0, 0]<br/>class = FTP-Patator>, fillcolor="#3cc1e5"] ;
2 -> 3 ;
4 [label=<Packet Length Std &le; 1.0<br/>gini = 0.362<br/>samples = 50<br/>value = [8, 0, 0, 0, 0, 0, 0, 3, 0, 0, 39, 0, 0, 0<br/>0]<br/>class = PortScan>, fillcolor="#a26dec"] ;
3 -> 4 ;
5 [label=<Flow Duration &le; 34883.5<br/>gini = 0.397<br/>samples = 11<br/>value = [8, 0, 0, 0, 0, 0, 0, 3, 0, 0, 0, 0, 0, 0<br/>0]<br/>class = BENIGN>, fillcolor="#efb083"] ;
4 -> 5 ;
6 [label=<gini = 0.0<br/>samples = 8<br/>value = [8, 0, 0, 0, 0, 0, 0, 0, 0, 0, 0, 0, 0, 0<br/>0]<br/>class = BENIGN>, fillcolor="#e58139"] ;
5 -> 6 ;
7 [label=<gini = 0.0<br/>samples = 3<br/>value = [0, 0, 0, 0, 0, 0, 0, 3, 0, 0, 0, 0, 0, 0<br/>0]<br/>class = FTP-Patator>, fillcolor="#39c0e5"] ;
5 -> 7 ;
8 [label=<gini = 0.0<br/>samples = 39<br/>value = [0, 0, 0, 0, 0, 0, 0, 0, 0, 0, 39, 0, 0, 0<br/>0]<br/>class = PortScan>, fillcolor="#8139e5"] ;
4 -> 8 ;
9 [label=<act_data_pkt_fwd &le; 11.5<br/>gini = 0.001<br/>samples = 3256<br/>value = [2, 0, 0, 0, 0, 0, 0, 3254, 0, 0, 0, 0, 0, 0<br/>0]<br/>class = FTP-Patator>, fillcolor="#39c0e5"] ;
3 -> 9 ;
10 [label=<gini = 0.0<br/>samples = 3254<br/>value = [0, 0, 0, 0, 0, 0, 0, 3254, 0, 0, 0, 0, 0, 0<br/>0]<br/>class = FTP-Patator>, fillcolor="#39c0e5"] ;
9 -> 10 ;
11 [label=<gini = 0.0<br/>samples = 2<br/>value = [2, 0, 0, 0, 0, 0, 0, 0, 0, 0, 0, 0, 0, 0<br/>0]<br/>class = BENIGN>, fillcolor="#e58139"] ;
9 -> 11 ;
12 [label=<min_seg_size_forward &le; 26.0<br/>gini = 0.012<br/>samples = 3258<br/>value = [15, 0, 0, 0, 0, 0, 0, 0, 0, 0, 4, 3239, 0, 0<br/>0]<br/>class = SSH-Patator>, fillcolor="#c53ae5"] ;
2 -> 12 ;
13 [label=<Avg Fwd Segment Size &le; 5.0<br/>gini = 0.403<br/>samples = 12<br/>value = [9, 0, 0, 0, 0, 0, 0, 0, 0, 0, 2, 1, 0, 0<br/>0]<br/>class = BENIGN>, fillcolor="#eda774"] ;
12 -> 13 ;
14 [label=<Bwd IAT Total &le; 40.0<br/>gini = 0.444<br/>samples = 3<br/>value = [0, 0, 0, 0, 0, 0, 0, 0, 0, 0, 2, 1, 0, 0<br/>0]<br/>class = PortScan>, fillcolor="#c09cf2"] ;
13 -> 14 ;
15 [label=<gini = 0.0<br/>samples = 2<br/>value = [0, 0, 0, 0, 0, 0, 0, 0, 0, 0, 2, 0, 0, 0<br/>0]<br/>class = PortScan>, fillcolor="#8139e5"] ;
14 -> 15 ;
16 [label=<gini = 0.0<br/>samples = 1<br/>value = [0, 0, 0, 0, 0, 0, 0, 0, 0, 0, 0, 1, 0, 0<br/>0]<br/>class = SSH-Patator>, fillcolor="#c539e5"] ;
14 -> 16 ;
17 [label=<gini = 0.0<br/>samples = 9<br/>value = [9, 0, 0, 0, 0, 0, 0, 0, 0, 0, 0, 0, 0, 0<br/>0]<br/>class = BENIGN>, fillcolor="#e58139"] ;
13 -> 17 ;
18 [label=<Subflow Bwd Bytes &le; 6153.5<br/>gini = 0.005<br/>samples = 3246<br/>value = [6, 0, 0, 0, 0, 0, 0, 0, 0, 0, 2, 3238, 0, 0<br/>0]<br/>class = SSH-Patator>, fillcolor="#c539e5"] ;
12 -> 18 ;
19 [label=<Down/Up Ratio &le; 3.0<br/>gini = 0.003<br/>samples = 3243<br/>value = [3, 0, 0, 0, 0, 0, 0, 0, 0, 0, 2, 3238, 0, 0<br/>0]<br/>class = SSH-Patator>, fillcolor="#c539e5"] ;
18 -> 19 ;
20 [label=<Init_Win_bytes_backward &le; 14618.5<br/>gini = 0.002<br/>samples = 3242<br/>value = [2, 0, 0, 0, 0, 0, 0, 0, 0, 0, 2, 3238, 0, 0<br/>0]<br/>class = SSH-Patator>, fillcolor="#c539e5"] ;
19 -> 20 ;
21 [label=<Flow IAT Min &le; 161.5<br/>gini = 0.001<br/>samples = 3235<br/>value = [2, 0, 0, 0, 0, 0, 0, 0, 0, 0, 0, 3233, 0, 0<br/>0]<br/>class = SSH-Patator>, fillcolor="#c539e5"] ;
20 -> 21 ;
22 [label=<gini = 0.0<br/>samples = 3229<br/>value = [0, 0, 0, 0, 0, 0, 0, 0, 0, 0, 0, 3229, 0, 0<br/>0]<br/>class = SSH-Patator>, fillcolor="#c539e5"] ;
21 -> 22 ;
23 [label=<Init_Win_bytes_forward &le; 274.5<br/>gini = 0.444<br/>samples = 6<br/>value = [2, 0, 0, 0, 0, 0, 0, 0, 0, 0, 0, 4, 0, 0<br/>0]<br/>class = SSH-Patator>, fillcolor="#e29cf2"] ;
21 -> 23 ;
24 [label=<gini = 0.0<br/>samples = 4<br/>value = [0, 0, 0, 0, 0, 0, 0, 0, 0, 0, 0, 4, 0, 0<br/>0]<br/>class = SSH-Patator>, fillcolor="#c539e5"] ;
23 -> 24 ;
25 [label=<gini = 0.0<br/>samples = 2<br/>value = [2, 0, 0, 0, 0, 0, 0, 0, 0, 0, 0, 0, 0, 0<br/>0]<br/>class = BENIGN>, fillcolor="#e58139"] ;
23 -> 25 ;
26 [label=<URG Flag Count &le; 0.5<br/>gini = 0.408<br/>samples = 7<br/>value = [0, 0, 0, 0, 0, 0, 0, 0, 0, 0, 2, 5, 0, 0<br/>0]<br/>class = SSH-Patator>, fillcolor="#dc88ef"] ;
20 -> 26 ;
27 [label=<gini = 0.0<br/>samples = 2<br/>value = [0, 0, 0, 0, 0, 0, 0, 0, 0, 0, 2, 0, 0, 0<br/>0]<br/>class = PortScan>, fillcolor="#8139e5"] ;
26 -> 27 ;
28 [label=<gini = 0.0<br/>samples = 5<br/>value = [0, 0, 0, 0, 0, 0, 0, 0, 0, 0, 0, 5, 0, 0<br/>0]<br/>class = SSH-Patator>, fillcolor="#c539e5"] ;
26 -> 28 ;
29 [label=<gini = 0.0<br/>samples = 1<br/>value = [1, 0, 0, 0, 0, 0, 0, 0, 0, 0, 0, 0, 0, 0<br/>0]<br/>class = BENIGN>, fillcolor="#e58139"] ;
19 -> 29 ;
30 [label=<gini = 0.0<br/>samples = 3<br/>value = [3, 0, 0, 0, 0, 0, 0, 0, 0, 0, 0, 0, 0, 0<br/>0]<br/>class = BENIGN>, fillcolor="#e58139"] ;
18 -> 30 ;
31 [label=<Destination Port &le; 443.5<br/>gini = 0.917<br/>samples = 40213<br/>value = [3393, 3365, 3329, 3343, 3392, 3330, 3455, 0, 0, 3353<br/>3326, 0, 3342, 3368, 3217]<br/>class = DoS slowloris>, fillcolor="#ffffff"] ;
1 -> 31 ;
32 [label=<min_seg_size_forward &le; 22.0<br/>gini = 0.89<br/>samples = 29609<br/>value = [2633, 0, 3329, 3343, 3392, 3330, 3455, 0, 0, 0<br/>200, 0, 3342, 3368, 3217]<br/>class = DoS slowloris>, fillcolor="#ffffff"] ;
31 -> 32 ;
33 [label=<Fwd Packet Length Max &le; 21.5<br/>gini = 0.59<br/>samples = 5952<br/>value = [1385, 0, 3329, 0, 1229, 4, 3, 0, 0, 0, 2, 0, 0<br/>0, 0]<br/>class = DDoS>, fillcolor="#e4f4ab"] ;
32 -> 33 ;
34 [label=<Subflow Fwd Bytes &le; 19.0<br/>gini = 0.206<br/>samples = 3750<br/>value = [236, 0, 3329, 0, 177, 3, 3, 0, 0, 0, 2, 0, 0<br/>0, 0]<br/>class = DDoS>, fillcolor="#c8e851"] ;
33 -> 34 ;
35 [label=<Packet Length Variance &le; 1.8<br/>gini = 0.534<br/>samples = 416<br/>value = [227, 0, 11, 0, 170, 3, 3, 0, 0, 0, 2, 0, 0<br/>0, 0]<br/>class = BENIGN>, fillcolor="#f9e2d1"] ;
34 -> 35 ;
36 [label=<Idle Mean &le; 2729233.0<br/>gini = 0.13<br/>samples = 190<br/>value = [177, 0, 8, 0, 3, 0, 2, 0, 0, 0, 0, 0, 0, 0<br/>0]<br/>class = BENIGN>, fillcolor="#e78a47"] ;
35 -> 36 ;
37 [label=<Bwd Packets/s &le; 5317.0<br/>gini = 0.104<br/>samples = 186<br/>value = [176, 0, 5, 0, 3, 0, 2, 0, 0, 0, 0, 0, 0, 0<br/>0]<br/>class = BENIGN>, fillcolor="#e68844"] ;
36 -> 37 ;
38 [label=<act_data_pkt_fwd &le; 1.5<br/>gini = 0.067<br/>samples = 176<br/>value = [170, 0, 1, 0, 3, 0, 2, 0, 0, 0, 0, 0, 0, 0<br/>0]<br/>class = BENIGN>, fillcolor="#e68540"] ;
37 -> 38 ;
39 [label=<Fwd IAT Min &le; 207.5<br/>gini = 0.035<br/>samples = 170<br/>value = [167, 0, 0, 0, 1, 0, 2, 0, 0, 0, 0, 0, 0, 0<br/>0]<br/>class = BENIGN>, fillcolor="#e5833d"] ;
38 -> 39 ;
40 [label=<gini = 0.0<br/>samples = 118<br/>value = [118, 0, 0, 0, 0, 0, 0, 0, 0, 0, 0, 0, 0, 0<br/>0]<br/>class = BENIGN>, fillcolor="#e58139"] ;
39 -> 40 ;
41 [label=<Flow IAT Mean &le; 248.0<br/>gini = 0.11<br/>samples = 52<br/>value = [49, 0, 0, 0, 1, 0, 2, 0, 0, 0, 0, 0, 0, 0<br/>0]<br/>class = BENIGN>, fillcolor="#e78945"] ;
39 -> 41 ;
42 [label=<gini = 0.0<br/>samples = 2<br/>value = [0, 0, 0, 0, 0, 0, 2, 0, 0, 0, 0, 0, 0, 0<br/>0]<br/>class = DoS slowloris>, fillcolor="#39e5c5"] ;
41 -> 42 ;
43 [label=<FIN Flag Count &le; 0.5<br/>gini = 0.039<br/>samples = 50<br/>value = [49, 0, 0, 0, 1, 0, 0, 0, 0, 0, 0, 0, 0, 0<br/>0]<br/>class = BENIGN>, fillcolor="#e6843d"] ;
41 -> 43 ;
44 [label=<gini = 0.0<br/>samples = 49<br/>value = [49, 0, 0, 0, 0, 0, 0, 0, 0, 0, 0, 0, 0, 0<br/>0]<br/>class = BENIGN>, fillcolor="#e58139"] ;
43 -> 44 ;
45 [label=<gini = 0.0<br/>samples = 1<br/>value = [0, 0, 0, 0, 1, 0, 0, 0, 0, 0, 0, 0, 0, 0<br/>0]<br/>class = DoS Hulk>, fillcolor="#39e53c"] ;
43 -> 45 ;
46 [label=<Destination Port &le; 261.5<br/>gini = 0.611<br/>samples = 6<br/>value = [3, 0, 1, 0, 2, 0, 0, 0, 0, 0, 0, 0, 0, 0<br/>0]<br/>class = BENIGN>, fillcolor="#f8e0ce"] ;
38 -> 46 ;
47 [label=<Fwd IAT Total &le; 5500.5<br/>gini = 0.444<br/>samples = 3<br/>value = [0, 0, 1, 0, 2, 0, 0, 0, 0, 0, 0, 0, 0, 0<br/>0]<br/>class = DoS Hulk>, fillcolor="#9cf29e"] ;
46 -> 47 ;
48 [label=<gini = 0.0<br/>samples = 1<br/>value = [0, 0, 1, 0, 0, 0, 0, 0, 0, 0, 0, 0, 0, 0<br/>0]<br/>class = DDoS>, fillcolor="#c0e539"] ;
47 -> 48 ;
49 [label=<gini = 0.0<br/>samples = 2<br/>value = [0, 0, 0, 0, 2, 0, 0, 0, 0, 0, 0, 0, 0, 0<br/>0]<br/>class = DoS Hulk>, fillcolor="#39e53c"] ;
47 -> 49 ;
50 [label=<gini = 0.0<br/>samples = 3<br/>value = [3, 0, 0, 0, 0, 0, 0, 0, 0, 0, 0, 0, 0, 0<br/>0]<br/>class = BENIGN>, fillcolor="#e58139"] ;
46 -> 50 ;
51 [label=<Subflow Fwd Bytes &le; 9.0<br/>gini = 0.48<br/>samples = 10<br/>value = [6, 0, 4, 0, 0, 0, 0, 0, 0, 0, 0, 0, 0, 0<br/>0]<br/>class = BENIGN>, fillcolor="#f6d5bd"] ;
37 -> 51 ;
52 [label=<gini = 0.0<br/>samples = 5<br/>value = [5, 0, 0, 0, 0, 0, 0, 0, 0, 0, 0, 0, 0, 0<br/>0]<br/>class = BENIGN>, fillcolor="#e58139"] ;
51 -> 52 ;
53 [label=<Fwd IAT Max &le; 3.5<br/>gini = 0.32<br/>samples = 5<br/>value = [1, 0, 4, 0, 0, 0, 0, 0, 0, 0, 0, 0, 0, 0<br/>0]<br/>class = DDoS>, fillcolor="#d0ec6a"] ;
51 -> 53 ;
54 [label=<gini = 0.0<br/>samples = 4<br/>value = [0, 0, 4, 0, 0, 0, 0, 0, 0, 0, 0, 0, 0, 0<br/>0]<br/>class = DDoS>, fillcolor="#c0e539"] ;
53 -> 54 ;
55 [label=<gini = 0.0<br/>samples = 1<br/>value = [1, 0, 0, 0, 0, 0, 0, 0, 0, 0, 0, 0, 0, 0<br/>0]<br/>class = BENIGN>, fillcolor="#e58139"] ;
53 -> 55 ;
56 [label=<URG Flag Count &le; 0.5<br/>gini = 0.375<br/>samples = 4<br/>value = [1, 0, 3, 0, 0, 0, 0, 0, 0, 0, 0, 0, 0, 0<br/>0]<br/>class = DDoS>, fillcolor="#d5ee7b"] ;
36 -> 56 ;
57 [label=<gini = 0.0<br/>samples = 3<br/>value = [0, 0, 3, 0, 0, 0, 0, 0, 0, 0, 0, 0, 0, 0<br/>0]<br/>class = DDoS>, fillcolor="#c0e539"] ;
56 -> 57 ;
58 [label=<gini = 0.0<br/>samples = 1<br/>value = [1, 0, 0, 0, 0, 0, 0, 0, 0, 0, 0, 0, 0, 0<br/>0]<br/>class = BENIGN>, fillcolor="#e58139"] ;
56 -> 58 ;
59 [label=<Fwd IAT Min &le; 15160.0<br/>gini = 0.405<br/>samples = 226<br/>value = [50, 0, 3, 0, 167, 3, 1, 0, 0, 0, 2, 0, 0, 0<br/>0]<br/>class = DoS Hulk>, fillcolor="#7bee7d"] ;
35 -> 59 ;
60 [label=<Destination Port &le; 109.5<br/>gini = 0.165<br/>samples = 181<br/>value = [11, 0, 2, 0, 165, 0, 1, 0, 0, 0, 2, 0, 0, 0<br/>0]<br/>class = DoS Hulk>, fillcolor="#4ce74e"] ;
59 -> 60 ;
61 [label=<PSH Flag Count &le; 0.5<br/>gini = 0.047<br/>samples = 169<br/>value = [0, 0, 2, 0, 165, 0, 1, 0, 0, 0, 1, 0, 0, 0<br/>0]<br/>class = DoS Hulk>, fillcolor="#3ee641"] ;
60 -> 61 ;
62 [label=<Fwd IAT Total &le; 406480.5<br/>gini = 0.024<br/>samples = 167<br/>value = [0, 0, 2, 0, 165, 0, 0, 0, 0, 0, 0, 0, 0, 0<br/>0]<br/>class = DoS Hulk>, fillcolor="#3be53e"] ;
61 -> 62 ;
63 [label=<gini = 0.0<br/>samples = 157<br/>value = [0, 0, 0, 0, 157, 0, 0, 0, 0, 0, 0, 0, 0, 0<br/>0]<br/>class = DoS Hulk>, fillcolor="#39e53c"] ;
62 -> 63 ;
64 [label=<Fwd Packet Length Mean &le; 4.25<br/>gini = 0.32<br/>samples = 10<br/>value = [0, 0, 2, 0, 8, 0, 0, 0, 0, 0, 0, 0, 0, 0<br/>0]<br/>class = DoS Hulk>, fillcolor="#6aec6d"] ;
62 -> 64 ;
65 [label=<gini = 0.0<br/>samples = 8<br/>value = [0, 0, 0, 0, 8, 0, 0, 0, 0, 0, 0, 0, 0, 0<br/>0]<br/>class = DoS Hulk>, fillcolor="#39e53c"] ;
64 -> 65 ;
66 [label=<gini = 0.0<br/>samples = 2<br/>value = [0, 0, 2, 0, 0, 0, 0, 0, 0, 0, 0, 0, 0, 0<br/>0]<br/>class = DDoS>, fillcolor="#c0e539"] ;
64 -> 66 ;
67 [label=<Flow Packets/s &le; 2512.963<br/>gini = 0.5<br/>samples = 2<br/>value = [0, 0, 0, 0, 0, 0, 1, 0, 0, 0, 1, 0, 0, 0<br/>0]<br/>class = DoS slowloris>, fillcolor="#ffffff"] ;
61 -> 67 ;
68 [label=<gini = 0.0<br/>samples = 1<br/>value = [0, 0, 0, 0, 0, 0, 1, 0, 0, 0, 0, 0, 0, 0<br/>0]<br/>class = DoS slowloris>, fillcolor="#39e5c5"] ;
67 -> 68 ;
69 [label=<gini = 0.0<br/>samples = 1<br/>value = [0, 0, 0, 0, 0, 0, 0, 0, 0, 0, 1, 0, 0, 0<br/>0]<br/>class = PortScan>, fillcolor="#8139e5"] ;
67 -> 69 ;
70 [label=<Fwd Packet Length Mean &le; 5.0<br/>gini = 0.153<br/>samples = 12<br/>value = [11, 0, 0, 0, 0, 0, 0, 0, 0, 0, 1, 0, 0, 0<br/>0]<br/>class = BENIGN>, fillcolor="#e78c4b"] ;
60 -> 70 ;
71 [label=<gini = 0.0<br/>samples = 1<br/>value = [0, 0, 0, 0, 0, 0, 0, 0, 0, 0, 1, 0, 0, 0<br/>0]<br/>class = PortScan>, fillcolor="#8139e5"] ;
70 -> 71 ;
72 [label=<gini = 0.0<br/>samples = 11<br/>value = [11, 0, 0, 0, 0, 0, 0, 0, 0, 0, 0, 0, 0, 0<br/>0]<br/>class = BENIGN>, fillcolor="#e58139"] ;
70 -> 72 ;
73 [label=<Flow Bytes/s &le; 647.609<br/>gini = 0.242<br/>samples = 45<br/>value = [39, 0, 1, 0, 2, 3, 0, 0, 0, 0, 0, 0, 0, 0<br/>0]<br/>class = BENIGN>, fillcolor="#e99355"] ;
59 -> 73 ;
74 [label=<Subflow Bwd Packets &le; 0.5<br/>gini = 0.049<br/>samples = 40<br/>value = [39, 0, 1, 0, 0, 0, 0, 0, 0, 0, 0, 0, 0, 0<br/>0]<br/>class = BENIGN>, fillcolor="#e6843e"] ;
73 -> 74 ;
75 [label=<gini = 0.0<br/>samples = 1<br/>value = [0, 0, 1, 0, 0, 0, 0, 0, 0, 0, 0, 0, 0, 0<br/>0]<br/>class = DDoS>, fillcolor="#c0e539"] ;
74 -> 75 ;
76 [label=<gini = 0.0<br/>samples = 39<br/>value = [39, 0, 0, 0, 0, 0, 0, 0, 0, 0, 0, 0, 0, 0<br/>0]<br/>class = BENIGN>, fillcolor="#e58139"] ;
74 -> 76 ;
77 [label=<Fwd Packet Length Mean &le; 4.5<br/>gini = 0.48<br/>samples = 5<br/>value = [0, 0, 0, 0, 2, 3, 0, 0, 0, 0, 0, 0, 0, 0<br/>0]<br/>class = DoS Slowhttptest>, fillcolor="#bdf6d5"] ;
73 -> 77 ;
78 [label=<gini = 0.0<br/>samples = 3<br/>value = [0, 0, 0, 0, 0, 3, 0, 0, 0, 0, 0, 0, 0, 0<br/>0]<br/>class = DoS Slowhttptest>, fillcolor="#39e581"] ;
77 -> 78 ;
79 [label=<gini = 0.0<br/>samples = 2<br/>value = [0, 0, 0, 0, 2, 0, 0, 0, 0, 0, 0, 0, 0, 0<br/>0]<br/>class = DoS Hulk>, fillcolor="#39e53c"] ;
77 -> 79 ;
80 [label=<Average Packet Size &le; 6.916<br/>gini = 0.01<br/>samples = 3334<br/>value = [9, 0, 3318, 0, 7, 0, 0, 0, 0, 0, 0, 0, 0, 0<br/>0]<br/>class = DDoS>, fillcolor="#c0e53a"] ;
34 -> 80 ;
81 [label=<Init_Win_bytes_backward &le; 277.0<br/>gini = 0.492<br/>samples = 16<br/>value = [9, 0, 0, 0, 7, 0, 0, 0, 0, 0, 0, 0, 0, 0<br/>0]<br/>class = BENIGN>, fillcolor="#f9e3d3"] ;
80 -> 81 ;
82 [label=<gini = 0.0<br/>samples = 7<br/>value = [0, 0, 0, 0, 7, 0, 0, 0, 0, 0, 0, 0, 0, 0<br/>0]<br/>class = DoS Hulk>, fillcolor="#39e53c"] ;
81 -> 82 ;
83 [label=<gini = 0.0<br/>samples = 9<br/>value = [9, 0, 0, 0, 0, 0, 0, 0, 0, 0, 0, 0, 0, 0<br/>0]<br/>class = BENIGN>, fillcolor="#e58139"] ;
81 -> 83 ;
84 [label=<gini = 0.0<br/>samples = 3318<br/>value = [0, 0, 3318, 0, 0, 0, 0, 0, 0, 0, 0, 0, 0, 0<br/>0]<br/>class = DDoS>, fillcolor="#c0e539"] ;
80 -> 84 ;
85 [label=<Packet Length Variance &le; 1524826.062<br/>gini = 0.499<br/>samples = 2202<br/>value = [1149, 0, 0, 0, 1052, 1, 0, 0, 0, 0, 0, 0, 0<br/>0, 0]<br/>class = BENIGN>, fillcolor="#fdf4ee"] ;
33 -> 85 ;
86 [label=<Fwd IAT Std &le; 34000000.0<br/>gini = 0.009<br/>samples = 1154<br/>value = [1149, 0, 0, 0, 4, 1, 0, 0, 0, 0, 0, 0, 0, 0<br/>0]<br/>class = BENIGN>, fillcolor="#e5823a"] ;
85 -> 86 ;
87 [label=<Fwd Packet Length Mean &le; 711.0<br/>gini = 0.002<br/>samples = 1147<br/>value = [1146, 0, 0, 0, 0, 1, 0, 0, 0, 0, 0, 0, 0, 0<br/>0]<br/>class = BENIGN>, fillcolor="#e58139"] ;
86 -> 87 ;
88 [label=<gini = 0.0<br/>samples = 1146<br/>value = [1146, 0, 0, 0, 0, 0, 0, 0, 0, 0, 0, 0, 0, 0<br/>0]<br/>class = BENIGN>, fillcolor="#e58139"] ;
87 -> 88 ;
89 [label=<gini = 0.0<br/>samples = 1<br/>value = [0, 0, 0, 0, 0, 1, 0, 0, 0, 0, 0, 0, 0, 0<br/>0]<br/>class = DoS Slowhttptest>, fillcolor="#39e581"] ;
87 -> 89 ;
90 [label=<Total Fwd Packets &le; 4.5<br/>gini = 0.49<br/>samples = 7<br/>value = [3, 0, 0, 0, 4, 0, 0, 0, 0, 0, 0, 0, 0, 0<br/>0]<br/>class = DoS Hulk>, fillcolor="#cef8ce"] ;
86 -> 90 ;
91 [label=<gini = 0.0<br/>samples = 3<br/>value = [3, 0, 0, 0, 0, 0, 0, 0, 0, 0, 0, 0, 0, 0<br/>0]<br/>class = BENIGN>, fillcolor="#e58139"] ;
90 -> 91 ;
92 [label=<gini = 0.0<br/>samples = 4<br/>value = [0, 0, 0, 0, 4, 0, 0, 0, 0, 0, 0, 0, 0, 0<br/>0]<br/>class = DoS Hulk>, fillcolor="#39e53c"] ;
90 -> 92 ;
93 [label=<gini = 0.0<br/>samples = 1048<br/>value = [0, 0, 0, 0, 1048, 0, 0, 0, 0, 0, 0, 0, 0, 0<br/>0]<br/>class = DoS Hulk>, fillcolor="#39e53c"] ;
85 -> 93 ;
94 [label=<Bwd Packets/s &le; 0.118<br/>gini = 0.869<br/>samples = 23657<br/>value = [1248, 0, 0, 3343, 2163, 3326, 3452, 0, 0, 0, 198<br/>0, 3342, 3368, 3217]<br/>class = DoS slowloris>, fillcolor="#feffff"] ;
32 -> 94 ;
95 [label=<Active Min &le; 4964.0<br/>gini = 0.728<br/>samples = 8998<br/>value = [99, 0, 0, 990, 1948, 2929, 2938, 0, 0, 0, 14, 0<br/>0, 0, 80]<br/>class = DoS slowloris>, fillcolor="#ffffff"] ;
94 -> 95 ;
96 [label=<Fwd IAT Min &le; 203.0<br/>gini = 0.695<br/>samples = 6560<br/>value = [73, 0, 0, 980, 1932, 652, 2829, 0, 0, 0, 14, 0<br/>0, 0, 80]<br/>class = DoS slowloris>, fillcolor="#d9faf4"] ;
95 -> 96 ;
97 [label=<Avg Fwd Segment Size &le; 147.625<br/>gini = 0.313<br/>samples = 2116<br/>value = [42, 0, 0, 1, 1739, 123, 189, 0, 0, 0, 13, 0, 0<br/>0, 9]<br/>class = DoS Hulk>, fillcolor="#60ea62"] ;
96 -> 97 ;
98 [label=<Init_Win_bytes_forward &le; 300.0<br/>gini = 0.101<br/>samples = 1828<br/>value = [42, 0, 0, 1, 1732, 0, 31, 0, 0, 0, 13, 0, 0<br/>0, 9]<br/>class = DoS Hulk>, fillcolor="#44e646"] ;
97 -> 98 ;
99 [label=<Flow Bytes/s &le; 122137.593<br/>gini = 0.02<br/>samples = 1750<br/>value = [9, 0, 0, 0, 1732, 0, 9, 0, 0, 0, 0, 0, 0, 0<br/>0]<br/>class = DoS Hulk>, fillcolor="#3be53e"] ;
98 -> 99 ;
100 [label=<Init_Win_bytes_forward &le; 248.0<br/>gini = 0.003<br/>samples = 1735<br/>value = [2, 0, 0, 0, 1732, 0, 1, 0, 0, 0, 0, 0, 0, 0<br/>0]<br/>class = DoS Hulk>, fillcolor="#39e53c"] ;
99 -> 100 ;
101 [label=<Total Fwd Packets &le; 2.5<br/>gini = 0.444<br/>samples = 3<br/>value = [2, 0, 0, 0, 0, 0, 1, 0, 0, 0, 0, 0, 0, 0<br/>0]<br/>class = BENIGN>, fillcolor="#f2c09c"] ;
100 -> 101 ;
102 [label=<gini = 0.0<br/>samples = 2<br/>value = [2, 0, 0, 0, 0, 0, 0, 0, 0, 0, 0, 0, 0, 0<br/>0]<br/>class = BENIGN>, fillcolor="#e58139"] ;
101 -> 102 ;
103 [label=<gini = 0.0<br/>samples = 1<br/>value = [0, 0, 0, 0, 0, 0, 1, 0, 0, 0, 0, 0, 0, 0<br/>0]<br/>class = DoS slowloris>, fillcolor="#39e5c5"] ;
101 -> 103 ;
104 [label=<gini = 0.0<br/>samples = 1732<br/>value = [0, 0, 0, 0, 1732, 0, 0, 0, 0, 0, 0, 0, 0, 0<br/>0]<br/>class = DoS Hulk>, fillcolor="#39e53c"] ;
100 -> 104 ;
105 [label=<Fwd Packet Length Min &le; 4.0<br/>gini = 0.498<br/>samples = 15<br/>value = [7, 0, 0, 0, 0, 0, 8, 0, 0, 0, 0, 0, 0, 0<br/>0]<br/>class = DoS slowloris>, fillcolor="#e6fcf8"] ;
99 -> 105 ;
106 [label=<gini = 0.0<br/>samples = 7<br/>value = [7, 0, 0, 0, 0, 0, 0, 0, 0, 0, 0, 0, 0, 0<br/>0]<br/>class = BENIGN>, fillcolor="#e58139"] ;
105 -> 106 ;
107 [label=<gini = 0.0<br/>samples = 8<br/>value = [0, 0, 0, 0, 0, 0, 8, 0, 0, 0, 0, 0, 0, 0<br/>0]<br/>class = DoS slowloris>, fillcolor="#39e5c5"] ;
105 -> 107 ;
108 [label=<Total Backward Packets &le; 0.5<br/>gini = 0.7<br/>samples = 78<br/>value = [33, 0, 0, 1, 0, 0, 22, 0, 0, 0, 13, 0, 0, 0<br/>9]<br/>class = BENIGN>, fillcolor="#fae6d8"] ;
98 -> 108 ;
109 [label=<Destination Port &le; 108.5<br/>gini = 0.108<br/>samples = 35<br/>value = [33, 0, 0, 0, 0, 0, 0, 0, 0, 0, 0, 0, 0, 0<br/>2]<br/>class = BENIGN>, fillcolor="#e78945"] ;
108 -> 109 ;
110 [label=<Flow IAT Mean &le; 26.5<br/>gini = 0.5<br/>samples = 4<br/>value = [2, 0, 0, 0, 0, 0, 0, 0, 0, 0, 0, 0, 0, 0<br/>2]<br/>class = BENIGN>, fillcolor="#ffffff"] ;
109 -> 110 ;
111 [label=<gini = 0.0<br/>samples = 2<br/>value = [0, 0, 0, 0, 0, 0, 0, 0, 0, 0, 0, 0, 0, 0<br/>2]<br/>class = Web Attack XSS>, fillcolor="#e53c39"] ;
110 -> 111 ;
112 [label=<gini = 0.0<br/>samples = 2<br/>value = [2, 0, 0, 0, 0, 0, 0, 0, 0, 0, 0, 0, 0, 0<br/>0]<br/>class = BENIGN>, fillcolor="#e58139"] ;
110 -> 112 ;
113 [label=<gini = 0.0<br/>samples = 31<br/>value = [31, 0, 0, 0, 0, 0, 0, 0, 0, 0, 0, 0, 0, 0<br/>0]<br/>class = BENIGN>, fillcolor="#e58139"] ;
109 -> 113 ;
114 [label=<Flow IAT Mean &le; 4190000.75<br/>gini = 0.62<br/>samples = 43<br/>value = [0, 0, 0, 1, 0, 0, 22, 0, 0, 0, 13, 0, 0, 0<br/>7]<br/>class = DoS slowloris>, fillcolor="#c4f7ee"] ;
108 -> 114 ;
115 [label=<Init_Win_bytes_backward &le; 117.5<br/>gini = 0.503<br/>samples = 21<br/>value = [0, 0, 0, 1, 0, 0, 0, 0, 0, 0, 13, 0, 0, 0<br/>7]<br/>class = PortScan>, fillcolor="#c9aaf4"] ;
114 -> 115 ;
116 [label=<gini = 0.0<br/>samples = 13<br/>value = [0, 0, 0, 0, 0, 0, 0, 0, 0, 0, 13, 0, 0, 0<br/>0]<br/>class = PortScan>, fillcolor="#8139e5"] ;
115 -> 116 ;
117 [label=<Average Packet Size &le; 302.75<br/>gini = 0.219<br/>samples = 8<br/>value = [0, 0, 0, 1, 0, 0, 0, 0, 0, 0, 0, 0, 0, 0<br/>7]<br/>class = Web Attack XSS>, fillcolor="#e95855"] ;
115 -> 117 ;
118 [label=<gini = 0.0<br/>samples = 7<br/>value = [0, 0, 0, 0, 0, 0, 0, 0, 0, 0, 0, 0, 0, 0<br/>7]<br/>class = Web Attack XSS>, fillcolor="#e53c39"] ;
117 -> 118 ;
119 [label=<gini = 0.0<br/>samples = 1<br/>value = [0, 0, 0, 1, 0, 0, 0, 0, 0, 0, 0, 0, 0, 0<br/>0]<br/>class = DoS GoldenEye>, fillcolor="#7be539"] ;
117 -> 119 ;
120 [label=<gini = 0.0<br/>samples = 22<br/>value = [0, 0, 0, 0, 0, 0, 22, 0, 0, 0, 0, 0, 0, 0<br/>0]<br/>class = DoS slowloris>, fillcolor="#39e5c5"] ;
114 -> 120 ;
121 [label=<Average Packet Size &le; 186.188<br/>gini = 0.516<br/>samples = 288<br/>value = [0, 0, 0, 0, 7, 123, 158, 0, 0, 0, 0, 0, 0, 0<br/>0]<br/>class = DoS slowloris>, fillcolor="#d5f9f3"] ;
97 -> 121 ;
122 [label=<gini = 0.0<br/>samples = 158<br/>value = [0, 0, 0, 0, 0, 0, 158, 0, 0, 0, 0, 0, 0, 0<br/>0]<br/>class = DoS slowloris>, fillcolor="#39e5c5"] ;
121 -> 122 ;
123 [label=<Subflow Bwd Bytes &le; 5800.5<br/>gini = 0.102<br/>samples = 130<br/>value = [0, 0, 0, 0, 7, 123, 0, 0, 0, 0, 0, 0, 0, 0<br/>0]<br/>class = DoS Slowhttptest>, fillcolor="#44e688"] ;
121 -> 123 ;
124 [label=<gini = 0.0<br/>samples = 123<br/>value = [0, 0, 0, 0, 0, 123, 0, 0, 0, 0, 0, 0, 0, 0<br/>0]<br/>class = DoS Slowhttptest>, fillcolor="#39e581"] ;
123 -> 124 ;
125 [label=<gini = 0.0<br/>samples = 7<br/>value = [0, 0, 0, 0, 7, 0, 0, 0, 0, 0, 0, 0, 0, 0<br/>0]<br/>class = DoS Hulk>, fillcolor="#39e53c"] ;
123 -> 125 ;
126 [label=<Flow IAT Std &le; 627165.875<br/>gini = 0.582<br/>samples = 4444<br/>value = [31, 0, 0, 979, 193, 529, 2640, 0, 0, 0, 1, 0<br/>0, 0, 71]<br/>class = DoS slowloris>, fillcolor="#a0f3e3"] ;
96 -> 126 ;
127 [label=<Idle Max &le; 2546846.5<br/>gini = 0.555<br/>samples = 1361<br/>value = [25, 0, 0, 861, 179, 214, 11, 0, 0, 0, 0, 0, 0<br/>0, 71]<br/>class = DoS GoldenEye>, fillcolor="#b5f08f"] ;
126 -> 127 ;
128 [label=<Fwd Packet Length Mean &le; 65.25<br/>gini = 0.724<br/>samples = 564<br/>value = [25, 0, 0, 64, 179, 214, 11, 0, 0, 0, 0, 0, 0<br/>0, 71]<br/>class = DoS Slowhttptest>, fillcolor="#edfdf4"] ;
127 -> 128 ;
129 [label=<Init_Win_bytes_forward &le; 279.0<br/>gini = 0.677<br/>samples = 361<br/>value = [25, 0, 0, 64, 179, 11, 11, 0, 0, 0, 0, 0, 0<br/>0, 71]<br/>class = DoS Hulk>, fillcolor="#b5f5b6"] ;
128 -> 129 ;
130 [label=<Init_Win_bytes_forward &le; 246.5<br/>gini = 0.319<br/>samples = 215<br/>value = [6, 0, 0, 19, 176, 7, 7, 0, 0, 0, 0, 0, 0, 0<br/>0]<br/>class = DoS Hulk>, fillcolor="#60ea63"] ;
129 -> 130 ;
131 [label=<Init_Win_bytes_forward &le; 228.0<br/>gini = 0.698<br/>samples = 40<br/>value = [4, 0, 0, 19, 3, 7, 7, 0, 0, 0, 0, 0, 0, 0<br/>0]<br/>class = DoS GoldenEye>, fillcolor="#cff6b7"] ;
130 -> 131 ;
132 [label=<Fwd IAT Mean &le; 3824.5<br/>gini = 0.236<br/>samples = 22<br/>value = [0, 0, 0, 19, 3, 0, 0, 0, 0, 0, 0, 0, 0, 0<br/>0]<br/>class = DoS GoldenEye>, fillcolor="#90e958"] ;
131 -> 132 ;
133 [label=<Fwd IAT Max &le; 2577.5<br/>gini = 0.172<br/>samples = 21<br/>value = [0, 0, 0, 19, 2, 0, 0, 0, 0, 0, 0, 0, 0, 0<br/>0]<br/>class = DoS GoldenEye>, fillcolor="#89e84e"] ;
132 -> 133 ;
134 [label=<Fwd IAT Total &le; 1805.0<br/>gini = 0.346<br/>samples = 9<br/>value = [0, 0, 0, 7, 2, 0, 0, 0, 0, 0, 0, 0, 0, 0<br/>0]<br/>class = DoS GoldenEye>, fillcolor="#a1ec72"] ;
133 -> 134 ;
135 [label=<gini = 0.0<br/>samples = 7<br/>value = [0, 0, 0, 7, 0, 0, 0, 0, 0, 0, 0, 0, 0, 0<br/>0]<br/>class = DoS GoldenEye>, fillcolor="#7be539"] ;
134 -> 135 ;
136 [label=<gini = 0.0<br/>samples = 2<br/>value = [0, 0, 0, 0, 2, 0, 0, 0, 0, 0, 0, 0, 0, 0<br/>0]<br/>class = DoS Hulk>, fillcolor="#39e53c"] ;
134 -> 136 ;
137 [label=<gini = 0.0<br/>samples = 12<br/>value = [0, 0, 0, 12, 0, 0, 0, 0, 0, 0, 0, 0, 0, 0<br/>0]<br/>class = DoS GoldenEye>, fillcolor="#7be539"] ;
133 -> 137 ;
138 [label=<gini = 0.0<br/>samples = 1<br/>value = [0, 0, 0, 0, 1, 0, 0, 0, 0, 0, 0, 0, 0, 0<br/>0]<br/>class = DoS Hulk>, fillcolor="#39e53c"] ;
132 -> 138 ;
139 [label=<Fwd IAT Min &le; 121622.5<br/>gini = 0.648<br/>samples = 18<br/>value = [4, 0, 0, 0, 0, 7, 7, 0, 0, 0, 0, 0, 0, 0<br/>0]<br/>class = DoS Slowhttptest>, fillcolor="#ffffff"] ;
131 -> 139 ;
140 [label=<gini = 0.0<br/>samples = 4<br/>value = [4, 0, 0, 0, 0, 0, 0, 0, 0, 0, 0, 0, 0, 0<br/>0]<br/>class = BENIGN>, fillcolor="#e58139"] ;
139 -> 140 ;
141 [label=<Fwd IAT Min &le; 3238069.0<br/>gini = 0.5<br/>samples = 14<br/>value = [0, 0, 0, 0, 0, 7, 7, 0, 0, 0, 0, 0, 0, 0<br/>0]<br/>class = DoS Slowhttptest>, fillcolor="#ffffff"] ;
139 -> 141 ;
142 [label=<Flow IAT Mean &le; 799976.0<br/>gini = 0.444<br/>samples = 9<br/>value = [0, 0, 0, 0, 0, 3, 6, 0, 0, 0, 0, 0, 0, 0<br/>0]<br/>class = DoS slowloris>, fillcolor="#9cf2e2"] ;
141 -> 142 ;
143 [label=<Fwd IAT Total &le; 499982.0<br/>gini = 0.375<br/>samples = 4<br/>value = [0, 0, 0, 0, 0, 3, 1, 0, 0, 0, 0, 0, 0, 0<br/>0]<br/>class = DoS Slowhttptest>, fillcolor="#7beeab"] ;
142 -> 143 ;
144 [label=<gini = 0.0<br/>samples = 1<br/>value = [0, 0, 0, 0, 0, 0, 1, 0, 0, 0, 0, 0, 0, 0<br/>0]<br/>class = DoS slowloris>, fillcolor="#39e5c5"] ;
143 -> 144 ;
145 [label=<gini = 0.0<br/>samples = 3<br/>value = [0, 0, 0, 0, 0, 3, 0, 0, 0, 0, 0, 0, 0, 0<br/>0]<br/>class = DoS Slowhttptest>, fillcolor="#39e581"] ;
143 -> 145 ;
146 [label=<gini = 0.0<br/>samples = 5<br/>value = [0, 0, 0, 0, 0, 0, 5, 0, 0, 0, 0, 0, 0, 0<br/>0]<br/>class = DoS slowloris>, fillcolor="#39e5c5"] ;
142 -> 146 ;
147 [label=<Flow IAT Max &le; 8034092.5<br/>gini = 0.32<br/>samples = 5<br/>value = [0, 0, 0, 0, 0, 4, 1, 0, 0, 0, 0, 0, 0, 0<br/>0]<br/>class = DoS Slowhttptest>, fillcolor="#6aeca0"] ;
141 -> 147 ;
148 [label=<gini = 0.0<br/>samples = 3<br/>value = [0, 0, 0, 0, 0, 3, 0, 0, 0, 0, 0, 0, 0, 0<br/>0]<br/>class = DoS Slowhttptest>, fillcolor="#39e581"] ;
147 -> 148 ;
149 [label=<Flow Packets/s &le; 0.156<br/>gini = 0.5<br/>samples = 2<br/>value = [0, 0, 0, 0, 0, 1, 1, 0, 0, 0, 0, 0, 0, 0<br/>0]<br/>class = DoS Slowhttptest>, fillcolor="#ffffff"] ;
147 -> 149 ;
150 [label=<gini = 0.0<br/>samples = 1<br/>value = [0, 0, 0, 0, 0, 1, 0, 0, 0, 0, 0, 0, 0, 0<br/>0]<br/>class = DoS Slowhttptest>, fillcolor="#39e581"] ;
149 -> 150 ;
151 [label=<gini = 0.0<br/>samples = 1<br/>value = [0, 0, 0, 0, 0, 0, 1, 0, 0, 0, 0, 0, 0, 0<br/>0]<br/>class = DoS slowloris>, fillcolor="#39e5c5"] ;
149 -> 151 ;
152 [label=<Fwd IAT Total &le; 5340.0<br/>gini = 0.023<br/>samples = 175<br/>value = [2, 0, 0, 0, 173, 0, 0, 0, 0, 0, 0, 0, 0, 0<br/>0]<br/>class = DoS Hulk>, fillcolor="#3be53e"] ;
130 -> 152 ;
153 [label=<Fwd IAT Total &le; 390.5<br/>gini = 0.011<br/>samples = 174<br/>value = [1, 0, 0, 0, 173, 0, 0, 0, 0, 0, 0, 0, 0, 0<br/>0]<br/>class = DoS Hulk>, fillcolor="#3ae53d"] ;
152 -> 153 ;
154 [label=<Fwd IAT Max &le; 326.0<br/>gini = 0.056<br/>samples = 35<br/>value = [1, 0, 0, 0, 34, 0, 0, 0, 0, 0, 0, 0, 0, 0<br/>0]<br/>class = DoS Hulk>, fillcolor="#3fe642"] ;
153 -> 154 ;
155 [label=<gini = 0.0<br/>samples = 34<br/>value = [0, 0, 0, 0, 34, 0, 0, 0, 0, 0, 0, 0, 0, 0<br/>0]<br/>class = DoS Hulk>, fillcolor="#39e53c"] ;
154 -> 155 ;
156 [label=<gini = 0.0<br/>samples = 1<br/>value = [1, 0, 0, 0, 0, 0, 0, 0, 0, 0, 0, 0, 0, 0<br/>0]<br/>class = BENIGN>, fillcolor="#e58139"] ;
154 -> 156 ;
157 [label=<gini = 0.0<br/>samples = 139<br/>value = [0, 0, 0, 0, 139, 0, 0, 0, 0, 0, 0, 0, 0, 0<br/>0]<br/>class = DoS Hulk>, fillcolor="#39e53c"] ;
153 -> 157 ;
158 [label=<gini = 0.0<br/>samples = 1<br/>value = [1, 0, 0, 0, 0, 0, 0, 0, 0, 0, 0, 0, 0, 0<br/>0]<br/>class = BENIGN>, fillcolor="#e58139"] ;
152 -> 158 ;
159 [label=<Fwd IAT Max &le; 1025.0<br/>gini = 0.65<br/>samples = 146<br/>value = [19, 0, 0, 45, 3, 4, 4, 0, 0, 0, 0, 0, 0, 0<br/>71]<br/>class = Web Attack XSS>, fillcolor="#f8cdcc"] ;
129 -> 159 ;
160 [label=<Destination Port &le; 261.5<br/>gini = 0.124<br/>samples = 76<br/>value = [4, 0, 0, 0, 1, 0, 0, 0, 0, 0, 0, 0, 0, 0<br/>71]<br/>class = Web Attack XSS>, fillcolor="#e74a47"] ;
159 -> 160 ;
161 [label=<Init_Win_bytes_forward &le; 867.5<br/>gini = 0.027<br/>samples = 72<br/>value = [0, 0, 0, 0, 1, 0, 0, 0, 0, 0, 0, 0, 0, 0<br/>71]<br/>class = Web Attack XSS>, fillcolor="#e53f3c"] ;
160 -> 161 ;
162 [label=<gini = 0.0<br/>samples = 1<br/>value = [0, 0, 0, 0, 1, 0, 0, 0, 0, 0, 0, 0, 0, 0<br/>0]<br/>class = DoS Hulk>, fillcolor="#39e53c"] ;
161 -> 162 ;
163 [label=<gini = 0.0<br/>samples = 71<br/>value = [0, 0, 0, 0, 0, 0, 0, 0, 0, 0, 0, 0, 0, 0<br/>71]<br/>class = Web Attack XSS>, fillcolor="#e53c39"] ;
161 -> 163 ;
164 [label=<gini = 0.0<br/>samples = 4<br/>value = [4, 0, 0, 0, 0, 0, 0, 0, 0, 0, 0, 0, 0, 0<br/>0]<br/>class = BENIGN>, fillcolor="#e58139"] ;
160 -> 164 ;
165 [label=<Init_Win_bytes_forward &le; 507.0<br/>gini = 0.533<br/>samples = 70<br/>value = [15, 0, 0, 45, 2, 4, 4, 0, 0, 0, 0, 0, 0, 0<br/>0]<br/>class = DoS GoldenEye>, fillcolor="#b7f193"] ;
159 -> 165 ;
166 [label=<Flow IAT Mean &le; 155667.0<br/>gini = 0.15<br/>samples = 49<br/>value = [4, 0, 0, 45, 0, 0, 0, 0, 0, 0, 0, 0, 0, 0<br/>0]<br/>class = DoS GoldenEye>, fillcolor="#87e74b"] ;
165 -> 166 ;
167 [label=<gini = 0.0<br/>samples = 3<br/>value = [3, 0, 0, 0, 0, 0, 0, 0, 0, 0, 0, 0, 0, 0<br/>0]<br/>class = BENIGN>, fillcolor="#e58139"] ;
166 -> 167 ;
168 [label=<Fwd Packets/s &le; 0.29<br/>gini = 0.043<br/>samples = 46<br/>value = [1, 0, 0, 45, 0, 0, 0, 0, 0, 0, 0, 0, 0, 0<br/>0]<br/>class = DoS GoldenEye>, fillcolor="#7ee63d"] ;
166 -> 168 ;
169 [label=<gini = 0.0<br/>samples = 1<br/>value = [1, 0, 0, 0, 0, 0, 0, 0, 0, 0, 0, 0, 0, 0<br/>0]<br/>class = BENIGN>, fillcolor="#e58139"] ;
168 -> 169 ;
170 [label=<gini = 0.0<br/>samples = 45<br/>value = [0, 0, 0, 45, 0, 0, 0, 0, 0, 0, 0, 0, 0, 0<br/>0]<br/>class = DoS GoldenEye>, fillcolor="#7be539"] ;
168 -> 170 ;
171 [label=<PSH Flag Count &le; 0.5<br/>gini = 0.644<br/>samples = 21<br/>value = [11, 0, 0, 0, 2, 4, 4, 0, 0, 0, 0, 0, 0, 0<br/>0]<br/>class = BENIGN>, fillcolor="#f4cbad"] ;
165 -> 171 ;
172 [label=<gini = 0.0<br/>samples = 11<br/>value = [11, 0, 0, 0, 0, 0, 0, 0, 0, 0, 0, 0, 0, 0<br/>0]<br/>class = BENIGN>, fillcolor="#e58139"] ;
171 -> 172 ;
173 [label=<Fwd IAT Min &le; 999177.0<br/>gini = 0.64<br/>samples = 10<br/>value = [0, 0, 0, 0, 2, 4, 4, 0, 0, 0, 0, 0, 0, 0<br/>0]<br/>class = DoS Slowhttptest>, fillcolor="#ffffff"] ;
171 -> 173 ;
174 [label=<Flow IAT Mean &le; 499845.5<br/>gini = 0.444<br/>samples = 6<br/>value = [0, 0, 0, 0, 2, 4, 0, 0, 0, 0, 0, 0, 0, 0<br/>0]<br/>class = DoS Slowhttptest>, fillcolor="#9cf2c0"] ;
173 -> 174 ;
175 [label=<gini = 0.0<br/>samples = 2<br/>value = [0, 0, 0, 0, 2, 0, 0, 0, 0, 0, 0, 0, 0, 0<br/>0]<br/>class = DoS Hulk>, fillcolor="#39e53c"] ;
174 -> 175 ;
176 [label=<gini = 0.0<br/>samples = 4<br/>value = [0, 0, 0, 0, 0, 4, 0, 0, 0, 0, 0, 0, 0, 0<br/>0]<br/>class = DoS Slowhttptest>, fillcolor="#39e581"] ;
174 -> 176 ;
177 [label=<gini = 0.0<br/>samples = 4<br/>value = [0, 0, 0, 0, 0, 0, 4, 0, 0, 0, 0, 0, 0, 0<br/>0]<br/>class = DoS slowloris>, fillcolor="#39e5c5"] ;
173 -> 177 ;
178 [label=<gini = 0.0<br/>samples = 203<br/>value = [0, 0, 0, 0, 0, 203, 0, 0, 0, 0, 0, 0, 0, 0<br/>0]<br/>class = DoS Slowhttptest>, fillcolor="#39e581"] ;
128 -> 178 ;
179 [label=<gini = 0.0<br/>samples = 797<br/>value = [0, 0, 0, 797, 0, 0, 0, 0, 0, 0, 0, 0, 0, 0<br/>0]<br/>class = DoS GoldenEye>, fillcolor="#7be539"] ;
127 -> 179 ;
180 [label=<Max Packet Length &le; 243.0<br/>gini = 0.261<br/>samples = 3083<br/>value = [6, 0, 0, 118, 14, 315, 2629, 0, 0, 0, 1, 0, 0<br/>0, 0]<br/>class = DoS slowloris>, fillcolor="#59e9cf"] ;
126 -> 180 ;
181 [label=<Bwd Packets/s &le; 0.044<br/>gini = 0.12<br/>samples = 2808<br/>value = [5, 0, 0, 0, 2, 171, 2629, 0, 0, 0, 1, 0, 0<br/>0, 0]<br/>class = DoS slowloris>, fillcolor="#46e7c9"] ;
180 -> 181 ;
182 [label=<Bwd Packet Length Max &le; 72.5<br/>gini = 0.006<br/>samples = 2595<br/>value = [4, 0, 0, 0, 0, 4, 2587, 0, 0, 0, 0, 0, 0, 0<br/>0]<br/>class = DoS slowloris>, fillcolor="#3ae5c5"] ;
181 -> 182 ;
183 [label=<Flow Packets/s &le; 1.643<br/>gini = 0.005<br/>samples = 2593<br/>value = [2, 0, 0, 0, 0, 4, 2587, 0, 0, 0, 0, 0, 0, 0<br/>0]<br/>class = DoS slowloris>, fillcolor="#39e5c5"] ;
182 -> 183 ;
184 [label=<Flow IAT Std &le; 710896.875<br/>gini = 0.003<br/>samples = 2591<br/>value = [0, 0, 0, 0, 0, 4, 2587, 0, 0, 0, 0, 0, 0, 0<br/>0]<br/>class = DoS slowloris>, fillcolor="#39e5c5"] ;
183 -> 184 ;
185 [label=<Flow IAT Std &le; 710894.031<br/>gini = 0.015<br/>samples = 534<br/>value = [0, 0, 0, 0, 0, 4, 530, 0, 0, 0, 0, 0, 0, 0<br/>0]<br/>class = DoS slowloris>, fillcolor="#3ae5c5"] ;
184 -> 185 ;
186 [label=<Fwd IAT Std &le; 710762.875<br/>gini = 0.011<br/>samples = 533<br/>value = [0, 0, 0, 0, 0, 3, 530, 0, 0, 0, 0, 0, 0, 0<br/>0]<br/>class = DoS slowloris>, fillcolor="#3ae5c5"] ;
185 -> 186 ;
187 [label=<gini = 0.0<br/>samples = 455<br/>value = [0, 0, 0, 0, 0, 0, 455, 0, 0, 0, 0, 0, 0, 0<br/>0]<br/>class = DoS slowloris>, fillcolor="#39e5c5"] ;
186 -> 187 ;
188 [label=<Fwd IAT Std &le; 710771.344<br/>gini = 0.074<br/>samples = 78<br/>value = [0, 0, 0, 0, 0, 3, 75, 0, 0, 0, 0, 0, 0, 0<br/>0]<br/>class = DoS slowloris>, fillcolor="#41e6c7"] ;
186 -> 188 ;
189 [label=<Flow IAT Mean &le; 1501394.25<br/>gini = 0.48<br/>samples = 5<br/>value = [0, 0, 0, 0, 0, 3, 2, 0, 0, 0, 0, 0, 0, 0<br/>0]<br/>class = DoS Slowhttptest>, fillcolor="#bdf6d5"] ;
188 -> 189 ;
190 [label=<gini = 0.0<br/>samples = 2<br/>value = [0, 0, 0, 0, 0, 0, 2, 0, 0, 0, 0, 0, 0, 0<br/>0]<br/>class = DoS slowloris>, fillcolor="#39e5c5"] ;
189 -> 190 ;
191 [label=<gini = 0.0<br/>samples = 3<br/>value = [0, 0, 0, 0, 0, 3, 0, 0, 0, 0, 0, 0, 0, 0<br/>0]<br/>class = DoS Slowhttptest>, fillcolor="#39e581"] ;
189 -> 191 ;
192 [label=<gini = 0.0<br/>samples = 73<br/>value = [0, 0, 0, 0, 0, 0, 73, 0, 0, 0, 0, 0, 0, 0<br/>0]<br/>class = DoS slowloris>, fillcolor="#39e5c5"] ;
188 -> 192 ;
193 [label=<gini = 0.0<br/>samples = 1<br/>value = [0, 0, 0, 0, 0, 1, 0, 0, 0, 0, 0, 0, 0, 0<br/>0]<br/>class = DoS Slowhttptest>, fillcolor="#39e581"] ;
185 -> 193 ;
194 [label=<gini = 0.0<br/>samples = 2057<br/>value = [0, 0, 0, 0, 0, 0, 2057, 0, 0, 0, 0, 0, 0, 0<br/>0]<br/>class = DoS slowloris>, fillcolor="#39e5c5"] ;
184 -> 194 ;
195 [label=<gini = 0.0<br/>samples = 2<br/>value = [2, 0, 0, 0, 0, 0, 0, 0, 0, 0, 0, 0, 0, 0<br/>0]<br/>class = BENIGN>, fillcolor="#e58139"] ;
183 -> 195 ;
196 [label=<gini = 0.0<br/>samples = 2<br/>value = [2, 0, 0, 0, 0, 0, 0, 0, 0, 0, 0, 0, 0, 0<br/>0]<br/>class = BENIGN>, fillcolor="#e58139"] ;
182 -> 196 ;
197 [label=<Bwd Packets/s &le; 0.048<br/>gini = 0.346<br/>samples = 213<br/>value = [1, 0, 0, 0, 2, 167, 42, 0, 0, 0, 1, 0, 0, 0<br/>0]<br/>class = DoS Slowhttptest>, fillcolor="#6eeca3"] ;
181 -> 197 ;
198 [label=<gini = 0.0<br/>samples = 167<br/>value = [0, 0, 0, 0, 0, 167, 0, 0, 0, 0, 0, 0, 0, 0<br/>0]<br/>class = DoS Slowhttptest>, fillcolor="#39e581"] ;
197 -> 198 ;
199 [label=<Bwd IAT Mean &le; 28000000.0<br/>gini = 0.164<br/>samples = 46<br/>value = [1, 0, 0, 0, 2, 0, 42, 0, 0, 0, 1, 0, 0, 0<br/>0]<br/>class = DoS slowloris>, fillcolor="#4be7ca"] ;
197 -> 199 ;
200 [label=<gini = 0.0<br/>samples = 42<br/>value = [0, 0, 0, 0, 0, 0, 42, 0, 0, 0, 0, 0, 0, 0<br/>0]<br/>class = DoS slowloris>, fillcolor="#39e5c5"] ;
199 -> 200 ;
201 [label=<Flow Bytes/s &le; 0.163<br/>gini = 0.625<br/>samples = 4<br/>value = [1, 0, 0, 0, 2, 0, 0, 0, 0, 0, 1, 0, 0, 0<br/>0]<br/>class = DoS Hulk>, fillcolor="#bdf6be"] ;
199 -> 201 ;
202 [label=<gini = 0.0<br/>samples = 2<br/>value = [0, 0, 0, 0, 2, 0, 0, 0, 0, 0, 0, 0, 0, 0<br/>0]<br/>class = DoS Hulk>, fillcolor="#39e53c"] ;
201 -> 202 ;
203 [label=<Bwd Packet Length Max &le; 92.0<br/>gini = 0.5<br/>samples = 2<br/>value = [1, 0, 0, 0, 0, 0, 0, 0, 0, 0, 1, 0, 0, 0<br/>0]<br/>class = BENIGN>, fillcolor="#ffffff"] ;
201 -> 203 ;
204 [label=<gini = 0.0<br/>samples = 1<br/>value = [0, 0, 0, 0, 0, 0, 0, 0, 0, 0, 1, 0, 0, 0<br/>0]<br/>class = PortScan>, fillcolor="#8139e5"] ;
203 -> 204 ;
205 [label=<gini = 0.0<br/>samples = 1<br/>value = [1, 0, 0, 0, 0, 0, 0, 0, 0, 0, 0, 0, 0, 0<br/>0]<br/>class = BENIGN>, fillcolor="#e58139"] ;
203 -> 205 ;
206 [label=<Bwd Packet Length Mean &le; 4.0<br/>gini = 0.54<br/>samples = 275<br/>value = [1, 0, 0, 118, 12, 144, 0, 0, 0, 0, 0, 0, 0<br/>0, 0]<br/>class = DoS Slowhttptest>, fillcolor="#defbea"] ;
180 -> 206 ;
207 [label=<Flow IAT Min &le; 17.0<br/>gini = 0.014<br/>samples = 145<br/>value = [0, 0, 0, 1, 0, 144, 0, 0, 0, 0, 0, 0, 0, 0<br/>0]<br/>class = DoS Slowhttptest>, fillcolor="#3ae582"] ;
206 -> 207 ;
208 [label=<Flow Packets/s &le; 0.164<br/>gini = 0.5<br/>samples = 2<br/>value = [0, 0, 0, 1, 0, 1, 0, 0, 0, 0, 0, 0, 0, 0<br/>0]<br/>class = DoS GoldenEye>, fillcolor="#ffffff"] ;
207 -> 208 ;
209 [label=<gini = 0.0<br/>samples = 1<br/>value = [0, 0, 0, 1, 0, 0, 0, 0, 0, 0, 0, 0, 0, 0<br/>0]<br/>class = DoS GoldenEye>, fillcolor="#7be539"] ;
208 -> 209 ;
210 [label=<gini = 0.0<br/>samples = 1<br/>value = [0, 0, 0, 0, 0, 1, 0, 0, 0, 0, 0, 0, 0, 0<br/>0]<br/>class = DoS Slowhttptest>, fillcolor="#39e581"] ;
208 -> 210 ;
211 [label=<gini = 0.0<br/>samples = 143<br/>value = [0, 0, 0, 0, 0, 143, 0, 0, 0, 0, 0, 0, 0, 0<br/>0]<br/>class = DoS Slowhttptest>, fillcolor="#39e581"] ;
207 -> 211 ;
212 [label=<Fwd IAT Std &le; 6107755.25<br/>gini = 0.181<br/>samples = 130<br/>value = [1, 0, 0, 117, 12, 0, 0, 0, 0, 0, 0, 0, 0, 0<br/>0]<br/>class = DoS GoldenEye>, fillcolor="#8ae84f"] ;
206 -> 212 ;
213 [label=<gini = 0.0<br/>samples = 117<br/>value = [0, 0, 0, 117, 0, 0, 0, 0, 0, 0, 0, 0, 0, 0<br/>0]<br/>class = DoS GoldenEye>, fillcolor="#7be539"] ;
212 -> 213 ;
214 [label=<Avg Bwd Segment Size &le; 930.312<br/>gini = 0.142<br/>samples = 13<br/>value = [1, 0, 0, 0, 12, 0, 0, 0, 0, 0, 0, 0, 0, 0<br/>0]<br/>class = DoS Hulk>, fillcolor="#49e74c"] ;
212 -> 214 ;
215 [label=<gini = 0.0<br/>samples = 1<br/>value = [1, 0, 0, 0, 0, 0, 0, 0, 0, 0, 0, 0, 0, 0<br/>0]<br/>class = BENIGN>, fillcolor="#e58139"] ;
214 -> 215 ;
216 [label=<gini = 0.0<br/>samples = 12<br/>value = [0, 0, 0, 0, 12, 0, 0, 0, 0, 0, 0, 0, 0, 0<br/>0]<br/>class = DoS Hulk>, fillcolor="#39e53c"] ;
214 -> 216 ;
217 [label=<Bwd Packets/s &le; 0.029<br/>gini = 0.126<br/>samples = 2438<br/>value = [26, 0, 0, 10, 16, 2277, 109, 0, 0, 0, 0, 0, 0<br/>0, 0]<br/>class = DoS Slowhttptest>, fillcolor="#47e78a"] ;
95 -> 217 ;
218 [label=<Total Fwd Packets &le; 3.5<br/>gini = 0.01<br/>samples = 2286<br/>value = [4, 0, 0, 1, 0, 2275, 6, 0, 0, 0, 0, 0, 0, 0<br/>0]<br/>class = DoS Slowhttptest>, fillcolor="#3ae582"] ;
217 -> 218 ;
219 [label=<gini = 0.0<br/>samples = 4<br/>value = [4, 0, 0, 0, 0, 0, 0, 0, 0, 0, 0, 0, 0, 0<br/>0]<br/>class = BENIGN>, fillcolor="#e58139"] ;
218 -> 219 ;
220 [label=<Active Std &le; 872135.969<br/>gini = 0.006<br/>samples = 2282<br/>value = [0, 0, 0, 1, 0, 2275, 6, 0, 0, 0, 0, 0, 0, 0<br/>0]<br/>class = DoS Slowhttptest>, fillcolor="#3ae581"] ;
218 -> 220 ;
221 [label=<Fwd IAT Min &le; 192.0<br/>gini = 0.005<br/>samples = 2281<br/>value = [0, 0, 0, 0, 0, 2275, 6, 0, 0, 0, 0, 0, 0, 0<br/>0]<br/>class = DoS Slowhttptest>, fillcolor="#3ae581"] ;
220 -> 221 ;
222 [label=<Bwd IAT Mean &le; 52900000.0<br/>gini = 0.375<br/>samples = 8<br/>value = [0, 0, 0, 0, 0, 6, 2, 0, 0, 0, 0, 0, 0, 0<br/>0]<br/>class = DoS Slowhttptest>, fillcolor="#7beeab"] ;
221 -> 222 ;
223 [label=<gini = 0.0<br/>samples = 6<br/>value = [0, 0, 0, 0, 0, 6, 0, 0, 0, 0, 0, 0, 0, 0<br/>0]<br/>class = DoS Slowhttptest>, fillcolor="#39e581"] ;
222 -> 223 ;
224 [label=<gini = 0.0<br/>samples = 2<br/>value = [0, 0, 0, 0, 0, 0, 2, 0, 0, 0, 0, 0, 0, 0<br/>0]<br/>class = DoS slowloris>, fillcolor="#39e5c5"] ;
222 -> 224 ;
225 [label=<Bwd Packets/s &le; 0.028<br/>gini = 0.004<br/>samples = 2273<br/>value = [0, 0, 0, 0, 0, 2269, 4, 0, 0, 0, 0, 0, 0, 0<br/>0]<br/>class = DoS Slowhttptest>, fillcolor="#39e581"] ;
221 -> 225 ;
226 [label=<Active Max &le; 7005420.0<br/>gini = 0.001<br/>samples = 2133<br/>value = [0, 0, 0, 0, 0, 2132, 1, 0, 0, 0, 0, 0, 0, 0<br/>0]<br/>class = DoS Slowhttptest>, fillcolor="#39e581"] ;
225 -> 226 ;
227 [label=<Active Min &le; 7005406.0<br/>gini = 0.003<br/>samples = 640<br/>value = [0, 0, 0, 0, 0, 639, 1, 0, 0, 0, 0, 0, 0, 0<br/>0]<br/>class = DoS Slowhttptest>, fillcolor="#39e581"] ;
226 -> 227 ;
228 [label=<gini = 0.0<br/>samples = 639<br/>value = [0, 0, 0, 0, 0, 639, 0, 0, 0, 0, 0, 0, 0, 0<br/>0]<br/>class = DoS Slowhttptest>, fillcolor="#39e581"] ;
227 -> 228 ;
229 [label=<gini = 0.0<br/>samples = 1<br/>value = [0, 0, 0, 0, 0, 0, 1, 0, 0, 0, 0, 0, 0, 0<br/>0]<br/>class = DoS slowloris>, fillcolor="#39e5c5"] ;
227 -> 229 ;
230 [label=<gini = 0.0<br/>samples = 1493<br/>value = [0, 0, 0, 0, 0, 1493, 0, 0, 0, 0, 0, 0, 0, 0<br/>0]<br/>class = DoS Slowhttptest>, fillcolor="#39e581"] ;
226 -> 230 ;
231 [label=<Subflow Fwd Bytes &le; 302.5<br/>gini = 0.042<br/>samples = 140<br/>value = [0, 0, 0, 0, 0, 137, 3, 0, 0, 0, 0, 0, 0, 0<br/>0]<br/>class = DoS Slowhttptest>, fillcolor="#3de684"] ;
225 -> 231 ;
232 [label=<gini = 0.0<br/>samples = 3<br/>value = [0, 0, 0, 0, 0, 0, 3, 0, 0, 0, 0, 0, 0, 0<br/>0]<br/>class = DoS slowloris>, fillcolor="#39e5c5"] ;
231 -> 232 ;
233 [label=<gini = 0.0<br/>samples = 137<br/>value = [0, 0, 0, 0, 0, 137, 0, 0, 0, 0, 0, 0, 0, 0<br/>0]<br/>class = DoS Slowhttptest>, fillcolor="#39e581"] ;
231 -> 233 ;
234 [label=<gini = 0.0<br/>samples = 1<br/>value = [0, 0, 0, 1, 0, 0, 0, 0, 0, 0, 0, 0, 0, 0<br/>0]<br/>class = DoS GoldenEye>, fillcolor="#7be539"] ;
220 -> 234 ;
235 [label=<Total Length of Bwd Packets &le; 46.0<br/>gini = 0.505<br/>samples = 152<br/>value = [22, 0, 0, 9, 16, 2, 103, 0, 0, 0, 0, 0, 0, 0<br/>0]<br/>class = DoS slowloris>, fillcolor="#84efdb"] ;
217 -> 235 ;
236 [label=<Fwd Packet Length Std &le; 92.156<br/>gini = 0.037<br/>samples = 105<br/>value = [0, 0, 0, 0, 0, 2, 103, 0, 0, 0, 0, 0, 0, 0<br/>0]<br/>class = DoS slowloris>, fillcolor="#3de6c6"] ;
235 -> 236 ;
237 [label=<gini = 0.0<br/>samples = 2<br/>value = [0, 0, 0, 0, 0, 2, 0, 0, 0, 0, 0, 0, 0, 0<br/>0]<br/>class = DoS Slowhttptest>, fillcolor="#39e581"] ;
236 -> 237 ;
238 [label=<gini = 0.0<br/>samples = 103<br/>value = [0, 0, 0, 0, 0, 0, 103, 0, 0, 0, 0, 0, 0, 0<br/>0]<br/>class = DoS slowloris>, fillcolor="#39e5c5"] ;
236 -> 238 ;
239 [label=<Flow Bytes/s &le; 93.139<br/>gini = 0.628<br/>samples = 47<br/>value = [22, 0, 0, 9, 16, 0, 0, 0, 0, 0, 0, 0, 0, 0<br/>0]<br/>class = BENIGN>, fillcolor="#fae7d9"] ;
235 -> 239 ;
240 [label=<gini = 0.0<br/>samples = 22<br/>value = [22, 0, 0, 0, 0, 0, 0, 0, 0, 0, 0, 0, 0, 0<br/>0]<br/>class = BENIGN>, fillcolor="#e58139"] ;
239 -> 240 ;
241 [label=<Fwd IAT Std &le; 16697033.75<br/>gini = 0.461<br/>samples = 25<br/>value = [0, 0, 0, 9, 16, 0, 0, 0, 0, 0, 0, 0, 0, 0<br/>0]<br/>class = DoS Hulk>, fillcolor="#a8f4aa"] ;
239 -> 241 ;
242 [label=<gini = 0.0<br/>samples = 9<br/>value = [0, 0, 0, 9, 0, 0, 0, 0, 0, 0, 0, 0, 0, 0<br/>0]<br/>class = DoS GoldenEye>, fillcolor="#7be539"] ;
241 -> 242 ;
243 [label=<gini = 0.0<br/>samples = 16<br/>value = [0, 0, 0, 0, 16, 0, 0, 0, 0, 0, 0, 0, 0, 0<br/>0]<br/>class = DoS Hulk>, fillcolor="#39e53c"] ;
241 -> 243 ;
244 [label=<Fwd IAT Min &le; 518.5<br/>gini = 0.815<br/>samples = 14659<br/>value = [1149, 0, 0, 2353, 215, 397, 514, 0, 0, 0, 184, 0<br/>3342, 3368, 3137]<br/>class = Web Attack Sql Injection>, fillcolor="#ffffff"] ;
94 -> 244 ;
245 [label=<Bwd IAT Total &le; 5103937.5<br/>gini = 0.738<br/>samples = 8418<br/>value = [1107, 0, 0, 2337, 136, 389, 497, 0, 0, 0, 182, 0<br/>317, 3368, 85]<br/>class = Web Attack Sql Injection>, fillcolor="#fbdde9"] ;
244 -> 245 ;
246 [label=<Flow Bytes/s &le; 968.723<br/>gini = 0.659<br/>samples = 6147<br/>value = [975, 0, 0, 266, 136, 389, 474, 0, 0, 0, 182, 0<br/>309, 3368, 48]<br/>class = Web Attack Sql Injection>, fillcolor="#f3a3c2"] ;
245 -> 246 ;
247 [label=<Init_Win_bytes_backward &le; 237.0<br/>gini = 0.317<br/>samples = 4099<br/>value = [120, 0, 0, 64, 7, 104, 90, 0, 0, 0, 8, 0, 304<br/>3368, 34]<br/>class = Web Attack Sql Injection>, fillcolor="#ea5f94"] ;
246 -> 247 ;
248 [label=<Init_Win_bytes_forward &le; 256.0<br/>gini = 0.166<br/>samples = 3692<br/>value = [38, 0, 0, 61, 7, 0, 76, 0, 0, 0, 0, 0, 140<br/>3368, 2]<br/>class = Web Attack Sql Injection>, fillcolor="#e74b87"] ;
247 -> 248 ;
249 [label=<Flow IAT Min &le; 71.5<br/>gini = 0.473<br/>samples = 457<br/>value = [16, 0, 0, 0, 1, 0, 0, 0, 0, 0, 0, 0, 136<br/>302, 2]<br/>class = Web Attack Sql Injection>, fillcolor="#f299bb"] ;
248 -> 249 ;
250 [label=<Bwd Packets/s &le; 14188.0<br/>gini = 0.283<br/>samples = 364<br/>value = [0, 0, 0, 0, 0, 0, 0, 0, 0, 0, 0, 0, 62, 302<br/>0]<br/>class = Web Attack Sql Injection>, fillcolor="#ea6296"] ;
249 -> 250 ;
251 [label=<Init_Win_bytes_backward &le; 235.5<br/>gini = 0.013<br/>samples = 304<br/>value = [0, 0, 0, 0, 0, 0, 0, 0, 0, 0, 0, 0, 2, 302<br/>0]<br/>class = Web Attack Sql Injection>, fillcolor="#e53a7c"] ;
250 -> 251 ;
252 [label=<gini = 0.0<br/>samples = 302<br/>value = [0, 0, 0, 0, 0, 0, 0, 0, 0, 0, 0, 0, 0, 302<br/>0]<br/>class = Web Attack Sql Injection>, fillcolor="#e5397b"] ;
251 -> 252 ;
253 [label=<gini = 0.0<br/>samples = 2<br/>value = [0, 0, 0, 0, 0, 0, 0, 0, 0, 0, 0, 0, 2, 0<br/>0]<br/>class = Web Attack Brute Force>, fillcolor="#e539c0"] ;
251 -> 253 ;
254 [label=<gini = 0.0<br/>samples = 60<br/>value = [0, 0, 0, 0, 0, 0, 0, 0, 0, 0, 0, 0, 60, 0<br/>0]<br/>class = Web Attack Brute Force>, fillcolor="#e539c0"] ;
250 -> 254 ;
255 [label=<Flow IAT Max &le; 115.0<br/>gini = 0.337<br/>samples = 93<br/>value = [16, 0, 0, 0, 1, 0, 0, 0, 0, 0, 0, 0, 74, 0<br/>2]<br/>class = Web Attack Brute Force>, fillcolor="#eb6ad0"] ;
249 -> 255 ;
256 [label=<Init_Win_bytes_forward &le; 246.0<br/>gini = 0.051<br/>samples = 76<br/>value = [0, 0, 0, 0, 0, 0, 0, 0, 0, 0, 0, 0, 74, 0<br/>2]<br/>class = Web Attack Brute Force>, fillcolor="#e63ec2"] ;
255 -> 256 ;
257 [label=<gini = 0.0<br/>samples = 74<br/>value = [0, 0, 0, 0, 0, 0, 0, 0, 0, 0, 0, 0, 74, 0<br/>0]<br/>class = Web Attack Brute Force>, fillcolor="#e539c0"] ;
256 -> 257 ;
258 [label=<gini = 0.0<br/>samples = 2<br/>value = [0, 0, 0, 0, 0, 0, 0, 0, 0, 0, 0, 0, 0, 0<br/>2]<br/>class = Web Attack XSS>, fillcolor="#e53c39"] ;
256 -> 258 ;
259 [label=<Flow IAT Std &le; 15.91<br/>gini = 0.111<br/>samples = 17<br/>value = [16, 0, 0, 0, 1, 0, 0, 0, 0, 0, 0, 0, 0, 0<br/>0]<br/>class = BENIGN>, fillcolor="#e78945"] ;
255 -> 259 ;
260 [label=<gini = 0.0<br/>samples = 16<br/>value = [16, 0, 0, 0, 0, 0, 0, 0, 0, 0, 0, 0, 0, 0<br/>0]<br/>class = BENIGN>, fillcolor="#e58139"] ;
259 -> 260 ;
261 [label=<gini = 0.0<br/>samples = 1<br/>value = [0, 0, 0, 0, 1, 0, 0, 0, 0, 0, 0, 0, 0, 0<br/>0]<br/>class = DoS Hulk>, fillcolor="#39e53c"] ;
259 -> 261 ;
262 [label=<Init_Win_bytes_backward &le; 207.0<br/>gini = 0.101<br/>samples = 3235<br/>value = [22, 0, 0, 61, 6, 0, 76, 0, 0, 0, 0, 0, 4<br/>3066, 0]<br/>class = Web Attack Sql Injection>, fillcolor="#e64482"] ;
248 -> 262 ;
263 [label=<gini = 0.0<br/>samples = 21<br/>value = [21, 0, 0, 0, 0, 0, 0, 0, 0, 0, 0, 0, 0, 0<br/>0]<br/>class = BENIGN>, fillcolor="#e58139"] ;
262 -> 263 ;
264 [label=<Flow Duration &le; 5087443.5<br/>gini = 0.089<br/>samples = 3214<br/>value = [1, 0, 0, 61, 6, 0, 76, 0, 0, 0, 0, 0, 4<br/>3066, 0]<br/>class = Web Attack Sql Injection>, fillcolor="#e64281"] ;
262 -> 264 ;
265 [label=<Fwd IAT Min &le; 346.0<br/>gini = 0.078<br/>samples = 3195<br/>value = [1, 0, 0, 51, 1, 0, 76, 0, 0, 0, 0, 0, 0<br/>3066, 0]<br/>class = Web Attack Sql Injection>, fillcolor="#e64180"] ;
264 -> 265 ;
266 [label=<Bwd IAT Std &le; 2888826.5<br/>gini = 0.072<br/>samples = 3184<br/>value = [1, 0, 0, 51, 1, 0, 65, 0, 0, 0, 0, 0, 0<br/>3066, 0]<br/>class = Web Attack Sql Injection>, fillcolor="#e64080"] ;
265 -> 266 ;
267 [label=<Flow IAT Min &le; 2.5<br/>gini = 0.067<br/>samples = 3175<br/>value = [1, 0, 0, 42, 1, 0, 65, 0, 0, 0, 0, 0, 0<br/>3066, 0]<br/>class = Web Attack Sql Injection>, fillcolor="#e64080"] ;
266 -> 267 ;
268 [label=<gini = 0.0<br/>samples = 7<br/>value = [0, 0, 0, 7, 0, 0, 0, 0, 0, 0, 0, 0, 0, 0<br/>0]<br/>class = DoS GoldenEye>, fillcolor="#7be539"] ;
267 -> 268 ;
269 [label=<Fwd IAT Total &le; 295136.0<br/>gini = 0.063<br/>samples = 3168<br/>value = [1, 0, 0, 35, 1, 0, 65, 0, 0, 0, 0, 0, 0<br/>3066, 0]<br/>class = Web Attack Sql Injection>, fillcolor="#e6407f"] ;
267 -> 269 ;
270 [label=<Flow IAT Min &le; 3.5<br/>gini = 0.028<br/>samples = 2642<br/>value = [1, 0, 0, 35, 1, 0, 0, 0, 0, 0, 0, 0, 0, 2605<br/>0]<br/>class = Web Attack Sql Injection>, fillcolor="#e53c7d"] ;
269 -> 270 ;
271 [label=<gini = 0.0<br/>samples = 7<br/>value = [0, 0, 0, 7, 0, 0, 0, 0, 0, 0, 0, 0, 0, 0<br/>0]<br/>class = DoS GoldenEye>, fillcolor="#7be539"] ;
270 -> 271 ;
272 [label=<Flow Bytes/s &le; 638.875<br/>gini = 0.023<br/>samples = 2635<br/>value = [1, 0, 0, 28, 1, 0, 0, 0, 0, 0, 0, 0, 0, 2605<br/>0]<br/>class = Web Attack Sql Injection>, fillcolor="#e53b7d"] ;
270 -> 272 ;
273 [label=<Down/Up Ratio &le; 0.5<br/>gini = 0.002<br/>samples = 2265<br/>value = [1, 0, 0, 0, 1, 0, 0, 0, 0, 0, 0, 0, 0, 2263<br/>0]<br/>class = Web Attack Sql Injection>, fillcolor="#e5397b"] ;
272 -> 273 ;
274 [label=<gini = 0.0<br/>samples = 1<br/>value = [0, 0, 0, 0, 1, 0, 0, 0, 0, 0, 0, 0, 0, 0<br/>0]<br/>class = DoS Hulk>, fillcolor="#39e53c"] ;
273 -> 274 ;
275 [label=<Flow IAT Min &le; 16486.0<br/>gini = 0.001<br/>samples = 2264<br/>value = [1, 0, 0, 0, 0, 0, 0, 0, 0, 0, 0, 0, 0, 2263<br/>0]<br/>class = Web Attack Sql Injection>, fillcolor="#e5397b"] ;
273 -> 275 ;
276 [label=<gini = 0.0<br/>samples = 2263<br/>value = [0, 0, 0, 0, 0, 0, 0, 0, 0, 0, 0, 0, 0, 2263<br/>0]<br/>class = Web Attack Sql Injection>, fillcolor="#e5397b"] ;
275 -> 276 ;
277 [label=<gini = 0.0<br/>samples = 1<br/>value = [1, 0, 0, 0, 0, 0, 0, 0, 0, 0, 0, 0, 0, 0<br/>0]<br/>class = BENIGN>, fillcolor="#e58139"] ;
275 -> 277 ;
278 [label=<Bwd IAT Total &le; 5013413.0<br/>gini = 0.14<br/>samples = 370<br/>value = [0, 0, 0, 28, 0, 0, 0, 0, 0, 0, 0, 0, 0, 342<br/>0]<br/>class = Web Attack Sql Injection>, fillcolor="#e74986"] ;
272 -> 278 ;
279 [label=<gini = 0.0<br/>samples = 28<br/>value = [0, 0, 0, 28, 0, 0, 0, 0, 0, 0, 0, 0, 0, 0<br/>0]<br/>class = DoS GoldenEye>, fillcolor="#7be539"] ;
278 -> 279 ;
280 [label=<gini = 0.0<br/>samples = 342<br/>value = [0, 0, 0, 0, 0, 0, 0, 0, 0, 0, 0, 0, 0, 342<br/>0]<br/>class = Web Attack Sql Injection>, fillcolor="#e5397b"] ;
278 -> 280 ;
281 [label=<Fwd IAT Max &le; 2773768.0<br/>gini = 0.217<br/>samples = 526<br/>value = [0, 0, 0, 0, 0, 0, 65, 0, 0, 0, 0, 0, 0, 461<br/>0]<br/>class = Web Attack Sql Injection>, fillcolor="#e9558e"] ;
269 -> 281 ;
282 [label=<gini = 0.0<br/>samples = 65<br/>value = [0, 0, 0, 0, 0, 0, 65, 0, 0, 0, 0, 0, 0, 0<br/>0]<br/>class = DoS slowloris>, fillcolor="#39e5c5"] ;
281 -> 282 ;
283 [label=<gini = 0.0<br/>samples = 461<br/>value = [0, 0, 0, 0, 0, 0, 0, 0, 0, 0, 0, 0, 0, 461<br/>0]<br/>class = Web Attack Sql Injection>, fillcolor="#e5397b"] ;
281 -> 283 ;
284 [label=<gini = 0.0<br/>samples = 9<br/>value = [0, 0, 0, 9, 0, 0, 0, 0, 0, 0, 0, 0, 0, 0<br/>0]<br/>class = DoS GoldenEye>, fillcolor="#7be539"] ;
266 -> 284 ;
285 [label=<gini = 0.0<br/>samples = 11<br/>value = [0, 0, 0, 0, 0, 0, 11, 0, 0, 0, 0, 0, 0, 0<br/>0]<br/>class = DoS slowloris>, fillcolor="#39e5c5"] ;
265 -> 285 ;
286 [label=<Fwd Packets/s &le; 0.83<br/>gini = 0.609<br/>samples = 19<br/>value = [0, 0, 0, 10, 5, 0, 0, 0, 0, 0, 0, 0, 4, 0<br/>0]<br/>class = DoS GoldenEye>, fillcolor="#d0f6b8"] ;
264 -> 286 ;
287 [label=<Subflow Bwd Packets &le; 4.5<br/>gini = 0.494<br/>samples = 9<br/>value = [0, 0, 0, 0, 5, 0, 0, 0, 0, 0, 0, 0, 4, 0<br/>0]<br/>class = DoS Hulk>, fillcolor="#d7fad8"] ;
286 -> 287 ;
288 [label=<gini = 0.0<br/>samples = 4<br/>value = [0, 0, 0, 0, 0, 0, 0, 0, 0, 0, 0, 0, 4, 0<br/>0]<br/>class = Web Attack Brute Force>, fillcolor="#e539c0"] ;
287 -> 288 ;
289 [label=<gini = 0.0<br/>samples = 5<br/>value = [0, 0, 0, 0, 5, 0, 0, 0, 0, 0, 0, 0, 0, 0<br/>0]<br/>class = DoS Hulk>, fillcolor="#39e53c"] ;
287 -> 289 ;
290 [label=<gini = 0.0<br/>samples = 10<br/>value = [0, 0, 0, 10, 0, 0, 0, 0, 0, 0, 0, 0, 0, 0<br/>0]<br/>class = DoS GoldenEye>, fillcolor="#7be539"] ;
286 -> 290 ;
291 [label=<Flow IAT Max &le; 118.0<br/>gini = 0.724<br/>samples = 407<br/>value = [82, 0, 0, 3, 0, 104, 14, 0, 0, 0, 8, 0, 164<br/>0, 32]<br/>class = Web Attack Brute Force>, fillcolor="#fad8f3"] ;
247 -> 291 ;
292 [label=<Init_Win_bytes_backward &le; 765.0<br/>gini = 0.194<br/>samples = 180<br/>value = [1, 0, 0, 0, 0, 1, 4, 0, 0, 0, 0, 0, 161, 0<br/>13]<br/>class = Web Attack Brute Force>, fillcolor="#e850c7"] ;
291 -> 292 ;
293 [label=<Flow Packets/s &le; 42543.859<br/>gini = 0.567<br/>samples = 21<br/>value = [1, 0, 0, 0, 0, 1, 4, 0, 0, 0, 0, 0, 2, 0<br/>13]<br/>class = Web Attack XSS>, fillcolor="#f19896"] ;
292 -> 293 ;
294 [label=<Flow IAT Mean &le; 76.0<br/>gini = 0.7<br/>samples = 10<br/>value = [0, 0, 0, 0, 0, 1, 4, 0, 0, 0, 0, 0, 2, 0<br/>3]<br/>class = DoS slowloris>, fillcolor="#e3fbf7"] ;
293 -> 294 ;
295 [label=<Init_Win_bytes_backward &le; 247.5<br/>gini = 0.32<br/>samples = 5<br/>value = [0, 0, 0, 0, 0, 1, 4, 0, 0, 0, 0, 0, 0, 0<br/>0]<br/>class = DoS slowloris>, fillcolor="#6aecd4"] ;
294 -> 295 ;
296 [label=<gini = 0.0<br/>samples = 1<br/>value = [0, 0, 0, 0, 0, 1, 0, 0, 0, 0, 0, 0, 0, 0<br/>0]<br/>class = DoS Slowhttptest>, fillcolor="#39e581"] ;
295 -> 296 ;
297 [label=<gini = 0.0<br/>samples = 4<br/>value = [0, 0, 0, 0, 0, 0, 4, 0, 0, 0, 0, 0, 0, 0<br/>0]<br/>class = DoS slowloris>, fillcolor="#39e5c5"] ;
295 -> 297 ;
298 [label=<Bwd Packets/s &le; 12664.0<br/>gini = 0.48<br/>samples = 5<br/>value = [0, 0, 0, 0, 0, 0, 0, 0, 0, 0, 0, 0, 2, 0<br/>3]<br/>class = Web Attack XSS>, fillcolor="#f6bebd"] ;
294 -> 298 ;
299 [label=<gini = 0.0<br/>samples = 2<br/>value = [0, 0, 0, 0, 0, 0, 0, 0, 0, 0, 0, 0, 2, 0<br/>0]<br/>class = Web Attack Brute Force>, fillcolor="#e539c0"] ;
298 -> 299 ;
300 [label=<gini = 0.0<br/>samples = 3<br/>value = [0, 0, 0, 0, 0, 0, 0, 0, 0, 0, 0, 0, 0, 0<br/>3]<br/>class = Web Attack XSS>, fillcolor="#e53c39"] ;
298 -> 300 ;
301 [label=<Flow IAT Mean &le; 17.5<br/>gini = 0.165<br/>samples = 11<br/>value = [1, 0, 0, 0, 0, 0, 0, 0, 0, 0, 0, 0, 0, 0<br/>10]<br/>class = Web Attack XSS>, fillcolor="#e8504d"] ;
293 -> 301 ;
302 [label=<gini = 0.0<br/>samples = 1<br/>value = [1, 0, 0, 0, 0, 0, 0, 0, 0, 0, 0, 0, 0, 0<br/>0]<br/>class = BENIGN>, fillcolor="#e58139"] ;
301 -> 302 ;
303 [label=<gini = 0.0<br/>samples = 10<br/>value = [0, 0, 0, 0, 0, 0, 0, 0, 0, 0, 0, 0, 0, 0<br/>10]<br/>class = Web Attack XSS>, fillcolor="#e53c39"] ;
301 -> 303 ;
304 [label=<gini = 0.0<br/>samples = 159<br/>value = [0, 0, 0, 0, 0, 0, 0, 0, 0, 0, 0, 0, 159, 0<br/>0]<br/>class = Web Attack Brute Force>, fillcolor="#e539c0"] ;
292 -> 304 ;
305 [label=<Fwd Packet Length Mean &le; 105.656<br/>gini = 0.656<br/>samples = 227<br/>value = [81, 0, 0, 3, 0, 103, 10, 0, 0, 0, 8, 0, 3, 0<br/>19]<br/>class = DoS Slowhttptest>, fillcolor="#e1fbec"] ;
291 -> 305 ;
306 [label=<Fwd IAT Min &le; 53.5<br/>gini = 0.403<br/>samples = 104<br/>value = [79, 0, 0, 0, 0, 6, 0, 0, 0, 0, 8, 0, 0, 0<br/>11]<br/>class = BENIGN>, fillcolor="#eca36e"] ;
305 -> 306 ;
307 [label=<Flow Duration &le; 12210.0<br/>gini = 0.222<br/>samples = 90<br/>value = [79, 0, 0, 0, 0, 6, 0, 0, 0, 0, 5, 0, 0, 0<br/>0]<br/>class = BENIGN>, fillcolor="#e89253"] ;
306 -> 307 ;
308 [label=<Fwd IAT Min &le; 1.5<br/>gini = 0.278<br/>samples = 6<br/>value = [1, 0, 0, 0, 0, 0, 0, 0, 0, 0, 5, 0, 0, 0<br/>0]<br/>class = PortScan>, fillcolor="#9a61ea"] ;
307 -> 308 ;
309 [label=<gini = 0.0<br/>samples = 1<br/>value = [1, 0, 0, 0, 0, 0, 0, 0, 0, 0, 0, 0, 0, 0<br/>0]<br/>class = BENIGN>, fillcolor="#e58139"] ;
308 -> 309 ;
310 [label=<gini = 0.0<br/>samples = 5<br/>value = [0, 0, 0, 0, 0, 0, 0, 0, 0, 0, 5, 0, 0, 0<br/>0]<br/>class = PortScan>, fillcolor="#8139e5"] ;
308 -> 310 ;
311 [label=<Bwd Packets/s &le; 0.447<br/>gini = 0.133<br/>samples = 84<br/>value = [78, 0, 0, 0, 0, 6, 0, 0, 0, 0, 0, 0, 0, 0<br/>0]<br/>class = BENIGN>, fillcolor="#e78b48"] ;
307 -> 311 ;
312 [label=<Bwd Packets/s &le; 0.312<br/>gini = 0.48<br/>samples = 15<br/>value = [9, 0, 0, 0, 0, 6, 0, 0, 0, 0, 0, 0, 0, 0<br/>0]<br/>class = BENIGN>, fillcolor="#f6d5bd"] ;
311 -> 312 ;
313 [label=<gini = 0.0<br/>samples = 9<br/>value = [9, 0, 0, 0, 0, 0, 0, 0, 0, 0, 0, 0, 0, 0<br/>0]<br/>class = BENIGN>, fillcolor="#e58139"] ;
312 -> 313 ;
314 [label=<gini = 0.0<br/>samples = 6<br/>value = [0, 0, 0, 0, 0, 6, 0, 0, 0, 0, 0, 0, 0, 0<br/>0]<br/>class = DoS Slowhttptest>, fillcolor="#39e581"] ;
312 -> 314 ;
315 [label=<gini = 0.0<br/>samples = 69<br/>value = [69, 0, 0, 0, 0, 0, 0, 0, 0, 0, 0, 0, 0, 0<br/>0]<br/>class = BENIGN>, fillcolor="#e58139"] ;
311 -> 315 ;
316 [label=<Fwd Packets/s &le; 1429.3<br/>gini = 0.337<br/>samples = 14<br/>value = [0, 0, 0, 0, 0, 0, 0, 0, 0, 0, 3, 0, 0, 0<br/>11]<br/>class = Web Attack XSS>, fillcolor="#ec716f"] ;
306 -> 316 ;
317 [label=<gini = 0.0<br/>samples = 11<br/>value = [0, 0, 0, 0, 0, 0, 0, 0, 0, 0, 0, 0, 0, 0<br/>11]<br/>class = Web Attack XSS>, fillcolor="#e53c39"] ;
316 -> 317 ;
318 [label=<gini = 0.0<br/>samples = 3<br/>value = [0, 0, 0, 0, 0, 0, 0, 0, 0, 0, 3, 0, 0, 0<br/>0]<br/>class = PortScan>, fillcolor="#8139e5"] ;
316 -> 318 ;
319 [label=<Flow Duration &le; 3302689.0<br/>gini = 0.366<br/>samples = 123<br/>value = [2, 0, 0, 3, 0, 97, 10, 0, 0, 0, 0, 0, 3, 0<br/>8]<br/>class = DoS Slowhttptest>, fillcolor="#67eb9e"] ;
305 -> 319 ;
320 [label=<Fwd IAT Min &le; 429.0<br/>gini = 0.076<br/>samples = 101<br/>value = [0, 0, 0, 0, 0, 97, 4, 0, 0, 0, 0, 0, 0, 0<br/>0]<br/>class = DoS Slowhttptest>, fillcolor="#41e686"] ;
319 -> 320 ;
321 [label=<gini = 0.0<br/>samples = 97<br/>value = [0, 0, 0, 0, 0, 97, 0, 0, 0, 0, 0, 0, 0, 0<br/>0]<br/>class = DoS Slowhttptest>, fillcolor="#39e581"] ;
320 -> 321 ;
322 [label=<gini = 0.0<br/>samples = 4<br/>value = [0, 0, 0, 0, 0, 0, 4, 0, 0, 0, 0, 0, 0, 0<br/>0]<br/>class = DoS slowloris>, fillcolor="#39e5c5"] ;
320 -> 322 ;
323 [label=<Bwd Packet Length Max &le; 282.5<br/>gini = 0.748<br/>samples = 22<br/>value = [2, 0, 0, 3, 0, 0, 6, 0, 0, 0, 0, 0, 3, 0<br/>8]<br/>class = Web Attack XSS>, fillcolor="#fce7e6"] ;
319 -> 323 ;
324 [label=<gini = 0.0<br/>samples = 6<br/>value = [0, 0, 0, 0, 0, 0, 6, 0, 0, 0, 0, 0, 0, 0<br/>0]<br/>class = DoS slowloris>, fillcolor="#39e5c5"] ;
323 -> 324 ;
325 [label=<Fwd Packet Length Max &le; 555.5<br/>gini = 0.664<br/>samples = 16<br/>value = [2, 0, 0, 3, 0, 0, 0, 0, 0, 0, 0, 0, 3, 0<br/>8]<br/>class = Web Attack XSS>, fillcolor="#f5b4b3"] ;
323 -> 325 ;
326 [label=<gini = 0.0<br/>samples = 8<br/>value = [0, 0, 0, 0, 0, 0, 0, 0, 0, 0, 0, 0, 0, 0<br/>8]<br/>class = Web Attack XSS>, fillcolor="#e53c39"] ;
325 -> 326 ;
327 [label=<Down/Up Ratio &le; 0.5<br/>gini = 0.656<br/>samples = 8<br/>value = [2, 0, 0, 3, 0, 0, 0, 0, 0, 0, 0, 0, 3, 0<br/>0]<br/>class = DoS GoldenEye>, fillcolor="#ffffff"] ;
325 -> 327 ;
328 [label=<Bwd IAT Std &le; 97161.328<br/>gini = 0.48<br/>samples = 5<br/>value = [2, 0, 0, 0, 0, 0, 0, 0, 0, 0, 0, 0, 3, 0<br/>0]<br/>class = Web Attack Brute Force>, fillcolor="#f6bdea"] ;
327 -> 328 ;
329 [label=<gini = 0.0<br/>samples = 2<br/>value = [2, 0, 0, 0, 0, 0, 0, 0, 0, 0, 0, 0, 0, 0<br/>0]<br/>class = BENIGN>, fillcolor="#e58139"] ;
328 -> 329 ;
330 [label=<gini = 0.0<br/>samples = 3<br/>value = [0, 0, 0, 0, 0, 0, 0, 0, 0, 0, 0, 0, 3, 0<br/>0]<br/>class = Web Attack Brute Force>, fillcolor="#e539c0"] ;
328 -> 330 ;
331 [label=<gini = 0.0<br/>samples = 3<br/>value = [0, 0, 0, 3, 0, 0, 0, 0, 0, 0, 0, 0, 0, 0<br/>0]<br/>class = DoS GoldenEye>, fillcolor="#7be539"] ;
327 -> 331 ;
332 [label=<Init_Win_bytes_forward &le; 47367.5<br/>gini = 0.75<br/>samples = 2048<br/>value = [855, 0, 0, 202, 129, 285, 384, 0, 0, 0, 174, 0<br/>5, 0, 14]<br/>class = BENIGN>, fillcolor="#f8dbc7"] ;
246 -> 332 ;
333 [label=<Max Packet Length &le; 500.0<br/>gini = 0.797<br/>samples = 1255<br/>value = [62, 0, 0, 202, 129, 285, 384, 0, 0, 0, 174, 0<br/>5, 0, 14]<br/>class = DoS slowloris>, fillcolor="#ebfcf9"] ;
332 -> 333 ;
334 [label=<Init_Win_bytes_backward &le; 176.5<br/>gini = 0.457<br/>samples = 568<br/>value = [6, 0, 0, 0, 0, 8, 381, 0, 0, 0, 173, 0, 0, 0<br/>0]<br/>class = DoS slowloris>, fillcolor="#97f1e0"] ;
333 -> 334 ;
335 [label=<Packet Length Mean &le; 3.467<br/>gini = 0.115<br/>samples = 183<br/>value = [4, 0, 0, 0, 0, 7, 0, 0, 0, 0, 172, 0, 0, 0<br/>0]<br/>class = PortScan>, fillcolor="#8945e7"] ;
334 -> 335 ;
336 [label=<Bwd Packet Length Mean &le; 5.0<br/>gini = 0.011<br/>samples = 173<br/>value = [1, 0, 0, 0, 0, 0, 0, 0, 0, 0, 172, 0, 0, 0<br/>0]<br/>class = PortScan>, fillcolor="#823ae5"] ;
335 -> 336 ;
337 [label=<gini = 0.0<br/>samples = 1<br/>value = [1, 0, 0, 0, 0, 0, 0, 0, 0, 0, 0, 0, 0, 0<br/>0]<br/>class = BENIGN>, fillcolor="#e58139"] ;
336 -> 337 ;
338 [label=<gini = 0.0<br/>samples = 172<br/>value = [0, 0, 0, 0, 0, 0, 0, 0, 0, 0, 172, 0, 0, 0<br/>0]<br/>class = PortScan>, fillcolor="#8139e5"] ;
336 -> 338 ;
339 [label=<Average Packet Size &le; 189.336<br/>gini = 0.42<br/>samples = 10<br/>value = [3, 0, 0, 0, 0, 7, 0, 0, 0, 0, 0, 0, 0, 0<br/>0]<br/>class = DoS Slowhttptest>, fillcolor="#8ef0b7"] ;
335 -> 339 ;
340 [label=<gini = 0.0<br/>samples = 3<br/>value = [3, 0, 0, 0, 0, 0, 0, 0, 0, 0, 0, 0, 0, 0<br/>0]<br/>class = BENIGN>, fillcolor="#e58139"] ;
339 -> 340 ;
341 [label=<gini = 0.0<br/>samples = 7<br/>value = [0, 0, 0, 0, 0, 7, 0, 0, 0, 0, 0, 0, 0, 0<br/>0]<br/>class = DoS Slowhttptest>, fillcolor="#39e581"] ;
339 -> 341 ;
342 [label=<Destination Port &le; 109.5<br/>gini = 0.021<br/>samples = 385<br/>value = [2, 0, 0, 0, 0, 1, 381, 0, 0, 0, 1, 0, 0, 0<br/>0]<br/>class = DoS slowloris>, fillcolor="#3be5c6"] ;
334 -> 342 ;
343 [label=<Subflow Fwd Bytes &le; 880.5<br/>gini = 0.005<br/>samples = 382<br/>value = [0, 0, 0, 0, 0, 1, 381, 0, 0, 0, 0, 0, 0, 0<br/>0]<br/>class = DoS slowloris>, fillcolor="#3ae5c5"] ;
342 -> 343 ;
344 [label=<gini = 0.0<br/>samples = 381<br/>value = [0, 0, 0, 0, 0, 0, 381, 0, 0, 0, 0, 0, 0, 0<br/>0]<br/>class = DoS slowloris>, fillcolor="#39e5c5"] ;
343 -> 344 ;
345 [label=<gini = 0.0<br/>samples = 1<br/>value = [0, 0, 0, 0, 0, 1, 0, 0, 0, 0, 0, 0, 0, 0<br/>0]<br/>class = DoS Slowhttptest>, fillcolor="#39e581"] ;
343 -> 345 ;
346 [label=<Bwd Packet Length Mean &le; 23.172<br/>gini = 0.444<br/>samples = 3<br/>value = [2, 0, 0, 0, 0, 0, 0, 0, 0, 0, 1, 0, 0, 0<br/>0]<br/>class = BENIGN>, fillcolor="#f2c09c"] ;
342 -> 346 ;
347 [label=<gini = 0.0<br/>samples = 2<br/>value = [2, 0, 0, 0, 0, 0, 0, 0, 0, 0, 0, 0, 0, 0<br/>0]<br/>class = BENIGN>, fillcolor="#e58139"] ;
346 -> 347 ;
348 [label=<gini = 0.0<br/>samples = 1<br/>value = [0, 0, 0, 0, 0, 0, 0, 0, 0, 0, 1, 0, 0, 0<br/>0]<br/>class = PortScan>, fillcolor="#8139e5"] ;
346 -> 348 ;
349 [label=<PSH Flag Count &le; 0.5<br/>gini = 0.709<br/>samples = 687<br/>value = [56, 0, 0, 202, 129, 277, 3, 0, 0, 0, 1, 0, 5<br/>0, 14]<br/>class = DoS Slowhttptest>, fillcolor="#e0fbec"] ;
333 -> 349 ;
350 [label=<gini = 0.0<br/>samples = 277<br/>value = [0, 0, 0, 0, 0, 277, 0, 0, 0, 0, 0, 0, 0, 0<br/>0]<br/>class = DoS Slowhttptest>, fillcolor="#39e581"] ;
349 -> 350 ;
351 [label=<Bwd IAT Mean &le; 642385.75<br/>gini = 0.638<br/>samples = 410<br/>value = [56, 0, 0, 202, 129, 0, 3, 0, 0, 0, 1, 0, 5<br/>0, 14]<br/>class = DoS GoldenEye>, fillcolor="#ddf8cc"] ;
349 -> 351 ;
352 [label=<Packet Length Variance &le; 1422578.812<br/>gini = 0.468<br/>samples = 193<br/>value = [56, 0, 0, 0, 129, 0, 0, 0, 0, 0, 1, 0, 5, 0<br/>2]<br/>class = DoS Hulk>, fillcolor="#95f197"] ;
351 -> 352 ;
353 [label=<gini = 0.0<br/>samples = 56<br/>value = [56, 0, 0, 0, 0, 0, 0, 0, 0, 0, 0, 0, 0, 0<br/>0]<br/>class = BENIGN>, fillcolor="#e58139"] ;
352 -> 353 ;
354 [label=<Packet Length Mean &le; 741.25<br/>gini = 0.112<br/>samples = 137<br/>value = [0, 0, 0, 0, 129, 0, 0, 0, 0, 0, 1, 0, 5, 0<br/>2]<br/>class = DoS Hulk>, fillcolor="#45e748"] ;
352 -> 354 ;
355 [label=<Flow IAT Min &le; 31.5<br/>gini = 0.408<br/>samples = 7<br/>value = [0, 0, 0, 0, 0, 0, 0, 0, 0, 0, 0, 0, 5, 0<br/>2]<br/>class = Web Attack Brute Force>, fillcolor="#ef88d9"] ;
354 -> 355 ;
356 [label=<gini = 0.0<br/>samples = 2<br/>value = [0, 0, 0, 0, 0, 0, 0, 0, 0, 0, 0, 0, 0, 0<br/>2]<br/>class = Web Attack XSS>, fillcolor="#e53c39"] ;
355 -> 356 ;
357 [label=<gini = 0.0<br/>samples = 5<br/>value = [0, 0, 0, 0, 0, 0, 0, 0, 0, 0, 0, 0, 5, 0<br/>0]<br/>class = Web Attack Brute Force>, fillcolor="#e539c0"] ;
355 -> 357 ;
358 [label=<Subflow Fwd Bytes &le; 151.5<br/>gini = 0.015<br/>samples = 130<br/>value = [0, 0, 0, 0, 129, 0, 0, 0, 0, 0, 1, 0, 0, 0<br/>0]<br/>class = DoS Hulk>, fillcolor="#3be53e"] ;
354 -> 358 ;
359 [label=<gini = 0.0<br/>samples = 1<br/>value = [0, 0, 0, 0, 0, 0, 0, 0, 0, 0, 1, 0, 0, 0<br/>0]<br/>class = PortScan>, fillcolor="#8139e5"] ;
358 -> 359 ;
360 [label=<gini = 0.0<br/>samples = 129<br/>value = [0, 0, 0, 0, 129, 0, 0, 0, 0, 0, 0, 0, 0, 0<br/>0]<br/>class = DoS Hulk>, fillcolor="#39e53c"] ;
358 -> 360 ;
361 [label=<Total Length of Bwd Packets &le; 10503.5<br/>gini = 0.13<br/>samples = 217<br/>value = [0, 0, 0, 202, 0, 0, 3, 0, 0, 0, 0, 0, 0, 0<br/>12]<br/>class = DoS GoldenEye>, fillcolor="#85e747"] ;
351 -> 361 ;
362 [label=<Init_Win_bytes_backward &le; 239.0<br/>gini = 0.32<br/>samples = 15<br/>value = [0, 0, 0, 0, 0, 0, 3, 0, 0, 0, 0, 0, 0, 0<br/>12]<br/>class = Web Attack XSS>, fillcolor="#ec6d6a"] ;
361 -> 362 ;
363 [label=<gini = 0.0<br/>samples = 3<br/>value = [0, 0, 0, 0, 0, 0, 3, 0, 0, 0, 0, 0, 0, 0<br/>0]<br/>class = DoS slowloris>, fillcolor="#39e5c5"] ;
362 -> 363 ;
364 [label=<gini = 0.0<br/>samples = 12<br/>value = [0, 0, 0, 0, 0, 0, 0, 0, 0, 0, 0, 0, 0, 0<br/>12]<br/>class = Web Attack XSS>, fillcolor="#e53c39"] ;
362 -> 364 ;
365 [label=<gini = 0.0<br/>samples = 202<br/>value = [0, 0, 0, 202, 0, 0, 0, 0, 0, 0, 0, 0, 0, 0<br/>0]<br/>class = DoS GoldenEye>, fillcolor="#7be539"] ;
361 -> 365 ;
366 [label=<gini = 0.0<br/>samples = 793<br/>value = [793, 0, 0, 0, 0, 0, 0, 0, 0, 0, 0, 0, 0, 0<br/>0]<br/>class = BENIGN>, fillcolor="#e58139"] ;
332 -> 366 ;
367 [label=<Subflow Bwd Packets &le; 8.5<br/>gini = 0.165<br/>samples = 2271<br/>value = [132, 0, 0, 2071, 0, 0, 23, 0, 0, 0, 0, 0, 8<br/>0, 37]<br/>class = DoS GoldenEye>, fillcolor="#87e74c"] ;
245 -> 367 ;
368 [label=<Total Length of Bwd Packets &le; 2923.0<br/>gini = 0.031<br/>samples = 2103<br/>value = [7, 0, 0, 2070, 0, 0, 23, 0, 0, 0, 0, 0, 3, 0<br/>0]<br/>class = DoS GoldenEye>, fillcolor="#7de53c"] ;
367 -> 368 ;
369 [label=<Bwd Header Length &le; 120.0<br/>gini = 0.461<br/>samples = 33<br/>value = [7, 0, 0, 0, 0, 0, 23, 0, 0, 0, 0, 0, 3, 0<br/>0]<br/>class = DoS slowloris>, fillcolor="#85efdb"] ;
368 -> 369 ;
370 [label=<gini = 0.0<br/>samples = 23<br/>value = [0, 0, 0, 0, 0, 0, 23, 0, 0, 0, 0, 0, 0, 0<br/>0]<br/>class = DoS slowloris>, fillcolor="#39e5c5"] ;
369 -> 370 ;
371 [label=<Active Min &le; 11587.0<br/>gini = 0.42<br/>samples = 10<br/>value = [7, 0, 0, 0, 0, 0, 0, 0, 0, 0, 0, 0, 3, 0<br/>0]<br/>class = BENIGN>, fillcolor="#f0b78e"] ;
369 -> 371 ;
372 [label=<Bwd Packets/s &le; 1.377<br/>gini = 0.375<br/>samples = 4<br/>value = [1, 0, 0, 0, 0, 0, 0, 0, 0, 0, 0, 0, 3, 0<br/>0]<br/>class = Web Attack Brute Force>, fillcolor="#ee7bd5"] ;
371 -> 372 ;
373 [label=<gini = 0.0<br/>samples = 3<br/>value = [0, 0, 0, 0, 0, 0, 0, 0, 0, 0, 0, 0, 3, 0<br/>0]<br/>class = Web Attack Brute Force>, fillcolor="#e539c0"] ;
372 -> 373 ;
374 [label=<gini = 0.0<br/>samples = 1<br/>value = [1, 0, 0, 0, 0, 0, 0, 0, 0, 0, 0, 0, 0, 0<br/>0]<br/>class = BENIGN>, fillcolor="#e58139"] ;
372 -> 374 ;
375 [label=<gini = 0.0<br/>samples = 6<br/>value = [6, 0, 0, 0, 0, 0, 0, 0, 0, 0, 0, 0, 0, 0<br/>0]<br/>class = BENIGN>, fillcolor="#e58139"] ;
371 -> 375 ;
376 [label=<gini = 0.0<br/>samples = 2070<br/>value = [0, 0, 0, 2070, 0, 0, 0, 0, 0, 0, 0, 0, 0, 0<br/>0]<br/>class = DoS GoldenEye>, fillcolor="#7be539"] ;
368 -> 376 ;
377 [label=<Bwd IAT Max &le; 5488153.5<br/>gini = 0.397<br/>samples = 168<br/>value = [125, 0, 0, 1, 0, 0, 0, 0, 0, 0, 0, 0, 5, 0<br/>37]<br/>class = BENIGN>, fillcolor="#eeaa7a"] ;
367 -> 377 ;
378 [label=<Packet Length Std &le; 740.5<br/>gini = 0.246<br/>samples = 43<br/>value = [1, 0, 0, 0, 0, 0, 0, 0, 0, 0, 0, 0, 5, 0<br/>37]<br/>class = Web Attack XSS>, fillcolor="#e95b58"] ;
377 -> 378 ;
379 [label=<Fwd Packet Length Std &le; 287.938<br/>gini = 0.278<br/>samples = 6<br/>value = [1, 0, 0, 0, 0, 0, 0, 0, 0, 0, 0, 0, 5, 0<br/>0]<br/>class = Web Attack Brute Force>, fillcolor="#ea61cd"] ;
378 -> 379 ;
380 [label=<gini = 0.0<br/>samples = 5<br/>value = [0, 0, 0, 0, 0, 0, 0, 0, 0, 0, 0, 0, 5, 0<br/>0]<br/>class = Web Attack Brute Force>, fillcolor="#e539c0"] ;
379 -> 380 ;
381 [label=<gini = 0.0<br/>samples = 1<br/>value = [1, 0, 0, 0, 0, 0, 0, 0, 0, 0, 0, 0, 0, 0<br/>0]<br/>class = BENIGN>, fillcolor="#e58139"] ;
379 -> 381 ;
382 [label=<gini = 0.0<br/>samples = 37<br/>value = [0, 0, 0, 0, 0, 0, 0, 0, 0, 0, 0, 0, 0, 0<br/>37]<br/>class = Web Attack XSS>, fillcolor="#e53c39"] ;
378 -> 382 ;
383 [label=<Bwd Packet Length Std &le; 1396.0<br/>gini = 0.016<br/>samples = 125<br/>value = [124, 0, 0, 1, 0, 0, 0, 0, 0, 0, 0, 0, 0, 0<br/>0]<br/>class = BENIGN>, fillcolor="#e5823b"] ;
377 -> 383 ;
384 [label=<gini = 0.0<br/>samples = 124<br/>value = [124, 0, 0, 0, 0, 0, 0, 0, 0, 0, 0, 0, 0, 0<br/>0]<br/>class = BENIGN>, fillcolor="#e58139"] ;
383 -> 384 ;
385 [label=<gini = 0.0<br/>samples = 1<br/>value = [0, 0, 0, 1, 0, 0, 0, 0, 0, 0, 0, 0, 0, 0<br/>0]<br/>class = DoS GoldenEye>, fillcolor="#7be539"] ;
383 -> 385 ;
386 [label=<Flow Duration &le; 5735317.0<br/>gini = 0.526<br/>samples = 6241<br/>value = [42, 0, 0, 16, 79, 8, 17, 0, 0, 0, 2, 0, 3025<br/>0, 3052]<br/>class = Web Attack XSS>, fillcolor="#fffdfd"] ;
244 -> 386 ;
387 [label=<Init_Win_bytes_backward &le; 14949.5<br/>gini = 0.51<br/>samples = 4506<br/>value = [15, 0, 0, 2, 79, 7, 13, 0, 0, 0, 1, 0, 1801<br/>0, 2588]<br/>class = Web Attack XSS>, fillcolor="#f7c6c5"] ;
386 -> 387 ;
388 [label=<Bwd IAT Min &le; 205.0<br/>gini = 0.424<br/>samples = 106<br/>value = [6, 0, 0, 2, 79, 5, 13, 0, 0, 0, 1, 0, 0, 0<br/>0]<br/>class = DoS Hulk>, fillcolor="#72ed75"] ;
387 -> 388 ;
389 [label=<Fwd Packet Length Max &le; 422.5<br/>gini = 0.154<br/>samples = 86<br/>value = [3, 0, 0, 2, 79, 1, 0, 0, 0, 0, 1, 0, 0, 0<br/>0]<br/>class = DoS Hulk>, fillcolor="#4ae74c"] ;
388 -> 389 ;
390 [label=<Init_Win_bytes_backward &le; 231.0<br/>gini = 0.071<br/>samples = 82<br/>value = [0, 0, 0, 1, 79, 1, 0, 0, 0, 0, 1, 0, 0, 0<br/>0]<br/>class = DoS Hulk>, fillcolor="#40e643"] ;
389 -> 390 ;
391 [label=<gini = 0.0<br/>samples = 1<br/>value = [0, 0, 0, 0, 0, 0, 0, 0, 0, 0, 1, 0, 0, 0<br/>0]<br/>class = PortScan>, fillcolor="#8139e5"] ;
390 -> 391 ;
392 [label=<Bwd IAT Std &le; 1345623.305<br/>gini = 0.048<br/>samples = 81<br/>value = [0, 0, 0, 1, 79, 1, 0, 0, 0, 0, 0, 0, 0, 0<br/>0]<br/>class = DoS Hulk>, fillcolor="#3ee641"] ;
390 -> 392 ;
393 [label=<Fwd Header Length &le; 156.0<br/>gini = 0.025<br/>samples = 80<br/>value = [0, 0, 0, 0, 79, 1, 0, 0, 0, 0, 0, 0, 0, 0<br/>0]<br/>class = DoS Hulk>, fillcolor="#3ce53e"] ;
392 -> 393 ;
394 [label=<gini = 0.0<br/>samples = 77<br/>value = [0, 0, 0, 0, 77, 0, 0, 0, 0, 0, 0, 0, 0, 0<br/>0]<br/>class = DoS Hulk>, fillcolor="#39e53c"] ;
393 -> 394 ;
395 [label=<Average Packet Size &le; 648.0<br/>gini = 0.444<br/>samples = 3<br/>value = [0, 0, 0, 0, 2, 1, 0, 0, 0, 0, 0, 0, 0, 0<br/>0]<br/>class = DoS Hulk>, fillcolor="#9cf29e"] ;
393 -> 395 ;
396 [label=<gini = 0.0<br/>samples = 1<br/>value = [0, 0, 0, 0, 0, 1, 0, 0, 0, 0, 0, 0, 0, 0<br/>0]<br/>class = DoS Slowhttptest>, fillcolor="#39e581"] ;
395 -> 396 ;
397 [label=<gini = 0.0<br/>samples = 2<br/>value = [0, 0, 0, 0, 2, 0, 0, 0, 0, 0, 0, 0, 0, 0<br/>0]<br/>class = DoS Hulk>, fillcolor="#39e53c"] ;
395 -> 397 ;
398 [label=<gini = 0.0<br/>samples = 1<br/>value = [0, 0, 0, 1, 0, 0, 0, 0, 0, 0, 0, 0, 0, 0<br/>0]<br/>class = DoS GoldenEye>, fillcolor="#7be539"] ;
392 -> 398 ;
399 [label=<Fwd Packets/s &le; 1.128<br/>gini = 0.375<br/>samples = 4<br/>value = [3, 0, 0, 1, 0, 0, 0, 0, 0, 0, 0, 0, 0, 0<br/>0]<br/>class = BENIGN>, fillcolor="#eeab7b"] ;
389 -> 399 ;
400 [label=<gini = 0.0<br/>samples = 1<br/>value = [0, 0, 0, 1, 0, 0, 0, 0, 0, 0, 0, 0, 0, 0<br/>0]<br/>class = DoS GoldenEye>, fillcolor="#7be539"] ;
399 -> 400 ;
401 [label=<gini = 0.0<br/>samples = 3<br/>value = [3, 0, 0, 0, 0, 0, 0, 0, 0, 0, 0, 0, 0, 0<br/>0]<br/>class = BENIGN>, fillcolor="#e58139"] ;
399 -> 401 ;
402 [label=<Bwd IAT Max &le; 5223.0<br/>gini = 0.515<br/>samples = 20<br/>value = [3, 0, 0, 0, 0, 4, 13, 0, 0, 0, 0, 0, 0, 0<br/>0]<br/>class = DoS slowloris>, fillcolor="#90f0de"] ;
388 -> 402 ;
403 [label=<gini = 0.0<br/>samples = 13<br/>value = [0, 0, 0, 0, 0, 0, 13, 0, 0, 0, 0, 0, 0, 0<br/>0]<br/>class = DoS slowloris>, fillcolor="#39e5c5"] ;
402 -> 403 ;
404 [label=<Flow IAT Max &le; 28414.5<br/>gini = 0.49<br/>samples = 7<br/>value = [3, 0, 0, 0, 0, 4, 0, 0, 0, 0, 0, 0, 0, 0<br/>0]<br/>class = DoS Slowhttptest>, fillcolor="#cef8e0"] ;
402 -> 404 ;
405 [label=<gini = 0.0<br/>samples = 4<br/>value = [0, 0, 0, 0, 0, 4, 0, 0, 0, 0, 0, 0, 0, 0<br/>0]<br/>class = DoS Slowhttptest>, fillcolor="#39e581"] ;
404 -> 405 ;
406 [label=<gini = 0.0<br/>samples = 3<br/>value = [3, 0, 0, 0, 0, 0, 0, 0, 0, 0, 0, 0, 0, 0<br/>0]<br/>class = BENIGN>, fillcolor="#e58139"] ;
404 -> 406 ;
407 [label=<Fwd IAT Min &le; 1781.5<br/>gini = 0.486<br/>samples = 4400<br/>value = [9, 0, 0, 0, 0, 2, 0, 0, 0, 0, 0, 0, 1801, 0<br/>2588]<br/>class = Web Attack XSS>, fillcolor="#f7c4c3"] ;
387 -> 407 ;
408 [label=<Fwd IAT Min &le; 714.5<br/>gini = 0.487<br/>samples = 4293<br/>value = [0, 0, 0, 0, 0, 2, 0, 0, 0, 0, 0, 0, 1796, 0<br/>2495]<br/>class = Web Attack XSS>, fillcolor="#f8c8c8"] ;
407 -> 408 ;
409 [label=<Flow IAT Mean &le; 1861485.812<br/>gini = 0.502<br/>samples = 918<br/>value = [0, 0, 0, 0, 0, 2, 0, 0, 0, 0, 0, 0, 463, 0<br/>453]<br/>class = Web Attack Brute Force>, fillcolor="#fefbfe"] ;
408 -> 409 ;
410 [label=<Flow IAT Std &le; 3093193.0<br/>gini = 0.502<br/>samples = 771<br/>value = [0, 0, 0, 0, 0, 2, 0, 0, 0, 0, 0, 0, 367, 0<br/>402]<br/>class = Web Attack XSS>, fillcolor="#fdeeee"] ;
409 -> 410 ;
411 [label=<Flow IAT Min &le; 137.5<br/>gini = 0.5<br/>samples = 500<br/>value = [0, 0, 0, 0, 0, 2, 0, 0, 0, 0, 0, 0, 271, 0<br/>227]<br/>class = Web Attack Brute Force>, fillcolor="#fbdff5"] ;
410 -> 411 ;
412 [label=<Flow IAT Min &le; 126.5<br/>gini = 0.479<br/>samples = 392<br/>value = [0, 0, 0, 0, 0, 1, 0, 0, 0, 0, 0, 0, 238, 0<br/>153]<br/>class = Web Attack Brute Force>, fillcolor="#f6b9e9"] ;
411 -> 412 ;
413 [label=<Flow IAT Min &le; 124.5<br/>gini = 0.498<br/>samples = 273<br/>value = [0, 0, 0, 0, 0, 0, 0, 0, 0, 0, 0, 0, 144, 0<br/>129]<br/>class = Web Attack Brute Force>, fillcolor="#fceaf8"] ;
412 -> 413 ;
414 [label=<Fwd IAT Min &le; 711.5<br/>gini = 0.486<br/>samples = 231<br/>value = [0, 0, 0, 0, 0, 0, 0, 0, 0, 0, 0, 0, 135, 0<br/>96]<br/>class = Web Attack Brute Force>, fillcolor="#f7c6ed"] ;
413 -> 414 ;
415 [label=<Flow IAT Std &le; 3086446.875<br/>gini = 0.493<br/>samples = 217<br/>value = [0, 0, 0, 0, 0, 0, 0, 0, 0, 0, 0, 0, 121, 0<br/>96]<br/>class = Web Attack Brute Force>, fillcolor="#fad6f2"] ;
414 -> 415 ;
416 [label=<Flow IAT Min &le; 94.5<br/>gini = 0.498<br/>samples = 206<br/>value = [0, 0, 0, 0, 0, 0, 0, 0, 0, 0, 0, 0, 110, 0<br/>96]<br/>class = Web Attack Brute Force>, fillcolor="#fce6f7"] ;
415 -> 416 ;
417 [label=<Fwd IAT Total &le; 4004370.0<br/>gini = 0.403<br/>samples = 50<br/>value = [0, 0, 0, 0, 0, 0, 0, 0, 0, 0, 0, 0, 36, 0<br/>14]<br/>class = Web Attack Brute Force>, fillcolor="#ef86d8"] ;
416 -> 417 ;
418 [label=<gini = 0.0<br/>samples = 6<br/>value = [0, 0, 0, 0, 0, 0, 0, 0, 0, 0, 0, 0, 0, 0<br/>6]<br/>class = Web Attack XSS>, fillcolor="#e53c39"] ;
417 -> 418 ;
419 [label=<Fwd IAT Min &le; 684.0<br/>gini = 0.298<br/>samples = 44<br/>value = [0, 0, 0, 0, 0, 0, 0, 0, 0, 0, 0, 0, 36, 0<br/>8]<br/>class = Web Attack Brute Force>, fillcolor="#eb65ce"] ;
417 -> 419 ;
420 [label=<Flow IAT Min &le; 89.0<br/>gini = 0.463<br/>samples = 22<br/>value = [0, 0, 0, 0, 0, 0, 0, 0, 0, 0, 0, 0, 14, 0<br/>8]<br/>class = Web Attack Brute Force>, fillcolor="#f4aae4"] ;
419 -> 420 ;
421 [label=<gini = 0.0<br/>samples = 10<br/>value = [0, 0, 0, 0, 0, 0, 0, 0, 0, 0, 0, 0, 10, 0<br/>0]<br/>class = Web Attack Brute Force>, fillcolor="#e539c0"] ;
420 -> 421 ;
422 [label=<Flow Duration &le; 4562978.0<br/>gini = 0.444<br/>samples = 12<br/>value = [0, 0, 0, 0, 0, 0, 0, 0, 0, 0, 0, 0, 4, 0<br/>8]<br/>class = Web Attack XSS>, fillcolor="#f29e9c"] ;
420 -> 422 ;
423 [label=<gini = 0.0<br/>samples = 4<br/>value = [0, 0, 0, 0, 0, 0, 0, 0, 0, 0, 0, 0, 4, 0<br/>0]<br/>class = Web Attack Brute Force>, fillcolor="#e539c0"] ;
422 -> 423 ;
424 [label=<gini = 0.0<br/>samples = 8<br/>value = [0, 0, 0, 0, 0, 0, 0, 0, 0, 0, 0, 0, 0, 0<br/>8]<br/>class = Web Attack XSS>, fillcolor="#e53c39"] ;
422 -> 424 ;
425 [label=<gini = 0.0<br/>samples = 22<br/>value = [0, 0, 0, 0, 0, 0, 0, 0, 0, 0, 0, 0, 22, 0<br/>0]<br/>class = Web Attack Brute Force>, fillcolor="#e539c0"] ;
419 -> 425 ;
426 [label=<Flow IAT Min &le; 95.5<br/>gini = 0.499<br/>samples = 156<br/>value = [0, 0, 0, 0, 0, 0, 0, 0, 0, 0, 0, 0, 74, 0<br/>82]<br/>class = Web Attack XSS>, fillcolor="#fcecec"] ;
416 -> 426 ;
427 [label=<Fwd IAT Min &le; 681.0<br/>gini = 0.105<br/>samples = 18<br/>value = [0, 0, 0, 0, 0, 0, 0, 0, 0, 0, 0, 0, 1, 0<br/>17]<br/>class = Web Attack XSS>, fillcolor="#e74745"] ;
426 -> 427 ;
428 [label=<gini = 0.0<br/>samples = 1<br/>value = [0, 0, 0, 0, 0, 0, 0, 0, 0, 0, 0, 0, 1, 0<br/>0]<br/>class = Web Attack Brute Force>, fillcolor="#e539c0"] ;
427 -> 428 ;
429 [label=<gini = 0.0<br/>samples = 17<br/>value = [0, 0, 0, 0, 0, 0, 0, 0, 0, 0, 0, 0, 0, 0<br/>17]<br/>class = Web Attack XSS>, fillcolor="#e53c39"] ;
427 -> 429 ;
430 [label=<Flow Packets/s &le; 0.783<br/>gini = 0.498<br/>samples = 138<br/>value = [0, 0, 0, 0, 0, 0, 0, 0, 0, 0, 0, 0, 73, 0<br/>65]<br/>class = Web Attack Brute Force>, fillcolor="#fce9f8"] ;
426 -> 430 ;
431 [label=<Fwd IAT Max &le; 5141990.5<br/>gini = 0.497<br/>samples = 121<br/>value = [0, 0, 0, 0, 0, 0, 0, 0, 0, 0, 0, 0, 56, 0<br/>65]<br/>class = Web Attack XSS>, fillcolor="#fbe4e4"] ;
430 -> 431 ;
432 [label=<gini = 0.0<br/>samples = 19<br/>value = [0, 0, 0, 0, 0, 0, 0, 0, 0, 0, 0, 0, 0, 0<br/>19]<br/>class = Web Attack XSS>, fillcolor="#e53c39"] ;
431 -> 432 ;
433 [label=<Flow Packets/s &le; 0.765<br/>gini = 0.495<br/>samples = 102<br/>value = [0, 0, 0, 0, 0, 0, 0, 0, 0, 0, 0, 0, 56, 0<br/>46]<br/>class = Web Attack Brute Force>, fillcolor="#fadcf4"] ;
431 -> 433 ;
434 [label=<Flow IAT Min &le; 106.5<br/>gini = 0.475<br/>samples = 54<br/>value = [0, 0, 0, 0, 0, 0, 0, 0, 0, 0, 0, 0, 21, 0<br/>33]<br/>class = Web Attack XSS>, fillcolor="#f6b8b7"] ;
433 -> 434 ;
435 [label=<gini = 0.0<br/>samples = 24<br/>value = [0, 0, 0, 0, 0, 0, 0, 0, 0, 0, 0, 0, 0, 0<br/>24]<br/>class = Web Attack XSS>, fillcolor="#e53c39"] ;
434 -> 435 ;
436 [label=<Flow IAT Mean &le; 1780404.0<br/>gini = 0.42<br/>samples = 30<br/>value = [0, 0, 0, 0, 0, 0, 0, 0, 0, 0, 0, 0, 21, 0<br/>9]<br/>class = Web Attack Brute Force>, fillcolor="#f08edb"] ;
434 -> 436 ;
437 [label=<Fwd IAT Min &le; 672.0<br/>gini = 0.269<br/>samples = 25<br/>value = [0, 0, 0, 0, 0, 0, 0, 0, 0, 0, 0, 0, 21, 0<br/>4]<br/>class = Web Attack Brute Force>, fillcolor="#ea5fcc"] ;
436 -> 437 ;
438 [label=<gini = 0.0<br/>samples = 4<br/>value = [0, 0, 0, 0, 0, 0, 0, 0, 0, 0, 0, 0, 0, 0<br/>4]<br/>class = Web Attack XSS>, fillcolor="#e53c39"] ;
437 -> 438 ;
439 [label=<gini = 0.0<br/>samples = 21<br/>value = [0, 0, 0, 0, 0, 0, 0, 0, 0, 0, 0, 0, 21, 0<br/>0]<br/>class = Web Attack Brute Force>, fillcolor="#e539c0"] ;
437 -> 439 ;
440 [label=<gini = 0.0<br/>samples = 5<br/>value = [0, 0, 0, 0, 0, 0, 0, 0, 0, 0, 0, 0, 0, 0<br/>5]<br/>class = Web Attack XSS>, fillcolor="#e53c39"] ;
436 -> 440 ;
441 [label=<Flow IAT Min &le; 108.0<br/>gini = 0.395<br/>samples = 48<br/>value = [0, 0, 0, 0, 0, 0, 0, 0, 0, 0, 0, 0, 35, 0<br/>13]<br/>class = Web Attack Brute Force>, fillcolor="#ef83d7"] ;
433 -> 441 ;
442 [label=<Fwd IAT Min &le; 701.5<br/>gini = 0.077<br/>samples = 25<br/>value = [0, 0, 0, 0, 0, 0, 0, 0, 0, 0, 0, 0, 24, 0<br/>1]<br/>class = Web Attack Brute Force>, fillcolor="#e641c3"] ;
441 -> 442 ;
443 [label=<gini = 0.0<br/>samples = 22<br/>value = [0, 0, 0, 0, 0, 0, 0, 0, 0, 0, 0, 0, 22, 0<br/>0]<br/>class = Web Attack Brute Force>, fillcolor="#e539c0"] ;
442 -> 443 ;
444 [label=<Flow IAT Std &le; 2985769.75<br/>gini = 0.444<br/>samples = 3<br/>value = [0, 0, 0, 0, 0, 0, 0, 0, 0, 0, 0, 0, 2, 0<br/>1]<br/>class = Web Attack Brute Force>, fillcolor="#f29ce0"] ;
442 -> 444 ;
445 [label=<gini = 0.0<br/>samples = 2<br/>value = [0, 0, 0, 0, 0, 0, 0, 0, 0, 0, 0, 0, 2, 0<br/>0]<br/>class = Web Attack Brute Force>, fillcolor="#e539c0"] ;
444 -> 445 ;
446 [label=<gini = 0.0<br/>samples = 1<br/>value = [0, 0, 0, 0, 0, 0, 0, 0, 0, 0, 0, 0, 0, 0<br/>1]<br/>class = Web Attack XSS>, fillcolor="#e53c39"] ;
444 -> 446 ;
447 [label=<Flow IAT Min &le; 122.0<br/>gini = 0.499<br/>samples = 23<br/>value = [0, 0, 0, 0, 0, 0, 0, 0, 0, 0, 0, 0, 11, 0<br/>12]<br/>class = Web Attack XSS>, fillcolor="#fdefef"] ;
441 -> 447 ;
448 [label=<Fwd IAT Min &le; 683.0<br/>gini = 0.375<br/>samples = 16<br/>value = [0, 0, 0, 0, 0, 0, 0, 0, 0, 0, 0, 0, 4, 0<br/>12]<br/>class = Web Attack XSS>, fillcolor="#ee7d7b"] ;
447 -> 448 ;
449 [label=<gini = 0.0<br/>samples = 2<br/>value = [0, 0, 0, 0, 0, 0, 0, 0, 0, 0, 0, 0, 2, 0<br/>0]<br/>class = Web Attack Brute Force>, fillcolor="#e539c0"] ;
448 -> 449 ;
450 [label=<Fwd IAT Max &le; 5171591.0<br/>gini = 0.245<br/>samples = 14<br/>value = [0, 0, 0, 0, 0, 0, 0, 0, 0, 0, 0, 0, 2, 0<br/>12]<br/>class = Web Attack XSS>, fillcolor="#e95d5a"] ;
448 -> 450 ;
451 [label=<Fwd IAT Min &le; 691.0<br/>gini = 0.408<br/>samples = 7<br/>value = [0, 0, 0, 0, 0, 0, 0, 0, 0, 0, 0, 0, 2, 0<br/>5]<br/>class = Web Attack XSS>, fillcolor="#ef8a88"] ;
450 -> 451 ;
452 [label=<gini = 0.0<br/>samples = 2<br/>value = [0, 0, 0, 0, 0, 0, 0, 0, 0, 0, 0, 0, 2, 0<br/>0]<br/>class = Web Attack Brute Force>, fillcolor="#e539c0"] ;
451 -> 452 ;
453 [label=<gini = 0.0<br/>samples = 5<br/>value = [0, 0, 0, 0, 0, 0, 0, 0, 0, 0, 0, 0, 0, 0<br/>5]<br/>class = Web Attack XSS>, fillcolor="#e53c39"] ;
451 -> 453 ;
454 [label=<gini = 0.0<br/>samples = 7<br/>value = [0, 0, 0, 0, 0, 0, 0, 0, 0, 0, 0, 0, 0, 0<br/>7]<br/>class = Web Attack XSS>, fillcolor="#e53c39"] ;
450 -> 454 ;
455 [label=<gini = 0.0<br/>samples = 7<br/>value = [0, 0, 0, 0, 0, 0, 0, 0, 0, 0, 0, 0, 7, 0<br/>0]<br/>class = Web Attack Brute Force>, fillcolor="#e539c0"] ;
447 -> 455 ;
456 [label=<gini = 0.0<br/>samples = 17<br/>value = [0, 0, 0, 0, 0, 0, 0, 0, 0, 0, 0, 0, 17, 0<br/>0]<br/>class = Web Attack Brute Force>, fillcolor="#e539c0"] ;
430 -> 456 ;
457 [label=<gini = 0.0<br/>samples = 11<br/>value = [0, 0, 0, 0, 0, 0, 0, 0, 0, 0, 0, 0, 11, 0<br/>0]<br/>class = Web Attack Brute Force>, fillcolor="#e539c0"] ;
415 -> 457 ;
458 [label=<gini = 0.0<br/>samples = 14<br/>value = [0, 0, 0, 0, 0, 0, 0, 0, 0, 0, 0, 0, 14, 0<br/>0]<br/>class = Web Attack Brute Force>, fillcolor="#e539c0"] ;
414 -> 458 ;
459 [label=<Flow IAT Max &le; 5244259.0<br/>gini = 0.337<br/>samples = 42<br/>value = [0, 0, 0, 0, 0, 0, 0, 0, 0, 0, 0, 0, 9, 0<br/>33]<br/>class = Web Attack XSS>, fillcolor="#ec716f"] ;
413 -> 459 ;
460 [label=<Fwd IAT Min &le; 689.5<br/>gini = 0.175<br/>samples = 31<br/>value = [0, 0, 0, 0, 0, 0, 0, 0, 0, 0, 0, 0, 3, 0<br/>28]<br/>class = Web Attack XSS>, fillcolor="#e8514e"] ;
459 -> 460 ;
461 [label=<Fwd IAT Min &le; 682.0<br/>gini = 0.444<br/>samples = 9<br/>value = [0, 0, 0, 0, 0, 0, 0, 0, 0, 0, 0, 0, 3, 0<br/>6]<br/>class = Web Attack XSS>, fillcolor="#f29e9c"] ;
460 -> 461 ;
462 [label=<gini = 0.0<br/>samples = 6<br/>value = [0, 0, 0, 0, 0, 0, 0, 0, 0, 0, 0, 0, 0, 0<br/>6]<br/>class = Web Attack XSS>, fillcolor="#e53c39"] ;
461 -> 462 ;
463 [label=<gini = 0.0<br/>samples = 3<br/>value = [0, 0, 0, 0, 0, 0, 0, 0, 0, 0, 0, 0, 3, 0<br/>0]<br/>class = Web Attack Brute Force>, fillcolor="#e539c0"] ;
461 -> 463 ;
464 [label=<gini = 0.0<br/>samples = 22<br/>value = [0, 0, 0, 0, 0, 0, 0, 0, 0, 0, 0, 0, 0, 0<br/>22]<br/>class = Web Attack XSS>, fillcolor="#e53c39"] ;
460 -> 464 ;
465 [label=<Flow IAT Min &le; 125.5<br/>gini = 0.496<br/>samples = 11<br/>value = [0, 0, 0, 0, 0, 0, 0, 0, 0, 0, 0, 0, 6, 0<br/>5]<br/>class = Web Attack Brute Force>, fillcolor="#fbdef4"] ;
459 -> 465 ;
466 [label=<gini = 0.0<br/>samples = 6<br/>value = [0, 0, 0, 0, 0, 0, 0, 0, 0, 0, 0, 0, 6, 0<br/>0]<br/>class = Web Attack Brute Force>, fillcolor="#e539c0"] ;
465 -> 466 ;
467 [label=<gini = 0.0<br/>samples = 5<br/>value = [0, 0, 0, 0, 0, 0, 0, 0, 0, 0, 0, 0, 0, 0<br/>5]<br/>class = Web Attack XSS>, fillcolor="#e53c39"] ;
465 -> 467 ;
468 [label=<Fwd IAT Min &le; 679.0<br/>gini = 0.335<br/>samples = 119<br/>value = [0, 0, 0, 0, 0, 1, 0, 0, 0, 0, 0, 0, 94, 0<br/>24]<br/>class = Web Attack Brute Force>, fillcolor="#ec6dd1"] ;
412 -> 468 ;
469 [label=<Fwd IAT Min &le; 663.0<br/>gini = 0.32<br/>samples = 10<br/>value = [0, 0, 0, 0, 0, 0, 0, 0, 0, 0, 0, 0, 2, 0<br/>8]<br/>class = Web Attack XSS>, fillcolor="#ec6d6a"] ;
468 -> 469 ;
470 [label=<gini = 0.0<br/>samples = 2<br/>value = [0, 0, 0, 0, 0, 0, 0, 0, 0, 0, 0, 0, 2, 0<br/>0]<br/>class = Web Attack Brute Force>, fillcolor="#e539c0"] ;
469 -> 470 ;
471 [label=<gini = 0.0<br/>samples = 8<br/>value = [0, 0, 0, 0, 0, 0, 0, 0, 0, 0, 0, 0, 0, 0<br/>8]<br/>class = Web Attack XSS>, fillcolor="#e53c39"] ;
469 -> 471 ;
472 [label=<Fwd IAT Min &le; 711.5<br/>gini = 0.266<br/>samples = 109<br/>value = [0, 0, 0, 0, 0, 1, 0, 0, 0, 0, 0, 0, 92, 0<br/>16]<br/>class = Web Attack Brute Force>, fillcolor="#ea5dcc"] ;
468 -> 472 ;
473 [label=<Flow IAT Min &le; 130.5<br/>gini = 0.206<br/>samples = 104<br/>value = [0, 0, 0, 0, 0, 1, 0, 0, 0, 0, 0, 0, 92, 0<br/>11]<br/>class = Web Attack Brute Force>, fillcolor="#e853c8"] ;
472 -> 473 ;
474 [label=<gini = 0.0<br/>samples = 51<br/>value = [0, 0, 0, 0, 0, 0, 0, 0, 0, 0, 0, 0, 51, 0<br/>0]<br/>class = Web Attack Brute Force>, fillcolor="#e539c0"] ;
473 -> 474 ;
475 [label=<Fwd IAT Min &le; 690.5<br/>gini = 0.358<br/>samples = 53<br/>value = [0, 0, 0, 0, 0, 1, 0, 0, 0, 0, 0, 0, 41, 0<br/>11]<br/>class = Web Attack Brute Force>, fillcolor="#ec72d2"] ;
473 -> 475 ;
476 [label=<gini = 0.0<br/>samples = 4<br/>value = [0, 0, 0, 0, 0, 0, 0, 0, 0, 0, 0, 0, 0, 0<br/>4]<br/>class = Web Attack XSS>, fillcolor="#e53c39"] ;
475 -> 476 ;
477 [label=<Flow Packets/s &le; 0.752<br/>gini = 0.279<br/>samples = 49<br/>value = [0, 0, 0, 0, 0, 1, 0, 0, 0, 0, 0, 0, 41, 0<br/>7]<br/>class = Web Attack Brute Force>, fillcolor="#ea5fcc"] ;
475 -> 477 ;
478 [label=<gini = 0.0<br/>samples = 3<br/>value = [0, 0, 0, 0, 0, 0, 0, 0, 0, 0, 0, 0, 0, 0<br/>3]<br/>class = Web Attack XSS>, fillcolor="#e53c39"] ;
477 -> 478 ;
479 [label=<Packet Length Std &le; 101.562<br/>gini = 0.198<br/>samples = 46<br/>value = [0, 0, 0, 0, 0, 1, 0, 0, 0, 0, 0, 0, 41, 0<br/>4]<br/>class = Web Attack Brute Force>, fillcolor="#e851c8"] ;
477 -> 479 ;
480 [label=<Fwd IAT Std &le; 3674884.5<br/>gini = 0.162<br/>samples = 45<br/>value = [0, 0, 0, 0, 0, 0, 0, 0, 0, 0, 0, 0, 41, 0<br/>4]<br/>class = Web Attack Brute Force>, fillcolor="#e84cc6"] ;
479 -> 480 ;
481 [label=<gini = 0.0<br/>samples = 27<br/>value = [0, 0, 0, 0, 0, 0, 0, 0, 0, 0, 0, 0, 27, 0<br/>0]<br/>class = Web Attack Brute Force>, fillcolor="#e539c0"] ;
480 -> 481 ;
482 [label=<Fwd IAT Total &le; 5201594.0<br/>gini = 0.346<br/>samples = 18<br/>value = [0, 0, 0, 0, 0, 0, 0, 0, 0, 0, 0, 0, 14, 0<br/>4]<br/>class = Web Attack Brute Force>, fillcolor="#ec72d2"] ;
480 -> 482 ;
483 [label=<gini = 0.0<br/>samples = 4<br/>value = [0, 0, 0, 0, 0, 0, 0, 0, 0, 0, 0, 0, 0, 0<br/>4]<br/>class = Web Attack XSS>, fillcolor="#e53c39"] ;
482 -> 483 ;
484 [label=<gini = 0.0<br/>samples = 14<br/>value = [0, 0, 0, 0, 0, 0, 0, 0, 0, 0, 0, 0, 14, 0<br/>0]<br/>class = Web Attack Brute Force>, fillcolor="#e539c0"] ;
482 -> 484 ;
485 [label=<gini = 0.0<br/>samples = 1<br/>value = [0, 0, 0, 0, 0, 1, 0, 0, 0, 0, 0, 0, 0, 0<br/>0]<br/>class = DoS Slowhttptest>, fillcolor="#39e581"] ;
479 -> 485 ;
486 [label=<gini = 0.0<br/>samples = 5<br/>value = [0, 0, 0, 0, 0, 0, 0, 0, 0, 0, 0, 0, 0, 0<br/>5]<br/>class = Web Attack XSS>, fillcolor="#e53c39"] ;
472 -> 486 ;
487 [label=<Flow IAT Min &le; 162.5<br/>gini = 0.437<br/>samples = 108<br/>value = [0, 0, 0, 0, 0, 1, 0, 0, 0, 0, 0, 0, 33, 0<br/>74]<br/>class = Web Attack XSS>, fillcolor="#f19493"] ;
411 -> 487 ;
488 [label=<Fwd IAT Min &le; 635.0<br/>gini = 0.382<br/>samples = 99<br/>value = [0, 0, 0, 0, 0, 1, 0, 0, 0, 0, 0, 0, 24, 0<br/>74]<br/>class = Web Attack XSS>, fillcolor="#ee7d7b"] ;
487 -> 488 ;
489 [label=<gini = 0.0<br/>samples = 6<br/>value = [0, 0, 0, 0, 0, 0, 0, 0, 0, 0, 0, 0, 6, 0<br/>0]<br/>class = Web Attack Brute Force>, fillcolor="#e539c0"] ;
488 -> 489 ;
490 [label=<Fwd IAT Min &le; 691.5<br/>gini = 0.329<br/>samples = 93<br/>value = [0, 0, 0, 0, 0, 1, 0, 0, 0, 0, 0, 0, 18, 0<br/>74]<br/>class = Web Attack XSS>, fillcolor="#ec6d6b"] ;
488 -> 490 ;
491 [label=<Fwd IAT Min &le; 685.0<br/>gini = 0.082<br/>samples = 47<br/>value = [0, 0, 0, 0, 0, 1, 0, 0, 0, 0, 0, 0, 1, 0<br/>45]<br/>class = Web Attack XSS>, fillcolor="#e64442"] ;
490 -> 491 ;
492 [label=<gini = 0.0<br/>samples = 24<br/>value = [0, 0, 0, 0, 0, 0, 0, 0, 0, 0, 0, 0, 0, 0<br/>24]<br/>class = Web Attack XSS>, fillcolor="#e53c39"] ;
491 -> 492 ;
493 [label=<Fwd Packets/s &le; 0.593<br/>gini = 0.163<br/>samples = 23<br/>value = [0, 0, 0, 0, 0, 1, 0, 0, 0, 0, 0, 0, 1, 0<br/>21]<br/>class = Web Attack XSS>, fillcolor="#e74e4b"] ;
491 -> 493 ;
494 [label=<gini = 0.0<br/>samples = 13<br/>value = [0, 0, 0, 0, 0, 0, 0, 0, 0, 0, 0, 0, 0, 0<br/>13]<br/>class = Web Attack XSS>, fillcolor="#e53c39"] ;
493 -> 494 ;
495 [label=<Fwd IAT Mean &le; 2515739.5<br/>gini = 0.34<br/>samples = 10<br/>value = [0, 0, 0, 0, 0, 1, 0, 0, 0, 0, 0, 0, 1, 0<br/>8]<br/>class = Web Attack XSS>, fillcolor="#eb6765"] ;
493 -> 495 ;
496 [label=<Fwd IAT Min &le; 686.5<br/>gini = 0.198<br/>samples = 9<br/>value = [0, 0, 0, 0, 0, 1, 0, 0, 0, 0, 0, 0, 0, 0<br/>8]<br/>class = Web Attack XSS>, fillcolor="#e85452"] ;
495 -> 496 ;
497 [label=<gini = 0.0<br/>samples = 1<br/>value = [0, 0, 0, 0, 0, 1, 0, 0, 0, 0, 0, 0, 0, 0<br/>0]<br/>class = DoS Slowhttptest>, fillcolor="#39e581"] ;
496 -> 497 ;
498 [label=<gini = 0.0<br/>samples = 8<br/>value = [0, 0, 0, 0, 0, 0, 0, 0, 0, 0, 0, 0, 0, 0<br/>8]<br/>class = Web Attack XSS>, fillcolor="#e53c39"] ;
496 -> 498 ;
499 [label=<gini = 0.0<br/>samples = 1<br/>value = [0, 0, 0, 0, 0, 0, 0, 0, 0, 0, 0, 0, 1, 0<br/>0]<br/>class = Web Attack Brute Force>, fillcolor="#e539c0"] ;
495 -> 499 ;
500 [label=<Fwd Packets/s &le; 0.583<br/>gini = 0.466<br/>samples = 46<br/>value = [0, 0, 0, 0, 0, 0, 0, 0, 0, 0, 0, 0, 17, 0<br/>29]<br/>class = Web Attack XSS>, fillcolor="#f4aead"] ;
490 -> 500 ;
501 [label=<Flow Duration &le; 5315901.0<br/>gini = 0.284<br/>samples = 35<br/>value = [0, 0, 0, 0, 0, 0, 0, 0, 0, 0, 0, 0, 6, 0<br/>29]<br/>class = Web Attack XSS>, fillcolor="#ea6462"] ;
500 -> 501 ;
502 [label=<gini = 0.0<br/>samples = 29<br/>value = [0, 0, 0, 0, 0, 0, 0, 0, 0, 0, 0, 0, 0, 0<br/>29]<br/>class = Web Attack XSS>, fillcolor="#e53c39"] ;
501 -> 502 ;
503 [label=<gini = 0.0<br/>samples = 6<br/>value = [0, 0, 0, 0, 0, 0, 0, 0, 0, 0, 0, 0, 6, 0<br/>0]<br/>class = Web Attack Brute Force>, fillcolor="#e539c0"] ;
501 -> 503 ;
504 [label=<gini = 0.0<br/>samples = 11<br/>value = [0, 0, 0, 0, 0, 0, 0, 0, 0, 0, 0, 0, 11, 0<br/>0]<br/>class = Web Attack Brute Force>, fillcolor="#e539c0"] ;
500 -> 504 ;
505 [label=<gini = 0.0<br/>samples = 9<br/>value = [0, 0, 0, 0, 0, 0, 0, 0, 0, 0, 0, 0, 9, 0<br/>0]<br/>class = Web Attack Brute Force>, fillcolor="#e539c0"] ;
487 -> 505 ;
506 [label=<Fwd IAT Min &le; 697.5<br/>gini = 0.458<br/>samples = 271<br/>value = [0, 0, 0, 0, 0, 0, 0, 0, 0, 0, 0, 0, 96, 0<br/>175]<br/>class = Web Attack XSS>, fillcolor="#f3a7a6"] ;
410 -> 506 ;
507 [label=<Fwd IAT Total &le; 5489848.0<br/>gini = 0.498<br/>samples = 159<br/>value = [0, 0, 0, 0, 0, 0, 0, 0, 0, 0, 0, 0, 75, 0<br/>84]<br/>class = Web Attack XSS>, fillcolor="#fceaea"] ;
506 -> 507 ;
508 [label=<Fwd IAT Total &le; 5458153.0<br/>gini = 0.429<br/>samples = 90<br/>value = [0, 0, 0, 0, 0, 0, 0, 0, 0, 0, 0, 0, 28, 0<br/>62]<br/>class = Web Attack XSS>, fillcolor="#f19492"] ;
507 -> 508 ;
509 [label=<Bwd Packets/s &le; 0.184<br/>gini = 0.486<br/>samples = 65<br/>value = [0, 0, 0, 0, 0, 0, 0, 0, 0, 0, 0, 0, 27, 0<br/>38]<br/>class = Web Attack XSS>, fillcolor="#f7c7c6"] ;
508 -> 509 ;
510 [label=<gini = 0.0<br/>samples = 13<br/>value = [0, 0, 0, 0, 0, 0, 0, 0, 0, 0, 0, 0, 13, 0<br/>0]<br/>class = Web Attack Brute Force>, fillcolor="#e539c0"] ;
509 -> 510 ;
511 [label=<Flow IAT Min &le; 159.5<br/>gini = 0.393<br/>samples = 52<br/>value = [0, 0, 0, 0, 0, 0, 0, 0, 0, 0, 0, 0, 14, 0<br/>38]<br/>class = Web Attack XSS>, fillcolor="#ef8482"] ;
509 -> 511 ;
512 [label=<Fwd IAT Min &le; 690.5<br/>gini = 0.31<br/>samples = 47<br/>value = [0, 0, 0, 0, 0, 0, 0, 0, 0, 0, 0, 0, 9, 0<br/>38]<br/>class = Web Attack XSS>, fillcolor="#eb6a68"] ;
511 -> 512 ;
513 [label=<Flow IAT Min &le; 92.5<br/>gini = 0.142<br/>samples = 39<br/>value = [0, 0, 0, 0, 0, 0, 0, 0, 0, 0, 0, 0, 3, 0<br/>36]<br/>class = Web Attack XSS>, fillcolor="#e74c49"] ;
512 -> 513 ;
514 [label=<gini = 0.0<br/>samples = 1<br/>value = [0, 0, 0, 0, 0, 0, 0, 0, 0, 0, 0, 0, 1, 0<br/>0]<br/>class = Web Attack Brute Force>, fillcolor="#e539c0"] ;
513 -> 514 ;
515 [label=<Flow IAT Min &le; 143.0<br/>gini = 0.1<br/>samples = 38<br/>value = [0, 0, 0, 0, 0, 0, 0, 0, 0, 0, 0, 0, 2, 0<br/>36]<br/>class = Web Attack XSS>, fillcolor="#e64744"] ;
513 -> 515 ;
516 [label=<gini = 0.0<br/>samples = 30<br/>value = [0, 0, 0, 0, 0, 0, 0, 0, 0, 0, 0, 0, 0, 0<br/>30]<br/>class = Web Attack XSS>, fillcolor="#e53c39"] ;
515 -> 516 ;
517 [label=<Flow Packets/s &le; 0.74<br/>gini = 0.375<br/>samples = 8<br/>value = [0, 0, 0, 0, 0, 0, 0, 0, 0, 0, 0, 0, 2, 0<br/>6]<br/>class = Web Attack XSS>, fillcolor="#ee7d7b"] ;
515 -> 517 ;
518 [label=<gini = 0.0<br/>samples = 6<br/>value = [0, 0, 0, 0, 0, 0, 0, 0, 0, 0, 0, 0, 0, 0<br/>6]<br/>class = Web Attack XSS>, fillcolor="#e53c39"] ;
517 -> 518 ;
519 [label=<gini = 0.0<br/>samples = 2<br/>value = [0, 0, 0, 0, 0, 0, 0, 0, 0, 0, 0, 0, 2, 0<br/>0]<br/>class = Web Attack Brute Force>, fillcolor="#e539c0"] ;
517 -> 519 ;
520 [label=<Flow IAT Mean &le; 1789279.875<br/>gini = 0.375<br/>samples = 8<br/>value = [0, 0, 0, 0, 0, 0, 0, 0, 0, 0, 0, 0, 6, 0<br/>2]<br/>class = Web Attack Brute Force>, fillcolor="#ee7bd5"] ;
512 -> 520 ;
521 [label=<gini = 0.0<br/>samples = 2<br/>value = [0, 0, 0, 0, 0, 0, 0, 0, 0, 0, 0, 0, 0, 0<br/>2]<br/>class = Web Attack XSS>, fillcolor="#e53c39"] ;
520 -> 521 ;
522 [label=<gini = 0.0<br/>samples = 6<br/>value = [0, 0, 0, 0, 0, 0, 0, 0, 0, 0, 0, 0, 6, 0<br/>0]<br/>class = Web Attack Brute Force>, fillcolor="#e539c0"] ;
520 -> 522 ;
523 [label=<gini = 0.0<br/>samples = 5<br/>value = [0, 0, 0, 0, 0, 0, 0, 0, 0, 0, 0, 0, 5, 0<br/>0]<br/>class = Web Attack Brute Force>, fillcolor="#e539c0"] ;
511 -> 523 ;
524 [label=<Fwd IAT Total &le; 5479934.0<br/>gini = 0.077<br/>samples = 25<br/>value = [0, 0, 0, 0, 0, 0, 0, 0, 0, 0, 0, 0, 1, 0<br/>24]<br/>class = Web Attack XSS>, fillcolor="#e64441"] ;
508 -> 524 ;
525 [label=<gini = 0.0<br/>samples = 16<br/>value = [0, 0, 0, 0, 0, 0, 0, 0, 0, 0, 0, 0, 0, 0<br/>16]<br/>class = Web Attack XSS>, fillcolor="#e53c39"] ;
524 -> 525 ;
526 [label=<Flow IAT Mean &le; 1829787.312<br/>gini = 0.198<br/>samples = 9<br/>value = [0, 0, 0, 0, 0, 0, 0, 0, 0, 0, 0, 0, 1, 0<br/>8]<br/>class = Web Attack XSS>, fillcolor="#e85452"] ;
524 -> 526 ;
527 [label=<gini = 0.0<br/>samples = 1<br/>value = [0, 0, 0, 0, 0, 0, 0, 0, 0, 0, 0, 0, 1, 0<br/>0]<br/>class = Web Attack Brute Force>, fillcolor="#e539c0"] ;
526 -> 527 ;
528 [label=<gini = 0.0<br/>samples = 8<br/>value = [0, 0, 0, 0, 0, 0, 0, 0, 0, 0, 0, 0, 0, 0<br/>8]<br/>class = Web Attack XSS>, fillcolor="#e53c39"] ;
526 -> 528 ;
529 [label=<Flow Packets/s &le; 0.721<br/>gini = 0.434<br/>samples = 69<br/>value = [0, 0, 0, 0, 0, 0, 0, 0, 0, 0, 0, 0, 47, 0<br/>22]<br/>class = Web Attack Brute Force>, fillcolor="#f196dd"] ;
507 -> 529 ;
530 [label=<Fwd IAT Min &le; 690.0<br/>gini = 0.363<br/>samples = 21<br/>value = [0, 0, 0, 0, 0, 0, 0, 0, 0, 0, 0, 0, 5, 0<br/>16]<br/>class = Web Attack XSS>, fillcolor="#ed7977"] ;
529 -> 530 ;
531 [label=<Flow IAT Min &le; 99.0<br/>gini = 0.111<br/>samples = 17<br/>value = [0, 0, 0, 0, 0, 0, 0, 0, 0, 0, 0, 0, 1, 0<br/>16]<br/>class = Web Attack XSS>, fillcolor="#e74845"] ;
530 -> 531 ;
532 [label=<gini = 0.0<br/>samples = 1<br/>value = [0, 0, 0, 0, 0, 0, 0, 0, 0, 0, 0, 0, 1, 0<br/>0]<br/>class = Web Attack Brute Force>, fillcolor="#e539c0"] ;
531 -> 532 ;
533 [label=<gini = 0.0<br/>samples = 16<br/>value = [0, 0, 0, 0, 0, 0, 0, 0, 0, 0, 0, 0, 0, 0<br/>16]<br/>class = Web Attack XSS>, fillcolor="#e53c39"] ;
531 -> 533 ;
534 [label=<gini = 0.0<br/>samples = 4<br/>value = [0, 0, 0, 0, 0, 0, 0, 0, 0, 0, 0, 0, 4, 0<br/>0]<br/>class = Web Attack Brute Force>, fillcolor="#e539c0"] ;
530 -> 534 ;
535 [label=<Flow IAT Min &le; 156.5<br/>gini = 0.219<br/>samples = 48<br/>value = [0, 0, 0, 0, 0, 0, 0, 0, 0, 0, 0, 0, 42, 0<br/>6]<br/>class = Web Attack Brute Force>, fillcolor="#e955c9"] ;
529 -> 535 ;
536 [label=<Flow IAT Min &le; 81.5<br/>gini = 0.087<br/>samples = 44<br/>value = [0, 0, 0, 0, 0, 0, 0, 0, 0, 0, 0, 0, 42, 0<br/>2]<br/>class = Web Attack Brute Force>, fillcolor="#e642c3"] ;
535 -> 536 ;
537 [label=<gini = 0.0<br/>samples = 2<br/>value = [0, 0, 0, 0, 0, 0, 0, 0, 0, 0, 0, 0, 0, 0<br/>2]<br/>class = Web Attack XSS>, fillcolor="#e53c39"] ;
536 -> 537 ;
538 [label=<gini = 0.0<br/>samples = 42<br/>value = [0, 0, 0, 0, 0, 0, 0, 0, 0, 0, 0, 0, 42, 0<br/>0]<br/>class = Web Attack Brute Force>, fillcolor="#e539c0"] ;
536 -> 538 ;
539 [label=<gini = 0.0<br/>samples = 4<br/>value = [0, 0, 0, 0, 0, 0, 0, 0, 0, 0, 0, 0, 0, 0<br/>4]<br/>class = Web Attack XSS>, fillcolor="#e53c39"] ;
535 -> 539 ;
540 [label=<Flow IAT Min &le; 127.5<br/>gini = 0.305<br/>samples = 112<br/>value = [0, 0, 0, 0, 0, 0, 0, 0, 0, 0, 0, 0, 21, 0<br/>91]<br/>class = Web Attack XSS>, fillcolor="#eb6967"] ;
506 -> 540 ;
541 [label=<Flow IAT Min &le; 94.0<br/>gini = 0.104<br/>samples = 73<br/>value = [0, 0, 0, 0, 0, 0, 0, 0, 0, 0, 0, 0, 4, 0<br/>69]<br/>class = Web Attack XSS>, fillcolor="#e74744"] ;
540 -> 541 ;
542 [label=<gini = 0.0<br/>samples = 1<br/>value = [0, 0, 0, 0, 0, 0, 0, 0, 0, 0, 0, 0, 1, 0<br/>0]<br/>class = Web Attack Brute Force>, fillcolor="#e539c0"] ;
541 -> 542 ;
543 [label=<Fwd IAT Min &le; 700.5<br/>gini = 0.08<br/>samples = 72<br/>value = [0, 0, 0, 0, 0, 0, 0, 0, 0, 0, 0, 0, 3, 0<br/>69]<br/>class = Web Attack XSS>, fillcolor="#e64442"] ;
